435 300
plane -0.058987 0.165181 -0.079813 -0.252389 0.204497 0.150544 0.248221 -0.632118 -0.04781 0.089816 -0.324802 -0.120366 -0.315834 -0.077213 -0.023516 -0.103648 -0.222715 0.083574 -0.272693 0.004083 -0.044573 0.026289 0.316395 -0.155722 -0.016153 -0.254662 -0.04191 -0.019958 0.207205 0.020278 0.233868 0.016606 -0.176594 -0.060261 0.131797 0.048682 0.093222 -0.118181 0.510957 0.25053 0.167161 0.134141 0.084541 0.058487 -0.030462 -0.283256 -0.046472 -0.138625 0.220649 0.011105 -0.07834 -0.010293 0.02988 -0.089262 0.242307 0.194067 0.074508 -0.052507 -0.170403 0.039305 -0.078707 0.072665 0.336102 -0.5437 0.181639 -0.40257 -0.360224 0.040292 -0.149205 0.076303 0.026228 0.091364 -0.207296 -0.009797 -0.221362 -0.058936 0.054898 -0.037987 -0.016294 -0.002307 -0.514475 -0.237305 0.248763 -0.094457 -0.201923 0.057413 -0.318332 -0.512133 0.132011 0.016591 -0.212107 0.157389 -0.081977 0.043016 0.13574 0.006283 0.15702 -5.84E-4 0.180868 -0.128676 -0.231424 0.171471 0.127056 -0.024586 0.261251 -0.028461 -0.099019 0.223635 0.140996 -0.109761 -0.338686 -0.042529 0.372867 -0.015515 -0.208155 -0.102501 0.091433 -0.116824 0.352089 0.167557 -0.006439 -0.232962 0.151482 -0.003338 -0.110871 0.066746 0.049747 -0.060082 0.096171 -0.073502 -0.055055 0.062699 0.032181 0.109001 0.104857 0.202274 -0.178737 -0.216845 -0.311166 0.226523 -0.048316 -0.249185 0.106404 -0.002768 -0.10209 0.347815 -0.146428 0.348363 -0.339302 -0.122831 0.120111 0.235934 0.33643 -0.170018 -0.331456 0.235889 -0.196885 -0.090349 0.188755 -0.265917 -0.120152 0.056534 0.097138 -0.403585 0.440604 -0.197755 -0.137144 -0.044512 -0.004306 -0.017172 -0.037825 0.290239 -0.095123 -0.232229 -0.08755 -0.295008 -0.267623 0.269025 0.466365 -0.460367 0.206889 -0.077028 -0.137371 -0.165216 0.083553 0.023253 0.068988 0.102565 0.140725 0.096667 0.201617 -0.045025 -0.041151 -0.206582 0.255989 0.243127 0.241771 -0.21846 0.412668 0.124543 -0.172965 0.134614 0.202522 0.0762 0.264229 -0.123683 0.081122 -0.183298 0.242315 -0.100775 0.125226 0.111493 0.001293 0.002691 -0.021978 0.204278 -0.256555 0.344852 0.045678 -0.009371 0.255073 -0.295333 -0.101702 0.047229 -0.14019 0.103075 0.326254 -0.092992 -0.067987 0.253214 0.079048 -0.154752 -0.247641 -0.071397 -0.262876 -0.02069 -0.295781 0.048963 -0.046145 0.085355 0.096149 -0.115907 0.105247 -0.169143 0.080495 0.008704 0.159588 0.319637 -0.105941 -0.336033 -0.122839 -0.045767 -0.18662 0.203898 0.141546 0.255972 -0.647361 -0.120839 0.007856 0.178201 -0.224304 -0.264506 0.126583 -0.162272 0.315069 -0.247693 -0.045321 0.037543 -0.085525 0.076599 -0.048285 0.1406 0.12385 0.117172 -0.136176 -0.210833 -0.30461 0.138366 -0.198604 0.029836 -0.096295 -0.02606 0.046191 0.195596 -0.067609 -0.089094 -0.353962 0.059944 -0.098672 -0.114571 -0.20559 -0.066971 0.052214 0.093126 0.140897 -0.045679 -0.197302 0.116216 -0.113355 0.227888
stupid 0.112758 0.176338 0.291784 0.109667 -0.304442 -0.231564 -0.114733 0.200863 -0.169901 -0.090971 -0.105536 0.158835 -0.160554 -0.154332 0.024863 0.172956 -0.033286 0.135262 -0.125754 -0.274502 -0.02903 0.017262 0.158736 -0.028026 0.040001 -0.068498 -0.038307 0.045271 0.070497 -0.090835 -0.01081 0.045716 -0.288735 -0.006042 0.065485 -0.238086 -0.001908 0.005367 0.015997 0.231932 0.025336 -0.251878 0.133775 0.100135 -0.042971 -0.115994 0.027535 0.027847 0.161639 0.020472 0.160662 -0.022981 -0.07002 0.122768 -0.023566 0.029586 -0.104489 0.101333 0.006218 0.049822 -0.249061 -0.022171 0.271153 -0.157442 -0.393549 -0.077961 -0.143899 0.177141 0.566878 0.249977 0.270734 -0.21973 -0.08444 0.224801 0.035619 7.32E-4 -0.065322 0.082133 0.379133 0.387327 0.046341 0.086446 0.182139 0.021826 -0.072633 -0.073417 -0.140841 -0.198636 0.1172 0.289593 0.148201 0.319436 -0.189463 0.031747 -0.078331 -0.515661 0.061396 0.389543 -0.264779 -0.172578 -0.210641 0.122813 0.142846 -0.140376 0.425206 0.008889 0.244136 -0.057259 -0.05105 -0.043258 -0.317733 0.069264 0.393286 0.118167 0.131545 -0.169354 -0.327061 -0.012425 0.142146 0.193036 -0.018809 -0.021131 -0.098761 -0.034194 0.033933 -0.235571 0.066826 0.15751 0.045241 0.17927 0.061667 -0.071871 -0.018607 0.219651 -0.081484 -0.083088 -0.243422 -0.208707 -0.519292 0.248204 -0.080833 -0.014414 0.035507 0.111145 0.007406 0.211299 -0.277312 -0.019301 0.030092 -0.375315 0.1033 0.448051 -0.09812 -0.238125 -0.146792 0.143835 0.017493 -0.369124 -0.054686 -0.011119 0.167654 0.159586 -0.110492 -0.11155 0.089767 -0.048927 -0.260652 -0.058993 -0.071793 0.071127 -0.150977 -0.053413 -0.393892 -0.383672 0.05192 -0.079199 0.044066 0.138328 -0.001721 -0.058761 0.175678 -0.07225 -0.089019 -0.253662 -0.014747 0.139523 0.279452 0.043962 0.122015 0.100447 0.241388 0.008198 -0.168189 0.30701 -0.008208 0.011159 0.201002 -0.203032 -0.113019 -0.398403 0.239893 0.141694 0.073469 -0.055243 0.084727 0.158712 -0.021117 -0.017936 -0.197454 -0.068649 -0.110915 -0.028628 -0.053438 -0.118072 -0.243704 0.093995 -0.026355 -0.017956 0.013703 -0.201496 -0.091566 0.062652 0.250602 -0.128388 -0.329636 0.056602 -0.360822 7.92E-4 -0.220852 0.063505 -0.026013 0.114608 0.063757 0.212032 0.154878 -0.182839 -0.090755 0.063741 0.268611 0.112656 0.141252 0.019371 0.268138 0.353667 0.062535 0.165351 -0.100136 0.054511 -0.170424 -0.096603 -0.039115 0.101363 0.167313 0.312723 0.297658 0.208433 -0.374131 -0.29711 0.234351 0.077176 0.296683 -0.2893 -0.472644 0.051427 0.284916 -0.172768 -0.059675 -0.364035 -0.279615 -0.105813 -0.009186 0.139525 -0.018336 0.131788 -0.21652 -0.331344 -0.336119 -0.02596 -0.022921 -0.052244 -0.095796 0.073176 0.304533 0.033813 -0.035396 0.030027 -0.29846 -0.085198 0.00976 0.044129 -0.127682 0.079227 -0.313734 0.289307 -0.248106 -0.156768 0.055794 0.148618 0.019943 -0.019255
egg 0.27945 0.151227 0.02974 -0.144452 0.114005 0.099983 -0.093855 -0.299587 -0.163781 -0.109649 -0.06404 -0.040941 -0.085269 -0.118707 0.188028 0.32474 -0.020388 0.131691 0.029442 -0.272723 -0.097034 -0.098862 0.069768 0.150623 -0.053982 0.147943 -0.125782 -0.041396 0.094916 -0.061507 -0.107368 0.378607 -0.233818 0.053033 -0.026044 0.011253 -0.328281 -0.088983 0.137224 -0.023626 0.205211 -0.221918 -0.020285 -0.004594 0.107362 -0.035936 0.217444 0.047137 0.341132 -0.077269 -0.158713 -0.177083 0.060598 -0.281663 0.190239 -0.228483 -0.301801 -0.128987 0.053583 -0.056523 -0.15814 0.209864 0.045675 -0.29407 0.023452 -0.249822 0.004368 0.17604 0.137534 0.095917 0.036468 0.019513 -0.209483 0.126579 -0.182913 -0.010205 -0.235446 0.188216 0.173493 0.090337 -0.297421 -0.067574 0.323048 -0.169866 0.026554 0.062546 0.182221 -0.297416 0.232148 0.034668 -0.227343 -0.125484 -0.395766 -0.127542 0.203173 -0.236139 -0.062291 0.130843 -0.272178 -0.239987 -0.027572 0.244113 -0.111981 -0.050008 0.321035 0.109485 -0.068282 -0.098112 -0.21453 0.074763 -0.446636 0.060327 0.237361 0.172727 -0.123298 0.089348 -0.067487 0.122648 -0.082136 0.094429 -0.075175 -0.02634 0.05091 0.060496 -0.049559 -0.109681 -0.117893 0.076014 -0.018373 -0.249489 0.076886 -0.0512 -0.029928 0.149777 -0.072021 0.234914 -0.02685 0.158846 -0.199155 0.179874 0.050023 -0.145802 0.153568 0.02937 0.050249 0.088867 0.092432 0.168822 0.050631 -0.045753 0.16494 -0.029544 -0.233848 -0.121513 -0.117559 0.069299 0.024749 -0.031022 -0.364627 -0.232814 0.076095 0.140987 -0.024753 -0.034945 0.111459 0.037333 -0.267564 -0.058942 0.220402 0.209463 -0.144607 -0.401701 -0.185476 -0.157489 0.063325 -0.064651 -0.288174 -0.079071 0.355622 -0.19514 -0.101091 -0.191974 0.200586 -0.079313 0.096056 -0.081169 0.124556 -0.096908 -0.121067 0.229156 -0.075098 -0.134211 -0.084671 0.235621 -0.17551 0.083093 0.121823 0.12926 -0.049905 -0.177104 0.335519 0.098826 0.136388 0.029224 -0.085614 0.055341 -0.11432 0.009329 -0.020657 -0.047625 0.040345 -0.064803 0.053929 -0.015266 -0.032458 -0.178676 -0.188079 -0.102762 0.02383 0.018547 0.114462 0.019388 0.002214 -0.082268 0.023525 -0.068427 -0.137956 -4.4E-4 -0.01353 -0.129066 0.055443 -0.080967 0.188113 0.008636 -0.092952 -0.106911 0.099498 -0.117684 0.084077 0.196451 0.004986 0.063539 -0.146151 0.138992 0.157983 0.100524 0.08073 0.134588 -0.181873 0.223247 0.072688 -0.265263 -0.097808 0.19371 0.357741 -0.134534 -0.238239 -0.027669 0.135715 0.037625 0.287699 -0.424976 -0.154165 -0.035741 -0.162924 0.06982 0.286697 -0.269905 0.132973 0.160895 -0.197655 0.12961 -0.240238 -0.208083 -0.270657 -0.291418 0.022753 -0.05637 -0.199162 -0.032266 0.09621 0.075656 0.227003 9.84E-4 -0.045088 0.073549 -0.282146 0.036471 0.181654 0.010568 -0.331863 -0.053193 -0.216668 0.005731 0.133928 6.78E-4 0.062656 0.199478 0.113729 0.074775
year 0.109782 0.07163 0.257707 -0.176703 -0.104107 0.01444 0.101014 -0.225112 0.27487 -0.064726 0.183422 -0.147486 0.162777 0.152672 0.08765 0.041581 -0.065009 0.056168 -0.049219 -0.04301 -0.215059 -0.166776 0.230438 0.136838 -0.135729 -0.125345 -0.225857 -0.0163 -0.02063 -0.185394 -0.287873 0.35934 0.023895 -0.201189 0.04216 0.02134 0.225801 -0.046474 -0.354038 -0.138233 -0.001678 3.89E-4 0.239609 -0.241528 0.156769 0.181123 0.195458 -0.508557 0.096551 0.044321 0.108112 0.067154 0.077812 -0.170393 -0.223405 0.116929 -0.012926 -0.15289 -0.139911 -0.082668 -0.252972 -0.080599 0.032043 -0.124298 -0.105287 -0.205579 -0.254629 -0.146349 0.159941 0.049825 -0.175556 0.051274 -0.323041 -0.18523 0.038629 -0.013885 0.095816 0.07232 -0.013221 0.062402 -0.043527 -0.058021 0.241119 0.048783 -0.103991 0.273145 -0.292926 -0.308515 0.269955 -0.115228 -0.311323 -0.252224 -0.067363 0.208196 0.02286 -0.013234 0.057794 0.143927 -0.238708 0.163448 0.019526 0.287262 0.235863 0.304312 -0.015146 -0.261805 0.177911 0.179288 -0.114775 0.323965 -0.133293 0.089162 0.337671 -0.238722 -0.090472 -0.059712 -0.032689 0.222236 -0.289647 -0.021809 0.076172 -0.127136 0.192994 0.024278 -0.084152 0.183723 0.247369 0.187601 0.184887 -0.102185 0.102514 0.123662 0.003566 -0.13533 0.28647 -0.015105 -0.200412 -0.06505 -0.166 0.01249 -0.107937 0.012593 -0.096549 -0.162017 -0.09544 0.110415 -0.178957 0.285435 0.041151 -0.031392 -0.026442 0.344327 0.029816 -0.134396 0.109942 0.119466 0.037085 -0.281129 -0.141673 0.055474 0.166458 -0.043922 -0.161766 0.027835 0.180365 -0.139876 -0.066832 -0.099401 -0.038961 0.139321 -0.065363 -0.077455 0.121263 -0.611946 0.012894 -0.162288 -0.409522 0.349272 0.104865 0.036539 -0.136122 -0.050108 0.053506 0.159851 -0.174748 0.199286 0.325436 0.165258 0.024347 -0.055563 0.222126 -0.073883 0.01818 0.015272 -0.23485 0.168856 -0.059547 -0.154991 0.218676 -0.127819 0.186441 0.176398 0.1395 0.071001 -0.082728 -0.077855 6.13E-4 0.161362 0.090583 -0.077479 0.070437 0.014694 0.069197 -0.032727 0.287484 0.128184 -0.07277 -0.154869 0.134855 -0.033345 0.030235 0.3015 0.091983 0.196179 -0.389937 -0.185181 0.252392 0.077333 0.151095 -0.049236 -0.275578 0.27029 0.160946 -0.27163 0.090422 0.017437 0.039009 -0.046765 -0.028082 0.024087 -0.037273 0.242711 -0.082222 0.170949 0.218598 -0.15275 0.038489 -0.001072 -0.001115 -0.150967 0.099018 -0.106377 -0.05927 0.264535 0.140567 -0.123342 -0.20145 -0.191003 -0.103564 -0.045756 0.053094 -0.078066 -0.049637 0.010528 -0.012386 -0.221926 0.040571 -0.017117 -0.204555 -0.075201 0.09991 0.156965 0.116654 0.14494 -0.14403 0.085587 -0.276728 0.115148 0.044892 0.117189 0.247808 -0.018763 -0.043304 0.146088 -0.135868 -0.072182 -0.103888 0.080089 -0.336001 0.209896 0.22583 0.081447 -0.183333 0.315013 -0.069728 -0.045954 0.158211 0.101308 0.211331 0.087125
psychiatry 0.250217 0.152352 -0.065603 0.121952 0.084782 0.063559 0.333848 -0.021393 -0.312899 0.219248 -0.046238 -0.126641 -0.031512 -0.140147 0.182308 0.126045 0.072873 -0.148932 0.047674 0.075053 -0.073428 0.066785 0.218385 0.133111 0.118712 0.005821 -0.019413 -0.127837 0.006003 -0.071948 0.01777 0.158366 0.040286 -0.124889 -0.024487 0.18841 -0.006538 0.22098 0.010808 -0.313929 -0.087141 -0.033901 -0.074043 -0.263852 0.059846 -0.228665 -0.014796 0.183383 0.003694 -0.148248 -0.190729 -0.071387 0.099238 0.056347 0.111313 -0.13432 -0.271853 0.041272 -0.228396 -0.277648 -0.088956 -0.210085 0.133046 0.099886 -0.102573 -0.156159 -0.029031 -0.063158 0.328636 -0.181001 -0.102094 0.010198 -0.215501 -0.047054 0.116624 -0.130837 -0.148173 0.305438 -0.05707 0.179848 -0.02345 -0.026089 0.073817 -0.036538 -0.125259 -0.001438 0.008504 -0.258819 0.233025 -0.130208 -0.202154 -0.182257 -0.372367 -0.411273 -0.157232 -0.070617 0.266941 6.84E-4 -0.055276 -0.153252 -0.213578 0.046494 0.114581 -0.056276 0.006817 -0.165591 0.127389 0.192766 0.060952 -0.049199 -0.117343 0.01914 0.228436 -0.219441 -0.180252 -0.057885 -0.052259 -0.064602 0.166355 0.011158 0.339952 -0.042393 -0.050255 -0.015047 0.017781 -0.249462 0.091404 0.213576 -0.091546 -0.013326 0.022331 -0.04499 -0.085306 0.051545 -0.206053 -0.014913 0.025844 0.279507 -0.25122 -0.010035 0.134698 -0.054596 0.035201 0.042137 -0.065707 -0.020288 -0.222062 0.042014 -0.085153 -0.053641 0.033242 0.240322 -0.256751 -0.069505 -0.244169 0.253566 -0.144387 -0.238469 0.071282 -0.165894 -0.138243 0.330011 -0.067909 -0.196117 0.084117 -0.101032 -0.057839 0.022439 0.116666 -0.186997 -0.167978 -0.164908 0.055731 -0.05512 0.192885 -0.318787 -0.166438 -0.068829 -0.071392 0.025194 0.125823 -0.044804 0.127023 -0.0317 0.042221 -0.10251 0.03691 0.092615 -0.18084 0.072448 -0.140623 -0.015967 -0.084736 0.303667 0.01293 0.215912 0.118347 -0.064283 -0.326485 -0.184455 -0.225855 -0.126929 -0.087735 0.050962 -0.121842 -0.020432 0.125312 -0.035454 -0.112158 0.172427 -0.059437 -0.027795 0.227727 -0.133155 0.021666 -0.08453 0.049353 0.086618 -0.079724 -0.303534 -0.101138 0.033116 0.075739 0.097211 -0.156518 -0.293211 -0.202058 0.145002 -0.26727 -0.112532 -0.164706 -0.008777 0.014639 -0.174931 0.07731 -0.038469 0.028195 0.123204 -0.171519 0.194623 0.349421 0.056744 0.055233 0.158754 0.020106 0.015468 -0.368896 -0.091637 0.02553 -0.06834 0.167493 -0.253325 -0.003977 0.452191 0.222945 0.057137 -0.218537 -0.201536 0.170681 0.082413 0.368764 3.83E-4 -0.125976 -0.026039 -0.014225 -0.086833 0.349195 -0.100526 -0.092275 -0.207345 -0.164764 0.115517 -0.250267 0.100564 -0.087334 0.053894 -0.229799 0.081234 -0.065065 0.043312 -0.032718 -0.224811 -0.052996 -0.03941 0.123637 -0.144895 0.018279 -0.028505 0.105658 -0.016884 -0.134257 -0.166034 -0.284072 0.22521 -0.110039 -0.062521 0.087875 -0.134632 -0.461226 0.101053
asylum 0.324193 0.01916 -0.13545 -0.064545 -0.089508 0.085512 0.147078 0.178799 0.116003 -0.006539 -0.045421 -0.174465 0.047307 -0.182474 0.001367 0.195155 -0.13818 0.230846 -0.48144 -0.143394 -0.192526 0.054453 -0.006873 -0.282862 -0.135384 -0.496374 -0.347281 0.093664 -0.260079 -0.131474 -0.073842 0.120954 -0.265577 0.250501 -0.135538 0.3566 -0.077205 -0.021989 -0.071929 -0.230365 0.060284 0.026349 0.111973 -0.310145 0.062333 -0.228308 0.138923 -0.346573 0.009469 0.169896 0.072095 -0.1295 -0.071666 0.050448 0.028564 -0.116108 -0.087249 0.104229 0.045167 -0.119713 0.132216 -0.038536 -0.053114 -0.153227 0.059832 0.074802 -0.576046 0.022387 0.230865 -0.099613 0.021824 0.283789 -0.037464 -0.086529 -0.192859 -0.083397 0.025783 0.013569 -0.132261 0.208846 -0.331418 -0.224533 0.116625 -0.10098 0.021749 -0.082047 -0.08869 -0.29156 0.017192 0.147845 0.267886 -0.031351 -0.145651 -0.016613 0.087112 -0.174643 0.033533 0.186032 -0.135655 -0.173008 0.135382 0.122375 -0.032903 0.185517 0.01025 -0.151978 0.14968 0.262231 0.196723 0.158245 -0.334647 0.028388 0.369918 -0.134596 -0.217201 -0.259285 0.068272 -0.339931 -0.040127 -0.196739 -0.241257 0.213918 0.236349 0.08015 -0.176425 -0.10186 -0.247657 0.195722 -0.224867 0.07473 -0.167002 0.209823 -0.069913 0.089607 0.074612 -0.059472 -0.140777 0.052248 -0.321325 -0.087902 -0.320617 0.174011 0.12655 0.119516 -0.040027 0.550239 -0.14556 0.232614 0.068487 -0.232239 -0.155568 0.285911 0.25714 0.081505 -0.149945 0.375574 -0.126842 -0.171177 -0.007165 0.139861 -0.275214 0.017839 0.021465 -0.210327 -0.112613 0.201425 -0.433599 -0.259123 0.059587 0.033 0.145341 -0.338766 -0.06364 -0.468742 0.034735 -0.227642 -0.258347 0.295586 0.09017 -0.127413 -0.037923 -0.022692 0.102518 0.004905 -0.216945 0.036819 0.005838 -0.036313 -0.091595 -0.061386 0.399897 -0.056646 -0.161796 0.010872 0.172447 0.420377 0.234293 0.126858 -0.172337 0.110403 0.163916 -0.17317 0.054344 -0.087057 -0.034543 0.226646 0.144916 -0.071998 0.124354 -0.204372 -0.102093 -0.461388 0.233217 0.214512 0.199041 0.032709 -0.127374 -0.126655 0.1665 0.011221 -0.108436 -0.145338 0.171188 -0.116761 -0.265507 -0.007983 -0.022871 -0.396869 0.027312 -0.063201 -0.069049 0.060371 -0.041597 -0.14398 -0.025265 0.016742 -0.26777 -0.169679 -0.387689 -0.070528 -0.039101 -0.11971 -0.137796 0.00625 -0.136536 0.11115 -0.039687 0.113418 0.020388 -0.090844 -0.129921 -0.293862 0.0864 0.223423 0.157416 -0.014924 -0.074899 -0.099493 0.012437 -0.095299 0.140415 -0.273864 -0.319588 0.155589 0.356661 -0.127452 0.076858 0.133782 -0.030832 -0.212254 -0.283494 -0.279824 0.163915 0.376961 0.030472 0.017864 -0.230232 -0.043488 0.191516 -0.015299 0.028621 -0.034542 -0.124477 -0.26722 -0.189416 -0.249154 0.048302 -0.532996 -0.121997 -0.176949 -0.029906 -0.108997 -0.080945 0.055145 -0.222036 0.05927 -0.157983 -0.007359 -0.034171 0.061321
manslaughter 0.421442 0.1276 0.122916 -0.481728 0.05991 0.127114 -0.255941 0.383571 0.065544 0.317756 0.489623 -0.007797 0.127211 -0.18045 0.080059 -0.041688 -0.073693 -0.01682 -0.080573 -0.084852 0.008729 -0.03114 0.397755 0.013412 0.074586 -0.095564 0.011777 0.094077 -0.280128 -0.17357 0.327938 0.181432 -0.183857 0.489646 0.093152 0.511669 0.311465 0.225442 -0.219319 -0.413929 -0.11345 0.104732 -0.218655 -0.719502 0.086614 -0.18913 0.288634 0.179971 -0.079367 0.04476 -0.219016 0.017581 0.164589 0.03264 0.501597 -0.413829 -0.396317 0.568272 -0.201804 -0.187792 0.220259 -0.303802 -0.230243 -0.132984 -0.096195 -0.098412 -0.28884 -0.115434 0.013944 0.366149 -0.183711 -0.060339 -0.286625 -0.076858 0.310625 -0.118599 0.008751 -0.010669 0.106837 0.27962 -0.064909 0.064727 0.056156 0.155899 -0.013266 -0.080138 0.237053 -0.142581 0.387365 -0.024816 -0.118017 0.296217 -0.253304 -0.061596 0.211152 -0.242426 0.081431 -0.285255 -0.261474 -0.20072 -0.4209 0.160431 0.103306 -0.304191 0.274387 -0.53371 0.313192 -0.066615 -0.026346 0.180459 -0.763519 -0.362819 0.301912 -2.73E-4 -0.378046 -0.048888 -0.519585 0.004858 0.182443 -0.230314 -0.43291 0.086084 0.113625 0.343686 -7.88E-4 -0.189064 -0.1512 -0.020807 -0.326502 -0.031491 0.054995 -0.101915 0.045524 -0.094712 -0.039179 0.02655 -0.030256 0.130409 0.171319 -0.036041 0.31516 -0.404404 0.226478 -0.275507 -0.011554 0.218592 -0.190244 0.410688 0.041728 -0.229027 0.081383 0.148838 -0.072752 -0.260639 -0.066367 0.311583 -0.232049 0.292894 0.131734 0.040303 -0.062579 0.749218 -0.369709 -0.487269 0.23235 0.015645 -0.177108 0.033205 -0.272165 0.180109 -0.346988 -0.39899 0.02628 -0.27633 0.152383 -0.238298 -0.035871 0.348297 -0.120992 -0.321332 0.046361 0.038479 0.094649 -0.208433 -0.391132 -0.003854 -0.061341 0.372802 -0.075471 0.226713 0.159492 -0.186191 0.281582 0.029686 0.079898 0.567652 0.237602 -0.05031 -0.310549 -0.076365 -0.065171 0.291732 -0.307273 -0.350707 -0.377822 -0.090146 -0.006766 -0.349931 -0.240955 -0.26603 -0.059947 -0.119108 -0.295394 -0.226623 0.385365 0.262107 0.033751 0.327014 0.313744 -0.102977 0.177565 -0.047637 -0.268416 0.197106 -0.166347 0.218071 -0.028994 -0.091251 -0.019179 -0.014017 -0.374612 -0.053947 -0.175751 -0.262115 -0.211412 -0.144473 0.170766 0.042192 -0.393412 -0.226223 0.070294 -0.36825 -0.076882 0.108614 -0.060395 0.320732 -0.160612 0.17159 -0.135509 -0.107168 0.498768 0.055025 -0.004803 0.016009 0.008217 -0.018053 -0.350863 0.255478 0.209799 -0.019555 0.067482 -0.33993 -0.290588 -0.089388 -0.046063 -0.235926 -0.240063 0.200945 0.020758 -0.011741 0.103152 -0.027283 0.054132 0.548065 -0.529003 0.083552 -0.231883 0.129822 -0.195169 -0.138402 -0.147378 0.06364 0.067514 0.068562 0.428214 0.287506 0.002977 -0.036439 -0.151715 -0.04795 0.291231 0.246268 -0.185037 0.148521 -0.138195 0.265662 -0.287954 0.127827 0.154339 -0.044924
music 0.137334 0.078073 -0.206319 -0.059505 -0.074963 -0.00883 0.165312 -0.149867 -0.236348 -0.003512 -9.53E-4 0.186688 -0.2787 -0.127095 -0.001313 0.113112 -0.29582 -0.204587 0.043908 -0.115981 -0.12496 -0.040265 0.222537 -0.04554 0.140979 -0.009271 0.123408 0.094803 0.144107 0.005004 -0.34833 -0.040187 -0.136238 0.029226 -0.150191 0.238105 -0.171336 0.388245 0.076451 -0.124581 0.210746 -0.160558 -0.259521 0.189244 -0.266482 0.109616 -0.219091 -0.006422 -0.002147 -0.299507 -0.251285 -0.065352 0.023465 0.025411 0.005071 0.082463 -0.344226 -0.134415 -0.126391 0.048748 -0.09951 -0.139983 0.25628 -0.033762 -0.152863 -0.355499 0.183821 0.139072 0.202282 0.395412 -0.047651 0.040919 -0.038618 0.0476 -0.050094 -0.147629 0.094311 -0.097902 0.116572 0.071577 0.132457 -0.029789 -0.014171 -0.370451 0.217206 -0.051862 0.196176 -0.326446 0.165955 -0.006215 0.048083 0.030367 -0.031919 0.178137 -0.332634 -0.281415 -0.039786 -0.107673 -0.335094 0.266553 -0.328953 0.206873 0.116434 0.128127 -0.084307 -0.130446 -0.071969 -0.065474 -0.14565 -0.02366 -0.052445 0.026392 0.453076 0.061087 -0.139778 -0.059674 -0.207573 -0.168197 -0.012289 0.070523 0.035177 -0.210466 -0.323272 -0.166323 -0.269965 -0.155055 0.082703 0.149732 -0.036285 0.211663 0.114304 -0.102854 -0.001859 -0.540011 -0.256199 0.336748 -0.313929 -0.049647 -0.295748 0.021515 0.023137 -0.189706 -0.013299 -0.200196 -0.02638 0.148536 -0.377717 0.096624 -0.264629 -0.279926 0.066207 0.335397 0.173813 -0.062013 0.001753 0.259419 0.176631 -0.436298 -0.05702 -0.144616 -0.165934 0.257148 -0.088837 -0.127286 0.097544 -0.01219 -0.00794 0.104754 0.061458 -0.022837 -0.068777 0.075435 0.027116 -0.413569 0.187325 -0.285535 -0.289992 0.039976 -0.142638 -0.137017 -0.03744 -0.228272 -0.114497 0.033995 0.069077 0.182655 0.053033 -0.1029 0.334356 -0.065265 -0.015141 -0.042948 0.135994 -0.026072 -0.372053 0.088575 0.021693 -0.078648 -0.21603 -0.295775 0.188203 -0.081602 0.188819 0.098517 -0.124162 0.227497 0.150691 -0.034449 -0.035646 -0.122331 0.117711 -0.092897 0.027978 -0.126346 0.069787 0.063191 -0.113812 -0.061015 0.248119 -0.209015 -0.165902 -0.017825 0.254681 0.07513 -0.192916 -0.093555 -0.499974 0.099266 -0.158497 -0.167635 -0.02063 0.214012 0.071856 -0.065846 -0.051439 -0.025228 -0.062035 -0.128144 0.061411 0.038055 -0.169334 -0.24354 0.02048 0.171069 -0.01089 -0.214523 -0.019899 0.086 -0.162646 -0.126943 -0.164355 -0.326813 0.197284 0.160802 0.178709 -0.279684 -0.051321 -0.328378 0.091025 0.120928 -0.005434 0.027819 -0.060488 0.321109 0.138377 -0.087654 0.008573 -0.297072 -0.029827 -0.024981 -0.072365 -0.027586 -0.173654 -0.125071 -0.014212 -0.07961 -0.186575 -0.024838 -0.12228 0.228733 0.13371 0.111287 -0.008342 0.274249 -0.064602 -0.031895 0.150282 0.097066 0.219723 -0.250238 0.024389 -0.023344 -0.155189 0.393899 -0.267854 0.040885 -0.086735 0.060818 -0.102681 0.106301
record 0.138696 0.106024 0.147395 -0.323794 -0.102735 0.095105 -0.113687 -0.278956 -0.06573 -0.079901 -0.086696 -0.042249 0.129061 0.111566 0.112042 0.180507 -0.116876 0.072438 -0.006965 -0.0518 -0.070259 0.147333 0.490077 0.146501 -0.364281 -0.056822 -0.095895 -0.164085 -0.102704 -0.015482 0.102654 0.443625 -0.039783 -0.274593 -0.124019 0.156217 0.037833 0.057994 -0.125837 -0.013685 0.337026 -0.008501 0.12041 -0.116416 -0.211017 -0.024571 0.227793 -0.379847 0.325067 -0.03894 -0.025459 0.235996 0.123153 -0.098064 0.039336 -0.070657 0.074676 -0.08065 0.194826 0.358644 -0.012901 -0.145325 0.165429 0.097661 -0.069144 -0.369725 -0.159457 -0.187179 0.194018 0.009072 -0.086017 0.239555 -0.13299 -0.020988 0.054667 -0.020633 0.170815 -0.018806 -0.021536 -0.061518 -0.269764 -0.016132 -0.018314 -0.163493 0.099553 -0.091592 0.23541 -0.031416 0.257675 -0.233704 -0.353618 -0.083585 -0.095226 -0.183892 0.076712 0.138431 0.109986 0.0534 -0.085644 0.080635 -0.243634 0.30166 0.098494 0.313617 0.082348 -0.096506 0.202508 0.256466 0.214522 0.060031 -0.070659 0.087838 0.148164 -0.028558 -0.182221 -0.173803 -0.003777 -0.077206 -0.056962 0.035659 -0.079124 -0.207054 -0.09916 -0.25581 0.04479 0.130878 0.092249 0.132358 0.101234 -0.262027 0.168084 0.132167 0.051887 -0.019476 0.128742 0.11318 -0.113824 -0.053989 0.025858 -0.076437 -0.124619 -0.024632 -0.047602 -0.10706 -0.157318 0.019034 -0.141333 -0.052993 -0.033586 -0.122565 0.308161 0.112672 0.214477 0.046693 0.289049 0.107096 0.10863 -0.210399 0.10943 -0.172757 0.10884 -0.058124 -0.203954 -0.027426 0.201762 -0.130375 -0.064056 -0.067876 -0.23254 0.019069 -0.052316 0.032403 0.062016 -0.51209 0.097213 -0.199802 -0.217198 0.169356 0.172238 -0.490231 0.131058 0.007403 -0.202929 0.142514 -0.194271 -0.004087 -0.052247 0.058235 0.08021 -0.197398 0.331512 -0.061883 0.229304 0.408467 -0.139046 -0.013785 -0.072401 -0.144463 -0.184362 0.016397 0.184334 0.151123 0.103676 0.212532 -0.137084 -0.173677 0.162045 -0.091889 0.382551 -0.118997 0.234998 0.009924 0.084164 0.142681 0.165054 0.038231 -0.088017 -0.059619 0.026418 -0.16154 -0.112545 0.063291 0.358356 0.039515 -0.400614 -0.048026 -0.257682 -0.123591 -0.02503 -0.226453 -0.109243 -0.065833 0.104643 0.086824 0.100548 -0.337883 -0.039134 0.060532 0.094235 -0.037927 0.140904 -0.030599 -0.079167 0.243083 -0.056303 -0.012723 -0.088969 -0.072256 -0.198999 0.090312 -0.041251 -0.294904 0.075415 -0.014412 0.112547 -0.17892 -0.196327 -0.027183 0.040646 -0.00802 0.284473 -0.075651 -0.151348 0.149302 -0.124099 0.015255 -0.031135 -0.158539 0.189566 0.280693 0.042368 0.163454 0.082606 -0.073198 -0.024375 0.12895 -0.348129 -0.054437 0.230081 0.111027 -0.081789 0.16049 0.024014 0.354234 -0.148203 0.201175 -0.082332 0.00802 0.110104 0.110362 -0.059702 0.26604 0.037775 0.190083 -0.049067 0.085192 -0.025311 0.041824 0.119414 -0.299129
energy 0.118619 0.252183 0.226469 0.09591 0.224116 0.261237 -0.146206 -0.27365 0.001307 -0.179186 0.133479 -0.216134 0.224051 -0.204181 0.29286 0.109688 -0.030729 0.039644 -0.104594 -0.133235 -0.025533 -0.08032 0.186113 0.182821 -0.257443 -0.215611 -0.538954 0.086215 0.227605 -0.015736 -0.120782 0.299939 -0.227088 -7.14E-4 0.248539 0.236977 -0.583588 -0.070369 0.322448 -0.164872 0.044076 -0.159131 0.061446 0.289999 -0.028218 -0.058754 -0.145025 -0.066745 -0.035271 0.141433 -0.173095 -0.196325 0.066428 0.395106 -0.00919 0.305961 0.228466 -0.395973 0.06247 0.170677 -0.287011 -0.032496 0.006325 0.050466 0.041399 -0.234658 -0.056256 0.019747 0.129879 0.005341 -0.05143 -0.229202 -0.247432 0.309533 -0.167514 0.184513 -0.14935 0.04375 0.205402 -0.233885 -0.221741 0.169836 -0.017753 -0.310067 -0.192275 0.105681 0.082136 -0.264268 0.13128 -0.10945 -0.247706 -0.115125 -0.115138 -0.105282 0.127459 -0.004156 -0.123794 0.224182 -0.014117 -0.25898 -0.151565 0.485608 0.319168 0.130815 -0.124829 -0.222235 -0.198385 0.014824 -0.044573 0.132284 -0.0312 0.203153 0.215432 0.12055 -0.012738 0.12296 0.061313 0.15045 -0.296587 0.050935 0.137593 -0.237472 0.009684 0.220275 0.04769 0.092546 0.165904 0.261113 -0.078389 0.090391 -0.399595 0.095145 0.274567 -0.370899 0.360425 0.207483 -0.044481 -0.007874 -0.428991 0.149795 -0.313756 0.046736 -0.051628 -0.155908 -0.129363 0.326445 -0.219321 0.109714 -0.41325 -0.101685 0.145566 0.359544 0.32405 -0.212306 -0.128007 0.145815 0.028382 -0.250619 -0.109407 -0.294458 -0.159218 0.065634 0.005558 -0.098341 0.223409 0.235511 0.120453 -0.148579 0.068743 -0.078316 0.01619 -0.333895 0.115871 -0.010432 -0.172555 -0.210074 -0.184604 0.204681 0.289368 0.001575 0.135532 0.0869 0.156215 0.044622 -0.248021 0.009578 0.249887 0.028458 -0.060734 -0.063871 -0.165897 -0.08396 0.337879 0.143666 0.2251 0.013219 -0.088017 0.007992 -0.295843 -0.136669 0.411984 0.084943 -0.043533 -0.108242 -0.114643 0.069248 0.102136 -0.186765 -0.121412 -0.129122 0.045359 0.141797 -0.008538 -0.08807 -0.055075 0.167799 0.053656 0.087764 0.008387 -0.027045 -0.077961 0.027666 0.184913 0.124633 -0.167019 0.123197 -0.310864 0.213922 -0.075216 -0.205747 -0.034326 0.12101 0.182535 0.037222 0.409206 0.206531 -0.290509 0.172204 -0.311559 -0.090593 -0.030563 0.222232 -0.024983 0.068883 0.159937 0.138595 -0.177899 -0.323418 -0.012934 0.137953 -0.025615 -0.005332 -0.032726 0.008312 0.036518 -0.457573 -0.29336 0.128122 0.224474 0.181293 0.198237 -0.22078 -0.177279 0.013526 0.023414 -0.23292 -0.104669 -0.129327 0.079864 -0.077913 0.290333 -0.172168 0.004612 -0.019698 -0.479023 -0.559279 -0.225566 0.346178 -0.155072 0.078108 0.111911 0.127295 -0.038593 0.206926 -0.009982 -0.081628 0.066456 0.063705 -0.002137 0.154628 -0.146866 -0.072639 -0.333156 -0.113356 -0.007623 -0.053288 -0.075416 0.074192 -0.295847 -0.140989
announcement -0.050337 0.210715 -0.006189 -0.048836 -0.123966 -0.201165 -0.036457 -0.303479 0.174576 -0.001764 -0.200955 0.026311 -0.047703 -0.111319 0.156107 0.128093 0.073228 0.126072 -0.249651 -0.197495 -0.391216 -0.102873 0.214148 0.084066 -0.108603 -0.099793 -0.152854 0.080503 -0.015789 0.199447 -0.234121 0.475682 -0.201138 -0.327417 -0.06823 0.126474 0.026927 -0.033319 -0.205783 0.125358 0.05698 -0.164804 0.037593 -0.269751 0.029799 0.094849 -0.122901 -0.081807 -0.044892 0.20247 -0.506905 0.177918 -0.142275 0.094823 -0.001582 -0.167857 0.208463 -0.038356 -0.142483 -0.247848 -0.073345 -0.097214 0.222591 -0.277896 -0.162245 -0.311113 -0.202192 0.071477 0.009442 0.077295 -0.097923 -0.054511 0.091033 0.202202 -0.207368 -0.105269 -0.154288 0.024065 0.190697 0.125289 -0.12816 -0.194335 0.02803 -0.184946 0.10147 0.134972 -0.258752 -0.284406 0.061861 -0.134626 -0.352959 -0.084261 -0.091444 -0.273653 -0.320739 0.085451 -0.074049 0.102005 -0.060062 0.217979 0.047913 0.118842 -0.044933 -0.097477 0.001322 -0.018257 -0.140655 0.224618 0.082203 -0.106213 0.068595 0.020948 0.237651 -0.051161 0.008937 -0.239586 0.032735 0.22408 0.025292 0.069128 0.338311 -0.005484 0.285983 -0.083392 -0.088365 0.23559 0.061426 -0.118374 0.115143 -0.410069 -0.075083 0.106047 -0.131207 -0.051373 -0.115994 0.031504 0.210517 -0.03328 -0.020758 -0.217982 -0.146227 0.21598 0.199839 0.070278 0.164336 0.34095 -0.233339 -0.045571 -0.25307 -0.085699 0.009319 0.18304 0.059026 0.203332 0.145512 0.250336 0.160231 -0.172532 -0.061997 -0.186873 0.142415 -0.06279 0.068424 -0.451251 0.240456 0.183442 0.252039 0.013988 -0.134854 0.207383 -0.262323 0.284438 -0.093094 -0.424307 -0.082133 -0.414731 -0.279657 0.135505 0.204786 -0.203067 -0.0313 -0.249874 0.133909 -0.271484 -0.239555 -0.152014 0.199132 0.119814 0.335056 -0.141215 -0.21362 -0.136827 0.037924 0.060429 0.061407 0.265132 0.205913 -0.29068 -0.421234 0.167552 0.17774 0.355278 -0.075051 -0.181701 -0.172281 0.172151 0.017054 -0.005491 0.154316 0.184551 -0.23206 0.070428 -0.099593 0.071183 -0.081496 -0.226878 0.056008 -0.40807 -0.029619 -0.135371 0.147337 0.325505 -0.09277 0.249142 -0.341301 0.058219 0.066011 -0.128742 0.05532 -0.11284 -0.148249 0.056275 -0.133244 -0.032975 -0.190199 0.003819 -0.012173 -0.139834 -0.170631 -0.253708 0.151084 0.078558 -0.231034 0.005322 -0.263744 -0.061314 -0.079199 0.037078 0.045347 -0.083752 -0.154025 -0.156669 -0.150749 0.327547 0.169043 -0.314992 -0.314654 -0.099473 0.116071 -0.009964 0.055337 0.109189 -0.038056 0.010153 -7.28E-4 0.02026 0.062022 0.267335 -0.139837 -0.025579 0.202971 0.181173 0.095022 0.491481 -0.297821 -0.098458 -0.303525 -0.101781 -0.223235 0.168652 0.277727 0.346738 0.327367 0.53474 0.286896 -0.230646 -0.101296 -0.268805 -0.207629 0.096542 0.178056 0.02357 -0.239794 0.248942 0.167604 0.257309 -0.310261 -0.062997 0.005789 0.389584
mile 0.090039 0.291022 -0.144923 0.127588 -0.013351 0.427571 -0.138616 -0.519783 -0.112855 -0.063796 -0.096095 -0.177547 0.064206 0.030538 0.092627 0.112387 -0.139409 -0.091938 -0.067106 0.00942 0.016822 0.025771 0.09836 -0.046129 0.121338 -0.063105 -0.252919 -0.077455 0.06389 -0.144631 -0.031833 0.191805 -0.045129 -0.075868 0.074647 -0.18167 0.041986 -0.121921 0.236601 -0.061937 0.090154 -0.049443 0.116372 -0.389618 0.135278 0.207218 0.456176 -0.247581 0.257749 0.061064 0.153766 0.213322 0.242185 0.350543 0.08654 -0.083684 0.252123 -0.305333 0.037404 -0.12328 -0.266715 0.121266 0.104854 -0.215336 -0.162205 -0.113453 -0.297301 -0.114264 0.381112 0.35055 0.175456 0.226426 -0.350549 -0.19506 0.158198 -0.387444 -0.051448 0.025319 0.197439 -0.105545 -0.112137 -0.068325 0.499073 -0.458129 0.392621 -0.105849 -0.036587 -0.347586 0.309584 -0.159305 -0.824861 -0.061749 -0.339654 0.099826 0.053472 -0.03616 0.068516 0.380759 0.198059 0.081536 -0.066952 0.055944 -0.003582 0.040192 0.248041 0.021009 0.045622 0.18296 0.05268 0.030624 -0.20055 0.159055 0.182666 -0.275117 -0.165801 0.028233 0.013298 0.158579 -0.020031 0.128194 -0.08856 -0.222101 0.060743 0.168324 0.094178 0.058669 0.326779 0.049097 0.082391 -0.074143 0.19945 0.042443 0.155269 0.304422 -0.034105 0.163618 -0.345154 -0.080717 -0.220026 0.160203 -0.037619 -0.178851 0.042682 0.040578 -0.159242 0.236104 0.056144 0.243317 0.247908 -0.346841 0.369041 0.315981 0.215455 -0.042631 -0.165571 -0.121556 -0.156769 -0.265741 0.07365 0.154857 -0.122771 -0.124352 0.003107 0.098537 0.514552 0.007439 -0.236066 0.144977 -0.060884 0.080831 0.002335 0.008205 0.171359 -0.055902 -0.016764 -0.258916 -0.357411 0.229106 0.084171 -0.315535 0.093495 -0.301717 0.090869 0.172989 -0.177087 -0.235827 0.155404 0.110425 0.222124 -0.112407 0.103161 0.178987 -0.058011 0.133757 0.146153 0.041062 -0.283258 -0.183906 0.355648 0.313557 -0.213432 0.150821 -0.06218 0.177124 -0.124801 0.128843 -0.05411 -0.213077 0.010799 -0.191852 -0.04624 0.103488 -0.117829 -0.166107 -0.060958 0.165519 -0.190828 0.066939 0.490491 -0.032468 0.351785 -0.125532 0.106628 -0.116662 -0.219569 0.033364 -0.03299 -0.105881 0.113884 0.232592 0.069753 -0.293875 0.137061 0.167659 -0.335455 -0.090742 0.165474 -0.144592 -0.201466 0.461194 0.10579 -0.248022 -0.077709 0.020587 0.192569 0.040592 0.034853 -0.217805 0.204938 0.038174 -0.211474 0.002952 0.054248 -0.29817 0.148799 -0.25385 -0.316503 0.022516 -0.013245 0.132255 0.339894 -0.175193 0.362718 0.015992 -0.161716 -0.126694 0.184852 -0.194094 0.0637 0.03248 -0.188297 0.055395 0.161948 0.069457 -0.433727 -0.210776 0.149924 -0.132139 -0.054957 -0.08489 0.004095 -0.180165 -0.055859 0.166111 0.067199 0.116296 0.020835 -0.158429 -0.212364 -0.153554 -0.254226 -0.365558 -0.484845 -0.168493 -0.284135 0.057505 0.070398 0.091391 0.141133 0.073188
airport -0.112704 0.129175 -0.026614 0.024346 0.003413 0.373547 0.33111 -0.459032 0.312377 0.093776 -0.158297 0.092376 0.08298 0.00875 0.303426 -0.182873 -0.310281 -0.010623 -0.168945 0.050974 0.078951 -0.010489 0.328562 0.241895 -0.002579 -0.183046 -0.12924 -0.109039 0.100429 -0.127522 0.085409 -0.04085 -0.243995 0.256068 -0.119953 0.228856 0.207649 -0.162994 0.452025 -0.063207 0.190578 0.095812 0.153855 -3.8E-4 0.036473 -0.126457 0.041763 -0.202661 0.019474 0.062344 -0.087416 0.022348 0.14612 0.263918 0.242065 0.266467 0.038966 0.024099 -0.26562 0.135269 0.182886 -0.135603 0.301694 -0.186871 0.085326 -0.259619 -0.469142 -0.264335 0.015077 0.358965 -0.225206 0.095297 -0.48311 0.007812 -0.147734 -0.276695 -0.099162 -0.046505 -0.134156 0.111123 -0.125738 -0.031717 0.154899 -0.00404 0.215522 -0.177548 -0.243286 -0.613045 0.290288 -0.129409 -0.399398 0.279024 0.031977 0.166378 -0.057465 0.060675 -0.061278 0.1213 0.228052 0.188562 -0.326506 0.038415 0.187412 0.26869 0.266939 -0.191182 0.030915 0.236092 0.113324 0.025694 -0.256969 -0.014552 0.48087 -0.136625 0.095681 -0.052487 -0.110003 -0.200577 0.431125 0.043277 -0.035795 -0.222772 0.169072 0.103247 -0.058851 0.035347 -0.027849 -0.18157 -0.088504 -0.041697 -0.138548 0.169463 0.191185 0.230282 0.049327 0.128312 -0.120258 -0.210265 -0.387357 -0.075893 -0.121031 -0.01466 0.168946 -0.212164 0.110114 0.436021 0.010752 0.157426 -0.199519 -0.253493 0.329477 0.35245 0.101774 -0.146264 -0.277791 0.396926 -0.126061 -0.024027 0.04439 0.228739 0.013789 0.182332 0.363464 -0.420313 0.410069 -0.30257 -0.00178 -0.163693 -0.250796 -0.139388 0.069393 0.160054 0.033685 -0.165857 -0.194578 -0.306505 -0.145805 0.072427 0.198174 -0.307304 0.002326 -0.0781 -0.085724 -0.034407 0.091476 -0.045145 0.073773 0.072605 0.090581 -0.225626 -0.035988 -0.080412 0.062953 0.071507 0.118255 0.292406 -0.055071 0.041726 0.207689 -0.036777 -0.308238 0.018112 0.132741 0.143337 0.02397 0.050665 0.060869 -0.061866 0.159814 -0.408197 -0.02103 -0.051031 0.159531 0.113634 -0.130466 0.147724 -0.075207 0.014969 -0.162357 -0.068058 0.13705 -0.345848 -0.265137 0.105209 -0.301119 0.089158 0.098878 -0.087938 0.047982 0.048726 0.124518 0.151804 -0.00665 -0.225869 -0.418193 0.147242 -0.041685 -0.219711 -0.144307 0.115885 -0.091718 -0.067858 -0.175461 -0.221627 -0.079471 0.077364 -0.02301 0.203667 -0.079796 -0.036542 -0.20482 -0.168004 0.09116 -0.085614 -0.038597 0.300859 -0.339672 -0.045182 0.202957 0.148376 -0.200912 -0.266619 -0.017442 -0.169935 0.378225 -0.24429 0.008732 -0.059516 -0.080938 -0.055269 -0.034805 -0.064201 -0.026716 0.105067 -0.130203 -0.116544 -0.064986 0.304308 0.123547 0.005384 0.248212 0.167302 0.036252 -0.237582 0.169334 -0.115734 -0.267094 0.141273 -0.355115 -0.024805 -0.302382 -0.189413 -0.181745 -0.196428 -0.159671 -0.073315 -0.229473 -0.034432 -0.285686 -0.173943
population 0.594312 -0.048334 0.117767 -0.009817 -0.090271 0.035138 -0.210727 -0.254446 0.225314 0.092189 -0.068039 -0.096282 0.10558 -0.080661 -0.064958 -0.01686 0.157963 -0.155936 -0.102329 -0.086655 -6.72E-4 0.132997 -0.08474 -0.059471 -0.194462 -0.288758 -0.22398 0.014928 -0.003742 0.07627 -0.055309 0.387699 0.182617 -0.04303 -0.05062 -0.235808 -0.032716 -0.158219 0.097833 0.154268 0.18027 -0.390784 -0.043216 -0.262403 -0.126482 -0.073681 0.19501 -0.748639 0.086032 -0.161301 -0.221175 -0.138802 -0.19765 0.187986 0.128996 0.09774 -0.028496 -0.206309 0.015879 -0.014239 -0.086771 -0.019522 -0.090759 -0.206996 -0.35894 0.004375 -0.263191 0.04874 0.073527 -0.242717 -0.017157 0.220861 -0.160609 -0.197816 0.070611 -0.159595 0.153715 0.169195 -0.017301 -6.96E-4 -0.32444 -0.079052 0.081738 -0.162979 0.258924 -0.110322 -0.308683 -0.274875 0.727059 -0.185872 -0.491909 -0.226997 -0.401175 -0.225652 0.130375 -0.170843 -0.106695 -0.031293 -0.1016 0.091281 0.033074 0.305231 0.166512 0.087256 0.135634 0.170383 0.172544 -0.217866 -0.2571 0.118472 -0.291427 0.17631 0.161589 0.166877 -0.033301 -0.086821 -0.014773 -0.199484 0.152573 0.0366 -0.193689 0.145132 0.086662 0.031867 -0.176925 -0.049691 0.149438 0.143651 -0.114598 0.224233 -0.065738 0.109401 0.143728 -0.141227 0.044386 0.186703 -0.427049 0.080104 -0.417189 0.008621 0.050261 0.181789 -0.030491 0.029783 0.026153 0.233572 -0.117935 0.308745 0.036281 -0.34257 0.161344 0.199729 -0.174384 -0.280922 -0.042475 0.024602 -0.353949 -0.022374 4.11E-4 0.074273 0.118118 -0.136028 0.019571 -0.021135 0.35015 -0.092911 -0.426331 -0.106641 0.193512 -0.159307 0.022271 -0.05696 0.099345 -0.249096 0.113073 -0.277962 -0.113171 0.115383 0.194484 -0.123346 -0.05102 -0.122154 -0.163665 -0.034601 0.059703 -0.095221 0.170862 -9.87E-4 -0.166546 0.139008 0.111733 -0.124527 -0.004632 0.399887 0.121218 0.217707 -0.189534 0.074825 -0.131223 0.002919 0.266215 0.184578 -0.062119 0.114765 -0.076912 0.168342 0.136934 -0.066053 0.104053 -0.408085 -0.062146 -0.165265 0.349488 -0.36909 0.088423 -0.115615 0.248309 0.018015 0.154139 -0.040209 -0.150742 -0.061222 -0.007695 0.424685 -0.151471 0.047178 0.111824 -0.077817 -0.162757 0.162425 -0.174282 0.218174 -0.082053 -0.068817 -0.144582 -0.222864 -0.15667 -0.068689 -0.133872 0.103267 -0.064605 -0.012653 0.359138 -9.58E-4 0.325559 0.154842 0.088558 -0.19908 -0.028787 0.039778 -0.046874 -0.331986 -0.33788 0.093004 -0.003101 -0.254902 -0.111981 0.281909 0.04374 -0.006188 0.096614 -0.232194 0.006231 0.083011 0.216189 -0.097466 0.117026 -0.255453 0.001511 0.046237 -0.261938 -0.121407 -0.003091 0.061456 -0.11843 -0.403048 -0.030254 -0.091281 -0.185321 0.096238 0.026487 0.090013 -0.152437 -0.044479 -0.273608 0.011085 0.09009 -0.136804 0.024813 0.375075 0.218961 -0.17573 -0.563267 0.336011 0.068895 0.128418 0.153218 0.286949 -0.131009 0.096422
planning 0.074532 0.144522 -0.067827 -0.199355 -0.029896 0.003615 -0.002875 -0.059533 0.267311 -0.236432 0.145683 0.160921 0.116688 -0.232054 0.10242 0.168861 -0.212177 -0.062559 -0.247456 -0.076345 -0.16164 0.016085 0.099296 0.180495 -0.29474 -0.143133 -0.001434 -0.021052 -0.140855 0.058853 0.194585 0.436656 -0.257504 -0.163972 -0.233202 0.197995 -0.209521 0.134003 0.118212 -0.305203 0.106592 -0.002356 0.03198 -0.032658 -0.093307 -0.019081 0.189399 -0.245354 -0.101291 0.100699 -0.028806 0.248387 0.094 0.238911 0.29075 0.047044 -0.110289 -0.128914 -0.304663 0.043778 0.028792 0.024409 0.048708 -0.235529 -0.017102 -0.006688 -0.276807 -0.123729 0.040346 -0.064369 -0.110865 -0.046713 0.162722 -0.052488 -0.07153 0.144875 -0.054041 -0.016721 0.067696 0.172236 -0.099036 0.124914 0.034009 -0.016434 -0.076326 0.323198 -0.270088 -0.291882 0.060537 0.140284 -0.034182 -0.055019 0.112989 -0.137687 -0.078652 0.069171 0.026899 0.083331 -0.168508 0.050241 0.225999 0.0178 0.280105 -0.008104 -0.032974 -0.135752 0.037642 0.147464 0.175388 -0.122655 -0.235432 0.096657 0.401896 -0.158822 -0.249864 0.109406 -0.135894 -0.008424 0.100658 -0.039376 -0.022837 -0.023328 0.22383 0.235966 -0.061185 -0.238492 0.075176 0.069298 -0.108776 -0.062737 -0.14828 0.03772 0.017538 -0.108282 0.116358 -0.072026 -0.232829 0.047921 -0.308834 0.021049 -0.280287 -0.112357 0.125389 0.008095 -0.062896 0.191323 -0.438433 -0.002171 -0.05498 -0.291211 0.075139 0.454911 0.027567 -0.115284 -0.074576 0.321989 -0.126224 -0.04596 -0.049619 0.054581 -0.153115 0.025259 0.160002 -0.242694 0.048047 0.064713 0.069884 -0.018597 -0.181516 0.189205 -0.02755 -0.04869 0.230755 -0.245374 0.036496 0.051361 -0.147198 0.09922 0.031345 -0.153211 0.100419 -0.098441 -0.129063 -0.205991 -0.093109 0.067357 -0.016254 0.298584 0.10363 -0.131216 -0.002958 -0.109065 -0.131745 0.054882 0.18005 0.130838 0.112845 -0.109612 -0.038371 -0.279661 -0.141226 0.127319 -0.022049 0.049814 0.019703 0.040428 0.034885 0.123196 -0.105547 -0.094903 0.03605 -0.207587 0.074663 -0.159168 -0.046541 0.214646 -0.311328 0.174804 0.052118 -0.209994 0.01193 -0.02425 0.296124 -0.061117 -0.434186 0.268717 -0.100931 0.119028 0.142204 -0.188947 -0.224986 0.026178 0.140358 -0.363739 -0.05105 0.058724 -0.229191 -0.301021 -0.347671 -0.124563 0.126673 -0.092587 -0.027757 0.13276 -0.240601 0.015746 -0.042409 -0.107598 4.28E-4 -0.136989 -0.278192 0.092134 -0.227703 0.109046 -0.055554 -0.088273 -0.242287 -0.067171 0.088612 0.008617 0.017527 -0.001651 0.111803 0.022097 0.224355 -0.139406 -0.016749 -0.061996 0.029644 -0.118134 -0.052522 0.122331 -0.193405 0.232022 -0.16203 -0.133867 -0.101895 0.246102 0.200901 -0.146377 0.130116 0.219928 0.068314 0.019073 -0.058142 0.059819 -0.033294 -0.133154 -0.120317 0.057455 0.170867 -0.094339 -0.06654 -0.049216 -0.044854 0.041728 -0.076236 0.153136 -0.134775 0.156263
canyon 0.170334 0.19503 -0.197962 -0.007933 0.025713 0.213069 0.010952 -0.421175 0.126577 0.048941 -0.105942 -0.00303 0.050714 -0.012763 0.107221 0.17456 -0.211097 -0.037527 0.093123 -0.075023 -0.135597 -0.008355 0.222631 -0.061616 0.010375 -0.063988 0.028971 -0.219835 0.07343 -0.093971 0.046876 0.04757 -0.098647 -0.020569 0.07071 0.028968 0.095358 0.131 0.184466 -0.066632 0.090726 -0.131018 0.114359 -0.16818 0.040249 -0.026511 0.240653 -0.160813 0.092774 0.060691 -0.050416 0.10191 0.029221 0.154955 0.17685 -0.080445 0.074949 -0.100046 0.083148 0.038777 -0.119939 -0.228813 0.100206 -0.114135 0.015994 -0.191907 -0.138495 0.174947 0.177341 0.127292 -0.113624 0.164566 -0.110203 -0.113712 -0.033274 -0.108064 -0.114496 -0.055948 0.005401 0.067284 -0.122741 -0.085858 0.243306 -0.23162 0.01432 -0.119711 -0.039356 -0.314834 0.244893 -0.108532 -0.511747 0.002242 -0.198403 -0.057551 0.320197 0.027751 -0.08123 0.042875 0.039593 -0.01456 -0.116041 0.091655 0.07846 0.007556 0.204043 0.024156 -0.02616 0.092406 -0.066348 0.095289 -0.372376 0.166186 0.118448 -0.197089 -0.072626 0.025291 0.120045 0.121244 0.235783 -0.069712 -0.166673 -0.154383 0.091232 0.054376 0.024436 -0.203331 0.318436 0.034198 0.05641 -0.033836 0.095109 0.135784 -0.073662 0.030747 -0.187473 0.166341 -0.135139 -0.104171 -0.237748 0.109026 -0.133721 -0.168182 0.069662 -0.100175 0.040384 0.260722 -0.061776 0.181081 -0.128584 -0.181926 0.287002 0.303851 0.053605 0.0655 -0.080997 0.184289 0.067056 -0.243634 -0.014208 0.116568 -0.064259 -0.022609 -0.046489 -0.149162 0.272009 0.096739 -0.133185 0.071489 -0.055383 -0.031015 -0.025052 0.046109 -0.062231 -0.104155 -0.063468 -0.101131 -0.166961 0.017315 0.165175 -0.144659 0.006996 -0.112367 0.044309 -0.078205 -0.025765 -0.042289 0.052125 -0.158766 -0.061335 -0.033643 -0.017556 0.024605 -0.067975 0.028591 0.046972 0.198251 0.035472 0.140943 0.119567 -0.014229 0.023217 0.281538 0.038469 0.055414 -0.197418 0.285153 0.04464 -0.055124 0.049365 -0.113209 0.035001 -0.162366 0.094948 -0.177433 0.007422 0.107378 -0.052297 -0.020748 0.148906 -0.068563 0.213628 -0.141009 -0.026612 0.053745 -0.188292 0.011748 -0.082604 0.05742 -0.075838 0.090763 0.087491 -0.041226 -0.008491 -0.02505 -0.069702 -0.086581 0.057543 -0.101971 -0.013898 0.009039 -0.094353 -0.140655 -0.015097 0.037131 0.151836 -0.018565 -2.86E-4 0.054956 0.132091 0.00703 0.087237 -0.104446 0.047864 0.010467 0.01165 -0.053624 -0.302355 -0.132758 0.134683 0.09693 -0.004757 -0.179936 -0.051025 -0.185131 -0.061814 0.036944 0.081951 -0.138981 0.056311 -0.053451 0.001669 0.071256 0.034613 0.015961 -0.108025 -0.088753 -0.171941 -0.009213 -0.210874 0.045448 -0.078423 -0.011313 0.11586 0.099053 -0.033732 0.01455 -0.133131 0.186818 -0.071706 -0.194981 -0.292163 -0.121626 -0.161647 0.072242 -0.062154 -0.062233 -0.117921 0.052766 -0.170474 -0.079562
delay -0.037509 -0.023112 0.075274 -0.095736 0.139046 0.177931 -0.279933 -0.126732 0.037911 -0.177755 -0.314786 0.09784 0.154291 0.004434 0.015946 0.189102 -0.15503 0.101955 -0.198389 -0.014041 0.025745 0.203776 0.206177 0.016237 0.060918 -0.19055 -0.412361 0.049642 -0.138418 -0.036253 -0.052274 0.514445 -0.143424 -0.024559 -0.057561 0.170432 0.015705 0.001524 0.183191 -0.114066 -0.015634 -0.169245 0.072794 -0.200875 0.049368 0.140156 0.075437 -0.014227 0.215661 0.378834 0.004297 0.078579 -0.166358 0.408169 0.285133 0.299522 0.087801 -0.170838 0.017164 0.004173 0.150092 0.072046 0.125363 -0.004654 -0.072329 -0.264042 -0.198468 -0.067866 -0.088685 0.154987 -0.247723 -0.105688 -0.1192 0.156378 0.095576 -0.089071 -0.241294 -0.190053 0.151874 0.200171 -8.05E-4 -0.131908 0.113422 0.098723 -0.058718 0.062947 0.103772 -0.454681 0.24119 0.042624 0.074934 -0.150807 -0.315375 -0.220083 -0.175426 0.085002 0.050339 0.312951 -0.210278 0.051303 -0.173672 0.125568 -0.094575 -0.19371 -0.009137 0.013621 0.007599 0.297735 0.261777 0.062318 -0.344694 -0.149039 0.443869 -0.121486 -0.194938 0.070842 0.121931 0.09542 -0.09776 0.126354 -0.107672 -0.04353 -0.009991 0.167691 -0.019904 -0.185622 -0.248561 -0.023098 0.136169 -0.263488 -0.020833 0.043897 0.091634 0.085691 0.115544 -0.129077 -0.112725 0.033968 -0.225665 -0.189837 -0.047575 0.195882 0.054043 0.21487 -0.137637 0.259683 -0.319678 0.173797 -0.146327 -0.160962 0.186483 0.006827 -0.043486 0.107256 -0.056393 0.099853 0.040438 -0.020472 0.005312 0.050032 0.029385 0.034874 0.230129 0.039896 0.136586 0.250183 0.024907 -0.308619 -0.114687 0.196988 -0.058146 0.069342 -0.28103 -0.233987 -0.138119 -0.287067 -0.149638 -0.006513 0.28241 -0.394152 -0.155801 -0.309754 0.051184 -0.067354 -0.302834 -0.152866 0.14855 0.420849 0.204491 0.061715 0.238196 -0.165256 -0.08059 0.299102 0.0231 0.293389 0.300612 0.126693 -0.189816 -0.015617 0.008103 0.151369 -0.101128 -0.019855 -0.09132 -0.157185 -0.308828 3.53E-4 0.218849 -0.105808 -0.311943 -0.056573 -0.009106 -0.197642 0.241672 0.06349 -0.208268 0.070655 0.064971 0.011145 -0.10251 0.075152 -0.083547 -0.108674 -0.278838 0.053423 0.10394 0.112738 0.088635 -0.138872 -0.135712 -0.038336 -0.235214 -0.210948 -0.159058 0.175307 -0.00988 -0.073276 -0.198038 -0.125439 0.230345 0.165011 -0.118687 -0.010325 -0.139294 -0.053011 0.143143 0.038686 0.291715 0.028141 -0.138245 -0.075094 -0.126104 0.528806 -0.088114 0.050387 -0.368432 -0.166196 -0.061233 0.198111 0.033673 -0.133889 -0.035144 0.062012 0.099643 -0.27029 6.07E-4 0.033643 0.051026 0.002456 0.243952 0.061507 -0.055941 0.151686 -0.176471 -0.194367 -0.289439 0.193095 -0.139275 -0.014557 0.019002 0.230999 0.170332 0.18302 0.091209 0.019559 -0.055298 -0.011872 -0.35462 0.010183 0.089325 0.007587 -0.154483 0.036034 -0.034128 0.109295 0.171642 0.247004 -0.204698 0.235749
size 0.086751 0.079336 0.30208 -0.162878 0.017877 0.069549 -0.202716 -0.133007 -0.010927 -0.005512 -0.082773 -0.150419 0.053257 0.048476 0.275118 -0.010688 0.043788 0.018393 0.072863 0.076422 0.126978 0.387411 0.048789 -0.06584 -0.111961 -0.156683 -0.389728 -0.081031 0.033806 0.058064 -0.005926 0.322626 0.119302 -0.198152 -0.002542 0.057512 0.045892 -0.142231 0.117663 -0.013027 0.019318 -0.059528 -0.172257 -0.195876 -0.073091 -0.118022 -0.013404 -0.178466 0.090305 0.07557 -0.071749 -0.021597 0.131243 0.069825 0.49174 0.075285 -0.034149 -0.183108 0.243252 -0.082365 -0.175334 -0.076291 0.137024 -0.317354 0.084595 0.159581 -0.004105 0.026622 0.174941 -0.31275 0.055966 -0.044052 -0.128177 -0.193395 -0.178572 -0.089051 -0.211118 0.342709 -0.042625 -0.065003 -0.0687 -0.240801 0.100645 -0.203357 0.004182 0.065038 -0.087972 -0.240049 0.103817 -0.197665 -0.044152 -0.097907 -0.158367 -0.249747 0.191627 -0.09166 -0.06828 0.055907 -0.02359 -0.12838 -0.139022 0.183537 0.090521 -0.099592 0.173929 -0.10728 0.055341 0.01818 -0.14948 0.171715 -0.26635 0.235907 0.351624 -0.133163 -0.233333 0.140906 0.18063 0.04061 -0.218416 0.122403 -0.11441 0.016215 0.092339 0.200484 0.110806 -0.042839 0.305637 0.091799 -0.156127 -0.274809 0.065534 -0.066753 0.121104 -0.312386 -0.201036 0.017158 -0.070449 -0.053117 -0.232617 0.134607 -0.096436 -0.08459 0.005292 -0.08286 -0.157221 0.146515 -0.152274 0.199982 0.04275 -0.357284 0.217966 0.188555 -0.23058 -0.308829 0.013416 -0.008097 -0.148077 -0.119847 -0.057196 0.02315 0.034587 -0.108625 -0.12003 -0.086542 0.014922 0.063888 -0.126834 -0.03582 0.122013 -0.030971 -0.049278 -0.092233 -0.050328 -0.388499 0.179996 -0.393634 -0.172523 -0.058774 0.183773 0.002618 -0.150548 -0.156023 -0.254258 -0.120808 0.18019 -0.065367 0.016761 0.201437 -0.106807 0.262046 0.068504 0.099295 -0.034969 0.279852 0.120408 0.187222 -0.111913 -0.15393 0.124174 0.046427 0.266722 0.15373 -0.015175 0.018009 -0.037773 0.044641 0.210444 -0.125913 0.155595 -0.42708 -0.024917 0.339178 0.169635 -0.338722 -0.148826 -0.013572 -0.005538 0.047645 0.096194 -0.28792 0.136413 -0.109659 -0.042552 0.154813 0.109982 -0.222229 0.218971 -0.099711 -0.229046 -0.138416 -0.140237 0.347443 0.0898 0.020847 -0.286674 -0.006758 -0.234404 -0.195931 -0.031433 0.231473 -0.097393 0.001139 -0.113233 0.043143 -0.086274 0.019546 0.299734 -0.005991 -0.09872 -0.046507 0.021495 -0.206563 0.103718 0.284768 0.26479 -0.150897 -0.277144 -0.082844 0.147673 0.123901 0.047036 -0.400678 -0.177658 0.0467 0.044005 -0.011344 0.243771 -0.11393 0.017361 0.037698 -0.009598 0.0663 -8.28E-4 -0.094465 -0.216967 -0.323905 -0.136764 0.053086 -0.159329 -0.153294 -0.028184 0.164067 -0.009023 0.252837 -0.185399 0.083842 0.113587 -0.093261 -0.035215 -0.011629 0.059418 -0.023368 -0.460301 0.241919 0.100231 0.217188 0.124777 0.242632 -0.199885 -0.06281
peace 0.521356 0.202855 0.075216 -0.260241 0.082835 0.228032 -0.291024 -0.164787 0.193736 0.017321 0.257513 0.140947 -0.016809 -0.211637 0.094818 -0.129812 0.215031 0.301865 -0.396035 -0.165576 -0.054609 -0.049362 -0.236181 0.376489 -0.120497 0.078654 -0.067855 -0.186482 -0.305484 -0.366143 -0.33317 0.199397 -0.091984 -0.068315 -0.293667 0.036475 -0.062359 0.235047 -0.065204 -0.324286 -0.232971 -0.109684 0.133254 -0.029979 0.026005 0.164329 -0.27273 -0.106239 -0.062474 0.248924 0.028467 0.061359 -0.215867 0.183307 -0.123552 0.421441 -0.246112 -0.381552 0.049957 -0.188101 0.263136 -0.366337 0.272121 0.113771 -0.185108 0.003847 -0.33155 -0.045933 0.368428 -0.155686 -0.46159 0.138269 0.122516 0.336213 0.360727 0.434515 -0.22714 -0.241138 -0.086261 -0.065357 -0.298216 -0.200095 0.009761 0.002549 0.018098 -0.058006 -0.13574 -0.1965 0.275494 0.281786 -0.39358 0.085988 -0.27312 0.081018 0.061308 -0.148251 -0.113872 0.356716 0.198141 -0.328855 -0.104971 0.061353 0.151803 0.044838 -0.153137 -0.186671 0.004506 -0.138284 0.329803 -0.006896 -0.096062 -0.073968 0.138982 0.001329 -0.229309 -0.269641 0.112843 0.252128 0.136876 0.171461 -0.079065 0.038813 0.23731 0.166946 -0.044916 -0.212115 -0.144016 -9.53E-4 -0.04925 0.037459 0.076961 0.172419 0.294709 -0.122519 -0.018827 0.180766 -0.328455 0.160163 -0.47577 -0.133146 -0.280012 0.047847 -0.024928 -0.301666 0.18655 0.149989 -0.204966 -0.122996 -0.204639 -0.120003 -0.23728 0.334014 -0.13179 0.108632 0.051176 -0.012795 0.043175 -0.096239 0.165198 -0.012248 -0.368721 0.111972 0.080288 0.095026 0.171922 0.053261 -0.058936 -0.027005 -0.133176 -0.041585 -0.170531 -0.093061 -0.46342 -0.326301 0.124419 -0.417906 -0.763461 0.483782 0.038143 -0.560131 0.094853 0.150112 0.170603 0.031239 0.006767 -0.044866 0.056724 0.07986 0.100044 -0.088913 0.137727 -0.28898 -0.116971 0.006445 0.308901 0.345509 0.093389 0.411327 -0.354082 0.150185 0.121211 0.268144 -0.03194 -0.361402 -0.243315 0.223319 0.163605 -0.182114 -0.286166 -0.32478 -0.075299 -0.048656 0.167895 -0.040404 -0.165815 0.010295 -0.092677 -0.235457 -0.259721 0.330421 0.127989 0.239844 -0.212841 0.133743 -0.098373 0.087426 -0.13638 0.031761 -0.057831 -0.310048 -0.278592 0.281924 -0.269375 0.138771 -0.191392 -0.240858 -0.271118 -0.301454 -0.038913 -0.001612 0.298643 -0.195622 0.071406 0.141985 0.065434 0.342815 -0.05495 -0.130294 0.240778 -0.198994 -0.099244 0.270959 -0.172419 0.014425 0.402016 -0.477307 -0.268705 0.156807 0.209499 -0.082604 -0.359811 -0.47199 -0.356887 0.2762 0.295792 0.108875 0.020665 -0.143333 -0.316839 -0.259052 -0.266483 -0.271608 0.142314 -0.035351 -0.898539 -0.012674 -0.222858 0.152346 -0.183159 -0.239802 -0.408204 -0.054997 0.103484 -0.409203 -0.233801 -0.476311 0.090296 -0.071822 0.070086 -0.186956 -0.31034 -0.373416 -0.084816 0.052952 -0.449809 -0.034441 -0.266957 -0.037032 0.123314 -0.09641
science 0.660551 0.087672 -0.152424 0.257154 -0.078625 0.130103 -0.046766 -0.09535 -0.336679 -0.030936 -0.185797 -0.135853 2.48E-4 -0.022007 0.334591 0.106684 0.219251 -0.008738 0.135148 -0.123451 -0.132698 -0.098334 0.243904 0.224352 -0.263739 0.04715 -0.139325 -0.059233 0.126308 0.131714 -0.044136 0.182896 -0.277434 0.122544 -0.056415 0.210297 -0.212603 0.123417 0.251474 -0.297321 0.068854 0.17963 0.105884 -0.032277 -0.112957 -0.099478 -0.243895 -0.086661 0.236516 -0.099223 -0.207784 0.044288 -0.138222 0.2291 0.082668 0.013457 -0.040197 -0.145344 0.018046 -0.03525 -0.191519 -0.14528 0.149745 0.229135 0.05059 -0.244895 0.100963 -0.015547 0.297603 -0.112155 0.053136 -0.259433 -0.094126 -0.235852 -0.14936 -0.097897 -0.331716 0.275925 0.047778 -0.085116 -0.057972 0.033469 -0.057596 -0.062882 -0.038541 -0.022555 0.121391 0.03602 0.190512 -0.096551 0.028309 0.084718 -0.417253 -0.013104 -0.091273 -0.181454 -0.065003 -0.217253 0.163517 -0.137894 -0.198791 0.078989 0.121422 -0.043483 0.073912 -0.336978 -0.035849 0.234733 -0.086966 -0.023278 0.024275 -0.166377 0.229117 -0.111803 -0.186349 -0.279143 -0.028885 -0.052466 0.262287 -0.002215 0.20795 -0.245614 -0.073828 0.186462 -0.085145 -0.083062 0.144037 0.127576 -0.261335 0.14391 -0.013775 -0.114022 -0.042739 -0.123229 -0.144433 -0.059518 -0.0936 0.394589 -0.28785 0.072776 -0.145221 0.116046 -0.187175 0.172889 -0.185554 0.054438 -0.318068 0.149348 -0.228537 -0.011131 0.309833 0.444547 0.04549 -0.040068 -0.400254 0.081906 -0.255507 -0.270344 -0.014852 -0.200257 -0.234981 0.170016 0.04723 -0.320505 1.05E-4 -0.063312 0.114154 0.252602 -0.121672 -0.154906 0.154176 -0.078202 0.192047 -0.206667 0.099893 -0.360413 -0.291841 0.047441 -0.003007 -0.118163 -0.037334 0.128838 0.064361 0.044149 -0.027746 -0.102773 0.234807 0.229216 -0.165121 0.111863 0.300027 0.021129 -0.420183 0.455341 0.078485 -0.018618 -0.03369 -0.018958 -0.138517 -0.363716 0.073343 0.058164 -0.220896 -0.232704 0.201441 -0.176483 -0.022296 0.197116 -0.161142 0.138026 0.083458 0.076594 0.270354 -0.032801 -0.022508 -0.268536 -0.122028 -0.077772 -0.131692 -0.112123 0.062879 0.081124 0.195995 0.106216 -0.158777 0.015749 -0.335651 -0.036114 -0.412046 -0.217188 -0.101373 -0.143283 -0.140402 0.022511 0.317935 0.115741 0.132794 0.091442 -0.133514 0.231222 0.021512 0.096198 0.039002 -0.00914 0.344126 -0.063993 -0.168844 -0.243884 0.06124 -0.390243 0.208127 -0.185753 0.008952 0.63658 0.657526 -0.119826 -0.117616 -0.263779 0.20292 0.26691 0.145731 -0.055696 -0.183277 0.001034 0.160116 -0.267805 0.434477 -0.077681 -0.340279 0.147622 -0.177416 -0.237527 -0.155586 -0.039739 -0.034248 -0.315607 -0.371408 0.165516 -0.163257 0.035092 -0.047693 0.024649 -0.012479 0.088892 -0.298903 -0.160686 0.142408 -0.180474 0.118884 -0.208776 0.040613 -0.241266 -0.231756 0.348713 -0.132488 -0.039666 0.224914 0.142689 -0.369792 0.222728
dawn 0.153536 0.404134 -0.030614 -0.174291 0.096749 0.185274 0.018625 -0.589842 0.10582 0.005667 -0.134767 -0.199457 -0.225624 -0.007551 0.100922 -0.028036 -0.180443 0.02249 0.129502 -0.02106 -0.164685 0.131067 -0.018535 0.246425 -0.046074 -0.133441 -0.0308 -0.051693 0.097328 -0.013428 0.128731 0.234188 0.126369 -0.073132 -0.144121 0.195137 0.101355 0.182145 0.268367 -0.254636 0.017605 -0.299184 0.267731 -0.133795 0.009373 -0.079846 0.20059 0.070889 0.183153 0.062723 0.025112 -0.071377 0.021302 0.180084 -0.100011 0.081708 -0.110702 -0.158518 -0.354765 -0.132637 0.019565 -0.02745 0.250416 -0.500984 0.095739 -0.471761 -0.272594 0.210194 0.087992 0.045906 -0.086838 0.156207 -0.021294 -0.028245 0.114692 -0.006976 -0.195479 -0.006551 -0.21029 0.091151 -0.224883 0.013929 0.239713 -0.207493 0.047752 -0.060039 -0.093827 -0.436278 0.269762 0.109342 -0.542343 0.144023 -0.1827 0.190418 0.083479 0.221063 -0.061166 -0.150638 0.063034 0.002968 -0.269387 0.286013 0.171383 -0.021357 0.23665 -0.030303 0.085065 -0.01579 -0.017749 -0.110916 -0.377813 0.166521 0.1277 -0.167404 -0.206365 -0.132563 0.132766 6.93E-4 0.255533 0.101936 -0.134194 -0.257088 0.320872 -0.031925 -0.075365 0.008914 -0.088318 -0.0131 0.058136 -0.166936 0.116903 0.384987 0.07025 0.110127 0.028672 0.074189 -0.130968 0.085288 -0.268123 0.098771 -0.171589 -0.263822 0.09429 -0.125307 0.093512 0.248673 -0.137662 0.019417 -0.235096 -0.037131 0.010075 0.189681 0.027129 0.216188 -0.02296 0.18144 -0.068248 -0.135762 0.297053 0.184274 0.051694 0.151467 -0.056182 -0.42596 0.086738 -0.211513 0.111297 -0.121371 -0.306008 0.225269 0.00804 0.130075 -0.156216 -0.152553 0.047666 -0.012085 -0.256761 -0.108102 0.203252 -0.259534 0.007083 -0.352244 -0.048362 -0.001574 0.133827 -0.071302 -0.034904 -5.62E-4 0.009411 -0.062728 -0.11047 0.190559 0.042041 0.026958 0.143911 0.100106 0.184435 0.088768 0.209567 -0.043038 0.227288 0.623489 0.07715 0.183374 -0.117162 0.082466 0.194236 0.10511 0.135108 -0.038386 0.096937 -0.199785 -0.093178 -0.049788 0.079341 0.181146 -0.042492 -0.002702 -0.050353 -0.167168 0.243143 -0.010768 -0.226896 0.006816 -0.114349 0.192739 -0.115083 0.112276 0.098022 0.271336 0.094219 0.009328 -0.134473 -0.035876 -0.105436 -0.256092 -0.009814 -0.052342 0.123904 -0.125139 -0.062132 -0.278163 0.254904 -0.118755 0.221889 0.183014 0.187812 0.259762 0.192082 0.154274 -0.052657 0.100072 0.169457 -0.150938 0.076517 0.044102 -0.212537 -0.064543 0.168929 0.141695 0.082763 -0.09817 -0.357299 0.041172 0.196142 -0.175172 -0.00141 0.066486 -0.009428 -0.188379 0.155076 -0.00478 -0.053305 -0.124013 -0.250283 -0.221238 -0.426344 -0.10749 0.026097 0.193901 0.122439 0.10672 0.152077 0.095068 0.140894 -0.107931 -0.114071 0.214054 -0.197956 -0.2081 -0.198354 -0.271991 -0.27777 0.173532 0.035148 0.146571 -0.184524 -0.223233 0.018862 0.095706
brother 0.027026 0.120034 0.074653 -0.274217 0.035593 -0.140262 -0.036267 0.443215 -0.250278 0.349463 0.185369 -0.17465 -0.119075 -0.0533 0.013192 -0.007745 0.185238 0.040222 -0.1147 0.386281 -0.321954 0.257998 0.081898 -0.103035 -0.111251 -0.268684 0.051965 0.169375 0.094805 -0.196392 0.111652 -0.031244 -0.039814 0.26114 -0.247335 -0.030452 0.1428 0.021655 0.090024 -0.376272 -0.010181 -0.17427 -0.200124 -0.26772 -0.307578 0.124787 -0.245654 -0.332999 -0.00645 0.124116 -0.099327 -0.129173 -0.10676 0.362597 0.073519 0.028846 -0.143744 -0.158855 0.016543 0.136592 -0.17045 -0.028609 0.048039 -0.226396 -0.189765 -0.065744 -0.129378 0.064202 0.390324 0.018475 -0.106507 0.083272 -0.30584 0.245638 0.228529 0.111998 -0.402473 0.126745 -0.060961 -0.04808 -0.074849 -0.20754 0.092864 -0.026507 -0.280209 0.182402 -0.169974 -0.243461 0.289775 -0.082006 -0.151437 0.26665 0.011979 0.079178 0.05282 0.040167 0.038075 0.15886 0.101031 -0.277439 -0.426932 -0.064315 0.198961 0.25657 0.229915 -0.447654 0.083935 -0.055836 -0.154569 0.117004 -0.253143 0.012518 0.309999 -0.005832 0.239832 -0.078262 0.00746 0.052688 0.224999 -0.25339 -0.001741 -0.101342 0.072584 -0.054425 0.027387 -0.341602 -0.023566 0.034714 -0.289845 0.033725 -0.014792 -0.111225 -0.093005 0.144841 -0.052247 0.300686 -0.247078 -0.038884 -0.031358 0.137851 0.250041 -0.170899 0.441781 -0.039652 0.030133 0.146111 -0.25223 0.422655 0.015307 -0.047188 -0.11941 0.32296 0.093714 -0.070736 0.100895 0.312118 -0.052797 0.002581 0.307527 0.186409 0.006207 0.090777 -0.087882 -0.320037 0.134688 0.051692 -0.065251 -0.08605 0.23189 0.144698 -0.079641 -0.084316 -0.051019 -0.305562 0.082657 -0.089817 -0.272121 0.422383 -0.216995 -0.140795 -0.185768 0.138108 -0.009451 -0.306664 -0.244215 -0.210842 0.157578 0.073255 0.161609 0.487105 0.110009 -0.037245 0.208065 0.17352 0.057612 0.259355 0.181923 0.136994 0.010264 0.022453 -0.014039 0.273591 -0.106671 0.069906 -0.226786 0.189525 -0.058801 0.025128 -0.026406 -0.160848 0.06612 0.028713 -0.118507 0.110939 0.070341 0.252612 0.012848 -0.235982 0.06486 -0.214206 0.084465 0.059914 -0.100276 0.106463 -0.350244 0.104214 -0.183275 -0.026822 -0.031725 -0.093243 -0.174666 0.009021 0.14418 -0.037346 -0.321315 -0.223672 -0.181265 -0.052084 -0.190987 0.287289 0.435343 0.101948 0.305131 0.191871 0.234057 -0.058472 -0.009459 0.16456 -0.204554 0.149335 -0.201847 -0.209125 -0.127692 -0.150638 -0.065949 -0.141951 -0.127248 -0.428203 0.0155 -0.007576 0.485603 0.101814 0.059836 -0.109487 -0.211698 -0.064357 0.177917 0.078288 0.037041 -0.092495 -0.187522 -0.033368 -0.033511 0.397362 -0.070746 -0.037175 -0.229524 -0.072336 0.054708 0.234505 0.023878 -0.063134 -0.294544 -0.08207 0.441413 0.068629 -0.100819 0.018775 0.160438 -0.243507 -0.046034 0.03556 0.08701 0.213984 0.139391 -0.196934 -0.217527 -0.074622 0.038855 -0.219204
wine 0.200131 0.080538 0.136846 -0.336236 0.077013 -0.082909 0.102315 -0.08335 -0.284457 -0.225514 -0.142113 0.389578 -0.326982 -0.124331 0.368418 0.025134 -0.077706 0.024593 -0.027474 -0.247358 -0.128012 -0.060569 0.224902 0.116173 0.00595 0.075615 -0.238389 -0.271873 0.042566 0.124645 -0.01 0.124638 -0.037589 0.043062 0.040409 0.099089 -0.354763 0.101403 0.070261 -0.25571 0.130055 -0.446089 -0.100845 0.131931 0.064176 0.020815 0.074918 -0.394512 0.384769 -0.095997 0.11101 -0.002626 0.258396 -0.050468 0.267928 -0.013076 0.00145 -0.242285 0.016546 -0.170181 -0.215528 -0.007968 0.166916 -0.091451 -0.012392 -0.140933 -0.024273 0.152995 0.243064 -0.043748 -0.291817 0.017308 -0.442748 -0.025528 -0.09487 -0.246957 -0.111366 0.33074 0.091044 -0.095659 -0.111459 -0.0878 0.38079 -0.112338 0.119109 -0.243273 0.308804 -0.123196 0.331242 0.081601 -0.273535 0.145355 -0.250015 -0.057682 0.00489 -0.297429 -0.187369 0.046872 -0.358008 -0.273437 -0.131756 0.175314 -0.107112 -0.147698 0.3679 -0.190499 0.151734 -0.205443 -0.038913 0.10615 -0.337904 -0.076664 0.360796 -0.053881 0.018523 -0.227004 -0.269926 -0.176095 0.072363 -0.118827 -0.070583 -0.204684 0.203639 0.159998 -0.016482 -0.367368 0.212659 0.088105 -0.007181 -0.150555 0.28196 0.282252 -0.069562 -0.112773 -0.228801 0.253313 -0.062483 0.116213 -0.331839 0.211123 0.077079 -0.375082 0.05527 -0.173423 -0.085362 0.17014 0.090897 0.1097 0.032183 -0.126579 0.274001 -0.085714 -0.026472 -0.075858 -0.132288 -0.104876 0.206723 -0.256668 -0.22876 -0.157067 -0.102175 0.109129 0.01009 -0.019796 0.33219 -0.145431 -0.109062 -0.054588 0.363232 -0.084406 -0.039164 -0.201072 -0.043449 -0.071443 0.133117 0.061315 0.044067 -0.18105 0.304079 -0.130732 0.123937 0.18146 -0.009664 -0.318894 0.098769 -0.180672 -0.017369 0.053002 0.212153 0.015488 -0.206399 0.022346 0.281033 0.218766 -0.384616 0.056901 0.032687 0.154185 -0.252817 -0.025714 0.419763 0.008178 0.264089 -0.021172 -0.111979 0.01221 0.182447 -0.151545 -0.018456 -0.256912 0.309503 -0.189947 -0.016569 -0.006897 -0.037122 0.236151 -0.10301 -0.115421 0.130544 0.045125 0.074724 0.107087 -0.234263 -0.03819 -0.020978 -0.131517 -0.152692 0.088844 -0.077866 0.146753 0.081969 0.201652 -0.019034 0.018999 -0.20757 -0.006078 0.098807 -0.147175 0.083268 0.310973 -0.224329 0.261961 -0.281306 0.210985 0.073414 -0.141856 -0.017267 -0.049455 0.05561 -0.10597 -0.220517 -0.590214 -0.014539 0.234373 0.485264 -0.142914 -0.151152 0.264556 0.018222 0.128961 0.073395 -0.164144 -0.164532 0.220018 -0.117243 0.053306 0.410282 -0.182149 -0.117199 0.172529 0.10314 0.188601 -0.088881 -0.290192 -0.249425 -0.259096 -8.83E-4 -0.15957 -0.221741 -0.29085 0.163757 0.180288 0.316552 -0.176971 -0.143257 -0.016608 0.08435 0.106725 -0.017271 -0.242005 0.107242 -0.066035 -0.391923 -0.084 -0.020717 -0.036813 -0.075386 0.076711 0.069047 0.028518
object 0.226505 0.283791 -0.168771 -0.139789 -0.048234 0.079927 -0.102752 -0.195563 0.010091 0.244655 -0.226277 -0.144463 -0.053993 -0.02166 0.005276 0.16046 -0.078656 -0.035271 -0.06632 -0.15872 -0.095157 -0.061729 0.191885 -0.006491 0.044184 0.174431 -0.13462 0.011486 -0.012871 -0.170245 0.066773 0.195759 -0.316438 0.076258 -0.053079 -0.073998 -0.189438 0.093862 0.079596 0.014434 0.324055 -0.236296 0.031145 -0.083781 0.194031 -0.025845 -0.009309 -0.096015 0.133248 0.013999 0.114257 0.010535 -0.193211 -0.058283 0.220208 -0.020907 0.081562 -0.091609 0.049035 0.017531 -0.247705 -0.096264 0.17891 -0.196518 -0.080869 -0.103195 -0.022954 0.117708 0.193648 0.130966 0.060906 -0.024212 -0.096468 0.139817 -0.160406 -0.01646 -0.168496 -0.12753 0.230642 0.072736 -0.150615 -0.14527 0.144582 -0.326258 0.113222 -0.103929 0.158738 -0.355807 0.00432 -0.062824 0.037288 0.085773 -0.285383 0.166994 0.069253 -0.06191 -0.087614 0.157121 -0.06759 -0.100052 -0.09376 0.304783 0.060938 -0.051165 0.1884 0.103785 -0.141726 0.013468 0.130789 0.111885 -0.126768 -0.022468 0.348081 -0.009206 -0.155402 0.022942 -0.28097 0.087344 0.150269 0.019389 0.185915 0.345186 -0.009214 0.197576 0.085144 -0.247331 0.126683 -0.121981 0.012102 0.01731 -0.115715 0.295197 0.003039 -0.122899 0.06511 -0.016736 -0.009709 0.104861 -0.480196 0.172125 -0.191274 -0.109809 0.091386 -0.184397 -0.073787 0.388718 -0.194387 0.139398 -0.115943 -0.263243 0.342451 0.280246 0.091447 -0.214195 -0.227386 0.313116 0.062267 -0.082931 0.062006 0.008165 -0.398538 0.085455 -0.215052 -0.253791 0.131992 0.144624 -0.111506 0.174583 -0.046679 -0.04393 -0.001789 -0.004379 -0.227138 -0.158373 -0.003101 -0.266865 -0.018528 0.055371 0.194238 -0.187529 -0.029714 -0.00425 -0.042001 0.038186 -0.003563 -0.183573 0.192208 0.06953 0.091871 0.043223 0.114534 0.059671 -0.020989 0.29488 0.12583 0.329578 0.056106 0.004 0.186128 -0.154877 0.059976 0.261918 -0.105995 0.014191 -0.051479 0.133921 0.05905 -0.038665 0.105418 -0.161252 0.014139 -0.039607 0.020126 -0.132755 -0.034965 -0.089424 -0.120268 0.248429 0.097855 -0.138397 0.137964 -0.012697 0.064107 -0.208295 0.03343 0.186011 0.130845 0.040608 -0.032969 0.042546 -0.099335 0.056222 0.084522 0.104195 0.181552 -0.003053 -0.041338 -0.05313 -0.078572 0.093309 0.134061 -0.028127 0.070669 0.174363 0.008349 -0.046515 0.191453 0.239832 -0.068584 -0.065628 0.138999 -0.061099 0.143211 0.272456 0.200038 -0.068891 -0.113981 -0.130918 0.012716 0.198176 0.057594 -0.138303 -0.18947 0.041017 0.149042 0.12059 0.088667 -0.200183 0.090582 0.067239 -0.202854 -0.075121 -0.09394 0.088977 -0.011637 -0.175582 -0.430638 0.175655 -0.102338 0.087478 -0.163428 0.155948 0.222028 0.229538 0.126946 -0.01987 -0.005964 -0.343968 -0.033235 0.093551 -0.395601 -0.075322 -0.123989 0.009827 0.025772 0.37519 0.031627 0.055024 -0.237513 0.034726
attitude 0.186339 0.168887 0.069375 -0.134876 -0.256877 0.019346 0.042652 0.053023 0.023702 0.096843 0.189616 -0.090206 -0.199971 -0.260942 0.004716 -0.137253 0.198126 0.011272 -0.051219 0.019658 0.079513 0.073311 0.028089 0.049528 0.208267 0.005138 -0.020328 0.023429 0.063757 0.038977 -0.227327 0.162635 -0.308975 0.088963 -0.104821 0.134269 -0.090711 0.194616 0.222361 -0.19168 -0.048345 -0.173806 -0.14848 -0.045547 -0.264824 -0.066648 -0.034077 -0.262224 0.210879 0.095217 -0.188919 0.030725 0.03458 0.14654 0.102722 0.086987 -0.050437 0.043719 0.068319 0.171758 -0.342886 0.108739 0.344431 -0.107599 -0.198617 -0.09484 -0.099402 0.066901 0.278994 -0.070118 0.053676 -0.006496 -0.20448 0.313675 -0.056181 -0.008171 -0.101526 0.107163 0.175435 0.020829 -0.135155 -0.102772 0.112715 0.001345 0.116061 0.190661 -0.025421 -0.398354 0.201683 0.199847 -0.12425 0.167401 -0.234051 -0.061419 -0.043834 -0.302408 0.150822 0.25016 -0.059005 -0.23272 -0.253609 0.006679 -0.019226 -0.101425 0.209295 -0.146762 -0.117094 0.168342 -0.014033 0.071418 0.075813 -0.229282 0.267358 -0.020112 -0.245366 0.005112 0.059157 0.08367 0.002524 0.249603 0.186979 0.214692 0.106088 -0.084106 -0.109257 -0.268107 0.067884 0.086749 0.056205 0.236714 0.0692 0.145509 0.212927 -0.248805 -0.126488 0.212086 0.117688 0.002067 -0.282361 0.1987 -0.090347 0.115153 -0.161944 -0.1487 0.07578 0.299234 -0.450619 0.022292 -0.120334 0.076756 0.306641 0.15759 -0.147523 -0.225537 0.012584 0.214075 -0.0239 -0.03966 0.195437 0.028162 -0.053356 -0.134619 -0.088876 -0.39883 -0.086451 0.028555 0.029057 -0.089163 -0.007733 -0.139678 -0.103329 -0.062197 -0.139725 -0.508921 -0.054118 -0.284276 -0.036895 -0.083633 0.183694 -0.021667 -0.152027 0.167743 0.134911 -0.147376 0.145417 -0.026002 0.214746 0.036848 0.084967 0.148417 0.410263 -0.097673 0.081416 0.387756 -0.126126 0.178597 0.059793 -0.194707 -0.273584 -0.35885 -0.052172 0.097904 -0.149703 -0.11254 0.170326 0.172607 -0.142069 0.184696 -0.028391 -0.026492 0.134961 -0.014302 0.21609 0.136771 -0.065116 -0.108032 0.117449 0.038399 0.120337 0.077589 -0.113509 0.023959 0.072829 -0.26628 -0.270272 0.147725 -0.30865 -0.022963 -0.212549 0.178934 -0.108816 0.076852 -0.002685 0.291054 0.080192 -0.243293 -0.062407 -0.144441 -0.139879 0.073363 0.251567 0.125119 -0.140149 0.308411 0.276589 0.064936 -0.276239 0.057224 -0.231224 -0.198906 -0.260689 0.033857 -0.057432 -0.073449 0.217596 -0.389686 -0.06535 -0.398507 0.25101 0.037922 0.272722 -0.182714 0.096627 0.252659 0.015273 -0.086495 0.063358 -0.256797 -0.21345 -0.142681 -0.02944 -0.021311 0.022439 -0.041483 -0.267632 0.120942 -0.484097 0.121904 -0.110716 -0.205444 -0.095499 -0.041473 -0.012666 0.342551 -0.16165 -0.099101 -0.025358 -0.287861 0.033599 -0.040446 -0.109561 0.038514 -0.219322 0.378949 0.010951 0.157865 -0.096387 -0.033575 -0.141078 0.081682
treatment 0.401279 0.209817 -0.088077 -0.050487 0.242674 0.078286 -0.106482 -0.202596 0.15107 -0.093996 0.117651 -0.118116 0.002221 -0.215917 -0.066174 0.147751 -0.081804 0.077074 -0.128024 -0.004586 0.072042 0.116679 0.042936 0.1035 -0.065588 -0.185085 -0.191763 0.037682 -0.209094 0.114387 -0.058734 0.413836 -0.037158 -0.131544 -0.003157 0.13931 -0.409739 -0.051925 0.542178 -0.389652 0.012321 -0.008001 -0.142506 0.056763 0.255961 -0.022064 0.170375 -0.26222 -0.140377 0.090432 0.16794 -0.004544 -0.160347 0.165003 0.361131 0.018415 -0.065388 -0.056997 -0.161919 0.016961 0.009102 0.083611 0.11353 0.147156 0.021729 -0.186498 -0.489745 -0.1875 0.142121 -0.177926 0.02921 -0.15088 -0.153145 -0.218576 -0.059578 -0.088203 -0.274621 0.184093 0.012733 0.310137 -0.240697 -0.200063 0.150844 0.1666 0.019498 -0.032544 0.091862 -0.400964 0.350517 0.006538 -0.10097 -0.120219 -0.111107 -0.275762 -0.123423 -0.052316 0.360507 0.034775 -0.223782 0.033894 0.04029 0.215385 0.068203 0.046999 0.014986 -0.341303 0.195748 0.044253 -0.025575 0.010594 -0.195487 -0.11662 0.029063 -0.016447 -0.085432 -0.196982 -0.222963 -0.171676 0.044435 0.093279 -0.061847 0.084001 0.10175 0.15646 -0.025609 -0.442884 -0.177699 0.108822 -0.043322 -0.17337 -0.093729 -0.258512 0.007112 0.16403 0.073645 0.027884 0.063422 0.151506 -0.010678 0.071355 0.199441 0.148753 -0.018025 0.378109 -0.060369 0.234888 -0.2167 0.11541 -0.33842 -0.167912 0.093146 -0.110255 -0.016779 -0.16137 -0.037758 0.264455 -0.083495 -0.068751 0.132308 -0.100573 -0.090578 0.266997 -0.132108 -0.154989 -0.004815 0.141423 -0.525477 -0.048596 -0.109701 -0.017175 -0.175762 -0.399259 -0.147008 -0.15725 0.052585 0.057709 -0.38625 -0.082915 0.165375 0.06595 -0.174591 -0.003421 0.198599 0.024933 -0.040961 0.036586 -0.057444 0.102124 -0.171517 0.17643 0.110221 -0.254293 0.268351 -0.037856 0.03048 0.285333 0.22792 0.220333 -0.050165 -0.152941 -0.003222 0.180865 0.158968 0.105112 -0.293142 -0.106701 0.086689 -0.110464 -0.250824 -0.240854 -0.300353 -0.005781 0.286113 -0.016802 0.296731 -0.23966 0.034006 0.011572 0.291852 -0.020807 -0.137049 -0.251667 0.042844 0.093953 -0.280565 -0.108437 -0.019909 -0.106039 -0.030884 -0.25541 -0.047496 0.111352 0.059657 -0.156963 -0.042899 -0.167017 -0.155309 -0.132343 -0.243714 -0.05689 0.055735 0.080703 -0.079961 -0.027914 0.034696 0.071236 -0.046331 -0.193536 -0.055627 -0.168234 -0.07974 0.048155 -0.176176 0.628745 0.099172 -0.051538 -0.45675 0.151189 -0.059916 0.104397 0.023497 -0.16837 4.0E-4 0.064149 -0.119037 -0.176239 -0.201113 -0.051412 -0.094988 0.062542 -0.299725 -0.064153 -0.173736 0.308909 -0.004638 0.091425 -0.319442 -0.037564 -0.181937 -0.151501 0.14 0.035071 -0.078591 0.239397 -0.027205 0.008708 -0.160884 -0.209984 -0.140146 0.027953 -0.048238 -0.022241 -0.275072 0.3006 -0.016375 0.198466 -0.218719 -0.166586 -0.374544 -0.186706
flight -0.256564 0.06815 0.020888 -0.066213 0.082768 0.32047 0.40266 -0.580297 0.051969 -0.033471 -0.3077 0.307528 -0.23212 0.068056 0.190934 -0.244821 -0.325432 0.14402 -0.103407 0.069661 -0.025227 -0.085885 0.392956 0.117822 -0.271279 -0.254203 -0.102061 0.008758 -0.030195 0.106123 -0.021858 0.036705 -0.167624 0.082552 -0.011884 0.173395 0.363902 -0.109187 0.616655 -0.192723 0.085126 0.217636 -0.212848 -0.069168 -0.192816 -0.089728 0.041982 0.075168 0.030427 0.036031 -0.16586 -0.072714 0.060147 -0.044863 0.367829 0.387396 -0.010749 -0.081646 -0.194175 -0.099872 0.018919 0.138628 0.272243 -0.361547 -0.065058 -0.411783 -0.299727 -0.304049 -0.250548 0.128811 0.022052 0.099209 -0.128581 0.047994 -0.132166 -0.448745 0.07655 -0.029031 0.054771 0.051259 -0.426955 -0.237193 0.356993 0.133208 0.061989 0.113261 -0.170462 -0.272879 0.103616 -0.354659 -0.410841 -0.078021 -0.050281 0.210036 0.131027 0.309124 -0.067783 -0.011178 0.08049 -0.01931 -0.173297 0.074885 -0.01145 0.057127 0.315274 -0.149235 -0.268805 0.231991 0.169029 -4.7E-4 -0.395481 -0.126697 0.389461 0.112023 -0.244889 -0.20522 -0.019162 -0.005767 0.307224 0.045475 -0.115792 -0.232895 0.162887 0.300821 -0.071478 0.009778 0.111579 0.006618 0.153103 -0.172505 0.06297 0.064123 0.161803 0.165626 -0.033335 0.244224 -0.193252 -0.04736 -0.329535 0.271859 0.091403 -0.049446 -0.069786 -0.0529 0.143607 0.115837 0.134943 0.316103 -0.012114 -0.262357 0.232951 0.207054 0.123134 -0.162028 -0.401793 0.104911 -0.167327 0.081828 0.251302 -0.219057 -0.086869 0.056571 0.178038 -0.287999 0.179736 -0.216673 -0.178182 0.049517 -0.326233 0.031801 0.100046 0.111425 -0.122689 -0.227806 -0.131972 -0.065568 -0.31858 0.285088 0.316252 -0.328906 0.123746 0.053804 0.1193 -0.163982 0.076394 -0.176991 0.001681 0.106011 0.167621 0.054517 0.173112 0.216914 0.02108 -0.028495 0.040938 0.198446 0.112298 -0.195736 0.274502 0.092993 -0.112339 0.036053 0.152008 0.139612 0.146885 -0.058686 -0.091703 -0.208473 0.429527 0.035106 -0.038919 0.178688 0.110298 -0.154126 0.131753 0.234245 -0.2217 0.037612 -0.174856 -0.064303 0.307061 -0.203255 -0.04259 -0.050866 -0.08942 -0.05702 0.085682 -0.111838 0.154839 0.005724 -0.016805 0.167973 0.025145 -0.077571 -0.174047 -0.131966 -0.439937 -0.30826 -0.162313 -0.103858 0.203564 -0.099681 -0.10895 -0.295572 0.138036 -0.218361 -0.070609 0.350815 -0.35209 -0.14606 -0.080853 -0.033754 0.032104 0.228376 0.059586 0.37559 -0.515654 -0.164927 0.182346 0.316019 -0.176594 -0.264191 0.054601 0.130663 0.367541 -0.352894 -0.096557 0.061025 -0.172172 -0.025983 -0.069961 0.231357 -0.128257 0.358741 -0.093461 -0.040762 -0.313746 0.165481 0.038363 -0.090062 -0.167925 -0.042191 -0.054674 -0.016219 -0.251182 -0.395521 0.020173 0.020551 -0.169103 0.171562 -0.161379 -0.208231 -0.057993 -0.009336 0.013428 0.008131 0.141602 0.140567 -0.372924 0.068419
forest 0.397456 0.163783 0.002389 -0.017982 -0.006153 0.289136 0.193853 -0.363271 -0.01028 -0.058124 0.040342 0.030907 0.110927 -0.112164 0.072388 0.046959 0.060256 -0.056619 -0.10671 0.121173 -0.091017 0.089468 0.148774 0.082989 0.040683 -0.078275 -0.270923 -0.150483 -0.015436 -0.048946 0.021924 0.171243 -0.082809 -0.116554 0.016347 -0.109704 0.078232 0.261604 -0.00432 0.067659 0.27747 -0.333239 -0.106607 -0.006113 0.246905 -0.022636 0.123768 -0.281413 0.085319 -0.111032 -0.064087 0.243431 -0.018131 0.288838 0.068098 -0.176363 -0.038526 -0.056231 0.211887 -0.087429 0.064848 -0.089356 0.096825 0.045734 0.070923 0.050327 -0.18129 0.156177 0.427009 -0.023517 0.078585 0.012364 -0.168461 -0.361238 -0.374027 0.007948 0.219717 -0.097179 -0.006003 -0.006338 -0.458119 -0.167249 0.078895 -0.207539 0.11339 -0.31639 0.199252 -0.402613 0.260169 -0.028131 -0.565425 -0.120002 0.002676 0.016478 0.172947 0.13676 0.182643 0.006891 0.035809 -0.038777 -0.112483 0.270147 -0.036734 0.111787 0.305532 -0.015808 0.142736 1.77E-4 -0.041307 0.072677 -0.377422 0.317441 0.156693 -0.187508 0.040164 -0.160941 0.044264 0.254279 0.215272 0.113966 -0.088477 -0.060978 -0.04468 0.058645 -0.054024 -0.20307 0.187003 0.212753 0.184533 -0.066186 -0.224474 0.066892 -0.106943 -0.049087 -0.252461 0.330425 -0.439175 0.185333 -0.056361 0.423368 -0.286622 -0.138984 0.207343 -0.115707 0.163045 0.161319 -0.249615 0.168364 -0.112576 -0.222268 0.268824 0.431506 0.030207 0.102071 -0.193714 0.158402 -0.237336 -0.264057 -0.164533 0.055155 0.007599 -0.028415 -0.089532 -0.011262 0.241571 0.146081 0.133894 0.080283 0.191172 -0.312419 0.279875 -0.221677 0.016582 0.014518 -0.106575 -0.174136 -0.287467 -0.140736 0.216514 -0.159386 0.244454 -0.08674 -0.248507 -0.008543 0.237796 -0.195505 -0.066987 0.037094 -0.129879 0.010097 -0.012487 -0.105437 -0.18209 0.262464 0.281908 0.058493 -0.121445 0.097934 0.067965 -0.183129 0.174632 0.189286 0.05891 -0.046944 -0.15545 0.260015 -0.164998 -0.005701 0.199001 -0.137978 -0.096914 -0.131879 -0.024506 0.13123 0.106038 -0.159025 0.040159 0.013115 0.168426 0.136185 0.096328 0.044447 0.006867 0.125961 -0.182903 -0.054459 -0.112959 -0.10267 0.116134 0.046267 -0.1587 0.233955 -0.015105 -0.349112 0.101525 0.067768 -0.109201 -0.140754 0.045354 -0.021222 -0.026797 -0.171243 -0.056024 0.008725 0.30064 -0.083184 0.01604 -0.057394 0.359184 -0.044311 0.079507 -0.114536 0.103454 -0.184309 0.140329 -0.004879 -0.039055 -0.155683 0.28819 -0.045102 0.066813 -0.159133 0.137268 -0.05323 0.052924 0.033221 -1.33E-4 -0.106521 0.218994 0.18204 -0.095241 0.097164 -0.052356 -0.168693 -0.519183 -0.429339 0.098817 -0.102837 -0.201127 -0.098134 -8.67E-4 0.056403 0.073574 0.189685 -0.040706 0.024824 -0.138953 0.070605 0.051917 -0.14266 -0.026158 -0.132733 -0.312332 0.421485 -0.039333 -0.023858 -0.127795 0.268538 -0.364794 -0.074834
abuse 0.174255 0.037034 -0.030171 -0.326584 0.228132 0.100729 -0.094075 0.23537 0.57714 -0.073828 0.227189 -0.210802 0.102812 -0.030526 -0.057114 -0.002881 0.19416 0.029964 -0.043277 0.193878 0.154221 0.217118 0.178903 -0.020885 -0.022146 -0.211813 -0.143057 0.092138 0.121599 -0.379638 0.154018 0.256217 -0.087988 0.45839 -0.010301 0.218772 -0.284472 0.357071 0.160902 -0.12328 -0.107974 0.040149 -0.038633 -0.503684 0.047084 -0.125989 0.298194 -0.137654 0.175336 -0.054544 0.040373 -0.006715 -0.044718 0.336722 -0.081425 0.171137 -0.161075 0.112191 -0.097357 -0.212632 0.300557 0.027512 -0.158831 -0.280047 0.205229 0.045172 -0.183519 -0.095706 0.589008 -0.021332 -0.127197 0.016269 -0.012349 -0.302236 0.150005 -0.174636 -0.114826 0.024288 0.078871 0.414631 -0.459103 0.16716 0.049074 0.128512 -0.141644 0.01353 -0.071339 -0.097274 0.501895 -0.054515 0.244299 -0.068118 -0.445454 -0.236932 0.087223 -0.508905 0.208114 0.038916 -0.182321 0.020235 -0.371917 -0.028262 -0.021593 0.005503 -0.050815 -0.090573 0.36751 0.403043 0.067041 0.065339 -0.510903 -0.115557 0.025682 -0.093383 -0.109639 -0.061823 -0.442738 -0.296596 -0.127274 -0.181867 -0.124723 0.260502 0.00757 0.160812 0.203697 -0.290289 -0.253115 0.293976 0.015072 -0.171274 0.180982 0.063943 0.226095 -0.002601 -0.107501 -0.249802 0.111194 0.148341 -0.467734 0.111827 0.171486 -0.305643 0.045233 -0.194128 -0.123443 0.311847 -0.170669 0.149306 -0.167944 -0.053285 0.066377 0.134772 0.033205 -0.019803 -0.280596 0.454773 -0.372913 -0.042768 0.041001 0.264464 0.028877 0.237344 -0.176419 -0.483543 0.071968 -0.011316 -0.198079 0.314407 0.250987 0.00186 0.097152 -0.076365 0.133679 -0.297065 0.218204 -0.120515 -0.054712 -0.004982 0.103295 -0.224563 0.098262 -0.07426 0.311106 0.16119 -0.109663 -0.197065 -0.249332 0.100924 -0.007413 0.316132 0.283029 -0.083843 -0.03393 -0.164496 -0.224889 0.223415 0.087863 0.100737 -0.290842 -0.223221 0.047959 -0.020373 -0.23564 -0.186239 -0.224143 0.062858 0.151736 -0.137973 -0.163532 0.03883 -0.192291 -0.296825 -0.206517 -0.004162 0.083961 -0.389403 -0.066699 0.025858 0.273232 -0.052337 0.034046 -0.04184 -0.105839 0.002441 -0.529603 0.165898 -0.383057 0.080894 -0.116512 -0.319387 -0.291057 0.18196 -0.259685 -0.037862 -0.07649 0.194392 -0.13763 -0.131446 -0.348847 0.015489 -0.029487 0.078951 -0.280183 -0.071448 -0.017143 0.367777 -0.107346 -0.105609 -0.19726 -0.170178 -0.03184 -0.146167 0.456558 0.154321 0.042169 -0.003576 -0.174808 -0.160155 0.079185 -0.124781 0.105921 -0.195294 0.004683 0.301858 -0.040299 0.041827 0.008792 0.091255 0.269233 -0.177961 0.091134 -0.084451 0.183203 0.265653 -0.233785 0.018611 -0.328608 0.015387 -0.062523 -0.111477 0.031787 -0.020712 -0.125857 0.313806 0.382424 -0.182621 0.1131 -0.143771 -0.235264 0.144133 -0.082298 -0.046616 -0.430088 0.206476 -0.222434 0.232318 -0.486213 0.013687 -0.111676 -0.024009
criterion 0.208845 0.104479 0.015158 0.007988 -0.006877 -0.029381 -0.172714 0.071162 -0.001678 0.122305 -0.049384 -0.123991 0.032632 0.038767 0.070736 0.162872 -0.063298 -0.09212 -0.046205 -0.079814 -0.133247 0.031248 0.144773 0.049623 0.010876 0.052683 -0.157399 -0.095173 -0.077431 0.153239 -0.256016 0.416263 -0.096984 -0.002829 -0.023712 0.148973 -0.215383 0.011525 0.160598 -0.114838 -0.080533 -0.09778 -0.063777 -0.12447 -0.103593 -0.056982 0.195508 -0.220128 0.052351 -0.009779 -0.012151 0.018117 -0.140753 0.067402 0.139902 0.082886 0.010976 -0.036162 0.055011 -0.070889 -0.130787 0.073693 0.027763 -0.008083 -0.084838 -0.229869 -0.036027 -0.029246 0.232503 -0.104363 0.025286 -0.085963 -0.048936 -0.023838 0.019775 -0.045122 -0.115147 0.165617 0.203098 0.055611 0.06061 -0.032571 0.065375 -0.105608 -0.107434 0.120623 0.083842 -0.227199 0.04734 -0.075676 0.025567 -0.010882 -0.048151 -0.017636 0.009626 -0.060441 0.012015 0.123197 -0.315641 -0.167864 -0.171359 0.210109 0.096223 -0.05819 0.20632 -0.128899 0.064402 0.029191 -0.063589 -0.056071 -0.120147 0.083538 0.214142 0.012193 -0.051281 -0.013301 -0.022729 -0.130316 0.146358 -0.043393 0.124006 0.082348 0.033538 0.136407 0.202401 -0.172563 0.103056 0.138137 -0.11079 -0.076939 0.066736 0.021713 0.041628 -0.0901 -0.019743 0.065565 -0.100456 0.098981 -0.17023 0.058866 0.071723 0.093561 -0.149291 0.011528 0.078154 0.149015 -0.183381 0.069477 -0.023635 -0.269315 0.005533 0.153771 0.057762 -0.336207 -0.072701 0.080866 0.011857 -0.141229 0.064092 -0.18973 0.032393 0.038218 -0.044217 -0.226253 0.031066 0.0082 -0.18603 0.162129 -0.001196 -0.040635 -0.047059 -0.101733 -0.187812 -0.152721 0.152258 -0.118217 -0.08059 -0.020032 0.148165 -0.088921 -0.041278 -0.144717 0.075025 0.050457 0.040899 -0.062271 0.016464 0.099175 0.100598 0.00985 0.208927 -0.123476 0.043625 0.14201 0.021985 0.198333 0.069192 -0.072814 -0.144196 -0.093448 0.10344 0.149553 -0.102514 -0.122616 -0.075149 -0.004465 -0.06145 -0.027419 -0.219903 -0.209426 0.017543 -0.097492 -0.063808 -0.206417 -1.16E-4 0.021538 -0.079347 0.003655 0.047321 -0.084859 -0.124856 -0.091772 -0.013198 -0.069976 -0.269739 -0.098423 -0.203826 0.044051 -0.098518 -0.080456 -0.135353 0.203427 0.169447 0.002332 0.152683 -0.110248 -0.084388 -0.0631 -0.220667 -0.039675 0.048804 -0.020069 -0.029613 0.030512 0.061949 0.013852 0.045454 -0.046306 -0.017946 -0.229622 0.047679 -0.195942 -0.003417 0.228615 0.234546 -0.065286 -0.344434 -0.087885 0.134917 0.089374 0.123895 -0.142999 -0.185608 0.231765 0.019317 -0.052971 0.130673 -0.138181 -1.74E-4 -0.162307 0.023665 0.019703 -0.015297 0.114962 -0.096446 -0.107609 -0.271908 0.219226 -0.059043 -0.037169 -0.028903 0.046324 0.014423 0.046276 -0.109491 -0.085886 -0.12146 -0.091079 -0.1164 0.063189 -0.0224 0.03019 -0.261323 0.17391 -0.126051 0.060847 -0.017534 0.037933 -0.155919 0.059578
sea 0.272438 0.337401 -0.044662 0.029542 0.080441 0.364987 0.060637 -0.564175 -0.023052 -0.180737 -0.264187 -0.013542 0.122549 0.165388 -0.115694 0.241546 -0.245247 0.031605 -0.092877 -0.027348 0.007666 0.219928 0.024368 0.05468 -0.111999 -0.094032 -0.217455 0.055142 0.063865 -0.164483 -0.090465 0.293022 -0.146115 0.033892 -0.209427 0.118953 0.04947 0.023486 0.395871 0.10437 -0.076551 -0.485759 0.041255 0.03367 -0.109245 -0.07222 0.281364 -0.258689 0.190828 -0.075663 -0.161582 0.070475 -0.071726 -0.062358 0.025255 0.215147 0.03899 -0.335712 0.085211 -0.029973 -0.331137 -0.077054 0.027389 0.042831 0.161592 -0.098729 -0.119909 0.180519 0.128438 0.207162 -0.118787 -0.053646 0.013816 -0.250341 -0.378356 -0.084717 -0.225039 -0.130163 -0.025515 0.178508 -0.392251 0.190048 -0.185898 -0.255086 -0.103189 -0.244706 0.116459 0.02898 0.559828 -0.207857 -0.668198 -0.057263 0.063106 0.069987 0.379505 -0.196102 0.103468 0.243491 0.194207 -0.049046 -0.478196 0.288428 -0.005757 -0.092913 0.559716 0.046919 0.198616 -0.220078 0.007835 0.026412 -0.543711 -0.022235 0.121588 0.157476 0.163295 0.146162 0.031921 0.035027 0.133961 -0.064481 0.055583 0.077392 0.188923 0.40671 -0.083005 -0.280531 0.215592 0.094139 -0.253072 -0.198342 0.028119 0.122023 0.042602 -0.041541 0.039664 0.370112 -0.428379 0.128168 -0.252568 0.039881 -0.192287 0.061355 -0.113498 -0.216835 -0.013728 0.050792 0.031659 0.249892 -0.015286 -0.207652 0.113315 0.362655 0.219354 0.178718 -0.126781 -0.131611 -0.141555 -0.270337 0.13625 -0.321679 -0.268991 -0.213224 -0.081325 -0.230137 0.271189 0.31582 0.080315 0.03629 0.176037 0.014901 -0.094154 -0.24962 -0.260176 -0.021104 -0.257617 -0.050849 -0.290953 -0.291539 0.144893 -0.14062 0.214594 0.112126 -0.347757 -0.137426 0.075699 -0.184492 -0.2352 -0.288546 0.059394 0.151962 0.083555 0.130623 -0.252445 0.215806 -0.02531 -0.039539 -0.050594 0.052695 0.182697 -0.289244 0.121598 0.325327 -0.08024 -0.117237 -0.053765 -0.128884 0.02915 -0.127091 0.489323 -0.140296 0.113458 -0.004139 0.113124 -0.073207 0.185566 0.138378 -0.141972 0.074849 0.097317 -0.136482 0.185381 -0.23407 -0.090818 0.106748 -0.084649 -0.089128 -0.0216 0.143656 -0.129136 -0.132804 0.284025 -0.245904 0.079906 -0.019195 -0.159783 0.110742 0.051078 -0.067637 0.145586 0.141763 -0.144928 -0.151202 0.058871 -0.136831 0.263297 0.007519 0.147632 -0.113354 -0.030173 -0.018654 0.379876 -0.278251 0.051023 0.167706 0.3188 0.054091 -0.43365 -0.119257 0.281605 0.268102 -0.050767 -0.199194 -0.203543 0.03456 -0.045173 -0.080817 0.175145 -0.273657 -0.018439 0.206212 -0.066003 -0.004063 0.229506 -0.176475 -0.268341 -0.160203 0.102332 0.232117 -0.081189 -0.024377 0.02006 0.341975 0.091639 0.056902 -0.120926 0.314035 -0.103951 0.005399 -0.106105 -0.295078 -0.005607 -0.189119 -0.159622 0.321129 0.097965 -0.021216 -0.388641 0.163327 -0.011586 -0.011109
dollar 0.055701 0.148726 -0.078322 -0.042127 -0.180536 0.058477 -0.064712 0.089214 0.046599 -0.020633 -0.103357 0.045042 0.455144 -0.127395 -0.116033 -0.151472 0.106055 -0.159839 -0.28637 -0.393484 -0.036884 -0.036083 0.301201 -0.179132 -0.146305 -0.311245 -0.549204 -0.099293 0.02242 -0.056443 -0.424375 0.593876 0.035519 -0.272028 0.211834 -0.025172 0.063388 -0.011103 -0.069773 -0.038071 0.211548 0.140009 -0.24245 -0.177056 -0.229176 0.180207 0.062179 -0.748784 0.156848 0.009632 -0.180819 0.014301 0.052853 0.038971 0.505547 0.230165 0.318579 -0.413579 -0.172187 0.211454 0.096005 -0.401519 0.080867 -0.43627 0.055678 -0.11369 0.049228 -0.170068 0.135645 0.086122 -0.306611 -0.336448 -0.372634 -0.085716 -0.232158 -0.09524 0.219786 -0.146407 0.221792 0.451009 -0.204136 -0.125595 0.254539 -0.090913 -0.125859 0.001145 -0.11078 -0.077294 0.071688 -0.365897 -0.751527 -0.112894 -0.195146 -0.22206 0.421219 -0.192817 0.189991 0.259467 -0.054161 -0.139238 -0.04393 0.041782 0.222605 0.090665 0.157489 -0.025001 0.397114 0.074575 0.280156 0.045108 -0.239808 0.157783 0.032945 -0.086956 0.154684 -2.57E-4 0.111014 -0.134524 -0.142619 -0.012684 -0.138956 -0.139025 -0.06048 -0.274547 -0.121622 0.141174 -0.318607 0.046153 -0.222432 -0.16756 0.132753 0.165896 -0.024786 -0.091076 0.281458 0.411254 -0.052124 0.112816 -0.268967 -0.192186 -0.174431 0.130749 -0.409179 0.209173 0.030107 0.315547 0.324092 0.300496 0.136194 -0.016681 0.401947 0.151174 0.179734 -0.276134 -0.072253 0.168197 0.347734 0.245041 -0.07696 -0.140933 -0.00528 -0.035762 0.036753 -0.173133 0.001787 -0.031026 0.091558 -0.364991 0.151795 -0.163812 0.030849 -0.096039 0.050228 -0.467622 -0.126463 -0.229141 0.146108 0.247857 0.393803 -0.325687 0.106726 -0.275869 -0.033289 -0.503139 -0.204388 0.084004 -0.033264 0.013777 0.248295 -0.25134 0.48757 0.057019 0.091167 0.298948 -0.090364 0.015781 -0.552574 0.054162 0.002935 -0.23374 0.258942 0.121291 0.136147 -0.089925 -0.387463 -0.169282 0.407671 -0.067233 0.017077 -0.076597 0.029613 0.104433 -0.03949 0.167708 0.109393 -0.170758 0.049938 -0.380958 -0.092578 -0.351188 0.245154 -0.080713 0.152185 0.394032 -0.159049 0.096276 -0.117985 0.169022 -0.429748 0.048014 0.230833 0.136856 0.249393 0.102363 -0.122758 0.042433 -0.217021 -0.382939 0.06076 -0.527881 -0.297022 -0.107679 -0.102084 -0.158734 -0.158742 0.238884 -0.053254 -0.100251 -0.299018 0.020716 -0.119389 -0.225711 -0.269065 0.279671 0.141135 -0.123547 -0.467283 -0.201338 0.218883 -0.072555 0.246514 -0.44026 -0.315963 0.042767 0.045882 0.10193 -0.140764 -0.202413 0.269984 -0.025706 0.43088 -0.037779 0.083396 -0.260263 -0.132475 0.065394 -0.43574 0.008716 -0.079695 0.138142 -0.040275 0.245548 0.449446 0.099889 -0.293669 -0.002289 0.152989 0.013861 0.017708 0.075797 -0.071187 -0.03805 0.02575 0.205945 -0.25143 0.341985 -0.141087 -0.106241 0.238228 -0.279255
example -0.11804 0.302762 -0.168248 0.012372 -0.118182 -0.05122 0.075768 -0.247699 -0.105715 -0.267395 -0.036522 0.006281 -0.162251 0.076817 0.059305 0.082389 -0.082631 0.043925 0.051065 0.160984 0.017022 -0.040301 0.22866 -0.161082 -0.103303 -0.118405 -0.297846 -7.45E-4 -0.08735 0.11532 -0.439693 0.187748 -0.036115 -0.097818 0.034187 0.14706 -0.221322 0.140623 -0.091498 -0.010021 -0.170877 -0.237412 -0.057358 0.01321 0.152297 -0.258859 0.248229 -0.097975 0.124404 -0.035403 0.071582 0.005601 0.048334 0.188885 0.280665 -0.141596 -0.1882 -0.13093 0.192781 -0.104194 -0.04864 0.089996 -0.035141 -0.220238 -0.227924 -0.058002 -0.29385 -0.097716 0.313106 -0.032858 0.009638 0.213037 -0.255004 0.223871 0.082412 0.129992 -0.051224 0.031649 0.114407 -0.130974 -0.106197 0.050941 0.057398 -0.194662 0.26328 0.013602 -0.066483 -0.409466 0.211457 -0.132063 0.112777 -0.217286 -0.472167 0.016403 0.037886 -0.0327 -0.210248 0.177242 -0.130079 -0.356439 -0.168466 0.432169 0.216989 0.108138 0.351774 -0.082968 0.299256 0.100283 0.183151 -0.157507 -0.040215 -0.04687 0.289444 -0.150875 -0.144489 -0.121939 -0.322603 0.026998 -0.004573 0.103516 0.393028 -0.206519 -0.095127 -0.083559 0.057184 -0.200284 0.087271 0.098025 0.169034 -0.286234 0.134443 0.125455 -0.038432 -0.082611 -0.044877 0.278818 -0.071608 0.070133 -0.265175 0.080279 -0.085123 -0.144963 -0.050156 -0.053235 -0.056538 0.433062 -0.325625 -0.048602 0.076851 -0.301943 0.191003 0.005052 -0.093184 0.042508 0.140506 0.498726 -0.102986 -0.118079 -0.067806 -0.165612 -0.083349 0.398921 -0.300189 -0.310813 0.053645 0.16897 -0.07652 -0.087971 -0.128631 -0.19893 -0.06111 -0.124765 0.036795 -0.17511 -0.005238 0.059336 -0.022819 0.132969 0.281912 0.051216 0.113955 0.006031 0.074056 0.164115 -0.055991 -0.041404 0.251728 0.008871 0.007912 0.125492 -0.011573 0.024742 0.020024 0.205982 0.228775 -0.080975 0.175122 -0.140859 0.178471 0.156906 -0.062052 -0.14423 0.095878 -0.099808 -0.22183 0.078356 0.008735 0.183251 -0.084931 0.01712 -0.149057 -0.134282 0.272308 -0.011994 0.052815 0.07945 0.095189 -0.089927 -0.124936 -0.276263 -0.189965 0.430604 0.244925 0.075291 0.053917 -0.105421 -0.24874 0.034386 -0.169324 -0.109058 -0.118168 0.321275 0.281145 -0.062663 0.104779 -0.0753 -0.028931 -0.194375 -0.154596 -0.105745 -0.172604 -0.174654 0.009813 -0.08857 -0.143628 0.104833 -0.060834 0.006024 0.030576 -0.042658 0.060817 -0.332803 -0.368732 0.098727 0.275878 0.130011 -0.176837 -0.05611 0.06648 -0.107294 0.033462 -0.181431 0.00373 0.039391 0.218593 -0.263682 0.375571 -0.090527 0.228667 -0.282389 -0.109547 0.145944 0.206996 0.248917 0.002646 0.047178 -0.408375 -0.168736 -0.100591 0.11242 -0.297331 -0.055758 -0.048822 -0.07962 0.110348 0.096555 0.019332 -0.17417 0.014082 0.364847 0.122306 0.090112 -0.054285 0.050982 0.058622 0.127877 0.001074 0.030513 -0.28082 0.160854
journal 0.910297 0.210894 0.011728 0.130475 -0.142608 0.541977 0.38145 -0.511561 -0.342055 -0.177533 0.170204 -0.363906 -0.043256 -0.292418 -0.042961 -0.012755 0.370729 -0.093656 -0.17551 0.11845 -0.327725 -0.342022 0.644287 0.329102 0.028182 -0.048717 0.059326 -0.260183 0.130177 0.270441 -0.064758 0.062067 -6.8E-4 -0.421042 0.02015 0.085109 -0.194973 0.172075 0.022705 -0.104608 -0.190722 -0.3175 -0.357641 -0.595177 0.140335 0.08628 0.053367 0.143148 -0.058014 -0.110533 -0.189718 0.114906 -0.263868 0.034975 0.179909 -0.215146 0.168803 0.133963 -0.380577 -0.327909 0.015748 0.095991 0.306308 0.10847 0.108428 -0.259808 0.001126 -0.136233 0.206756 -0.081997 0.149903 -0.014109 -0.027277 -0.285514 -0.429146 0.018895 -0.023859 0.436056 -0.23249 0.528302 -0.311792 0.130487 -0.235783 -0.164556 -0.271688 -0.430684 0.014569 0.303408 0.355532 -0.476094 -0.202426 -0.041154 -0.316245 0.164194 -0.097454 0.134865 0.025256 -0.308362 -0.167415 0.067029 0.332749 -0.082396 -0.143803 0.118418 0.106074 -0.102898 0.334005 0.250652 -0.348491 0.305466 -0.668169 -0.291226 0.434982 0.35039 0.100795 0.165948 0.290349 0.156711 -0.054808 0.425301 0.482119 0.042685 -0.011655 0.201195 0.075248 0.243129 -0.356095 0.063033 -0.293001 -0.39416 0.23264 0.110574 -0.11234 -0.316812 0.254079 0.108316 0.193189 0.616796 -0.341533 -0.34184 -0.055722 0.084555 -0.032485 -0.093252 0.055216 0.061062 -0.754335 0.252118 0.03877 0.00907 0.110276 0.17474 -0.274596 0.261929 -0.14108 0.006946 -0.174077 -0.624152 -0.05727 -0.290127 -0.209698 0.40747 -0.144002 -0.242151 0.095104 0.164224 -0.408124 -0.555937 0.350216 -0.548009 -0.183729 -0.321485 0.054121 -0.058308 0.146709 -0.390624 -0.154834 0.132995 -0.273488 0.180987 0.071855 -0.00737 -0.038143 0.369284 0.262638 -0.430312 0.191893 -0.253467 0.001771 0.168114 -0.341206 0.523423 0.171872 0.118732 -0.075231 0.129997 0.163083 -0.085024 -0.151648 0.020972 -0.136721 -0.146525 -0.532068 -0.58553 -0.122552 -0.43057 0.090849 0.140884 -0.320358 0.2199 -0.17154 -0.181009 0.079361 -0.085151 0.422342 -0.084492 0.221327 0.28695 0.216802 -0.112552 -0.010515 -0.205253 0.514627 0.057955 -0.363546 -0.357764 0.205097 0.2943 -0.375404 -0.053012 0.102095 0.242483 -0.326885 -0.175667 0.014856 0.047295 -0.071445 -0.117726 -0.186259 0.112495 0.328123 0.297006 0.071649 -0.002289 0.145843 0.06203 -0.145572 -0.194821 0.086125 0.052607 0.325885 -0.504854 -0.22506 0.449836 0.874988 -0.245229 -0.553265 -0.088046 0.542698 0.193306 0.011834 -0.261303 -0.633472 -0.252925 0.171521 -0.22674 0.303627 -0.206261 0.0351 -0.028499 -0.299307 0.003341 -0.232473 0.152275 -0.060826 -0.037751 -0.776434 0.148156 -0.273754 -0.014531 -0.025463 0.050342 0.082805 -0.187258 0.108477 -0.49101 -0.114918 0.006389 0.157799 -0.420588 0.05794 0.3471 2.65E-4 0.223765 -0.102861 0.28893 -0.023701 0.24372 -0.566279 0.040755
laundering 0.356896 0.088005 -0.098602 -0.186149 0.002446 0.009591 -0.087206 0.295927 0.479652 -0.081605 0.182712 0.340431 0.2848 -0.00165 0.141464 0.203071 -0.167322 0.282115 -0.190467 0.061637 -0.198297 -0.076329 0.437821 -0.072032 -0.446575 -0.405856 -0.049631 -0.118428 -0.109316 -0.15588 0.242378 0.393906 -0.112613 0.63262 0.525244 0.172753 -0.098043 0.368451 -0.014898 -0.422469 -0.085218 -0.132584 0.060179 -0.218463 0.175995 -0.337991 0.135434 -0.06773 0.016755 0.112596 0.174084 0.119926 0.344436 0.219916 0.306016 -0.170965 -0.203715 0.177936 -0.137346 -0.08208 0.153193 -0.487025 -0.525299 -0.248187 -0.002532 -0.011899 -0.169179 -0.158292 0.22701 -0.04524 -0.192363 -0.22527 -0.561933 0.079179 -0.208777 0.039731 0.020243 0.078325 0.332752 0.236741 -0.22849 -0.03409 0.033139 0.074144 -0.116791 0.082864 0.060467 -0.069503 -0.228088 0.368558 0.172634 0.139703 -0.288438 -0.436474 -0.013231 -0.020845 0.127515 -0.18033 -0.124672 -0.379288 -0.483112 -0.201203 0.268014 0.141294 0.014735 -0.256373 0.373701 0.148437 0.163367 0.361536 -0.455426 0.007696 -0.019996 0.25268 -0.389301 -0.21799 -0.371911 0.119965 0.05531 -0.189454 -0.479747 -0.030163 0.028454 0.37602 0.127979 -0.477394 0.226694 -0.060062 -0.227807 0.067803 0.050401 -0.078971 0.139503 -0.381308 -0.028424 0.040324 -0.067955 -0.176941 -0.335249 0.320541 0.195455 -0.462065 0.070253 0.055366 -0.363002 0.314336 -0.02882 0.35349 0.036015 -0.458002 -0.013742 0.675246 -0.061025 -0.114011 -0.231329 0.119067 -0.049278 -0.073796 0.074321 0.316578 0.19598 0.606463 -0.031916 -0.1995 -0.293721 -0.120813 -0.128164 -0.198896 -0.020585 -0.145531 0.292713 -0.01698 0.129202 -0.312829 -0.177886 -0.175677 0.083386 0.290938 -0.049501 -0.14644 0.113736 -0.162576 -0.0269 -0.058016 -0.468557 -0.178904 0.189125 0.075305 -0.278626 0.044163 0.122859 -0.368629 -0.194978 0.044961 -0.216989 0.220538 0.127983 0.09377 -0.376099 -0.330285 0.387258 -0.137002 -0.026558 -0.341523 -0.162672 0.054845 0.312014 -0.313574 -0.244331 -0.334789 -0.166121 -0.237235 -0.300442 -0.085313 0.26826 0.334939 -0.027018 0.163143 0.23752 -0.346684 0.374993 0.186002 0.098371 0.121563 -0.201075 0.481214 -0.147477 -0.03662 0.404527 -0.29769 -0.235911 0.01204 0.028293 -0.090479 -0.059779 -0.156344 -0.032917 -0.266701 -0.485129 -0.198761 -0.107551 -0.007021 -0.311979 0.228165 0.080817 0.18674 -0.059853 -0.162615 -0.217937 0.005996 0.097112 -0.297098 0.250747 0.148217 -0.183953 -0.037544 -0.352755 -7.6E-5 0.16882 -0.063128 0.395039 -0.30887 -0.336805 -0.132057 0.002626 -0.128824 -0.204701 -0.04349 0.094479 -0.047365 0.26599 -0.03687 0.2959 0.319849 -0.573133 -0.008464 -0.16362 0.15836 0.197327 -0.076197 -0.244509 0.330338 0.158246 -0.047098 0.337907 -0.099552 0.397338 0.079914 -0.18573 0.196639 0.283436 0.279256 -0.185961 0.199928 -0.076054 0.132631 -0.280214 0.211668 0.007109 -0.21113
