436 300
plane 0.070924 -0.270397 0.209871 0.004729 0.176055 -0.087615 -0.009451 0.043364 -0.171155 0.239088 0.144758 -0.04692 0.046428 0.02595 -0.001728 0.045765 -0.104685 -0.361117 -0.167553 0.095636 0.062884 -0.122377 0.222164 0.063161 -0.070125 -0.046998 -0.125382 0.332937 0.025181 -0.125261 0.207333 -0.014047 0.228678 0.062158 0.115143 0.089261 -0.134138 0.04984 -0.014289 -0.068504 0.12987 -0.005401 -0.092677 -0.283829 -0.20223 -0.085126 -0.106143 -0.381166 0.051025 -0.11943 -0.075041 0.147069 0.219253 0.102944 0.371821 0.063281 -0.151093 -1.62E-4 0.148529 0.032094 0.381166 0.013024 -0.252597 0.003154 -0.30078 -0.344748 -0.128949 -0.071352 0.135579 0.268769 -0.053339 -0.046787 -0.003451 0.055664 -0.137783 -0.029616 -0.12181 0.096017 -0.40172 -0.123154 -0.193384 0.03643 0.417372 -0.292334 -0.172252 -0.077676 -0.062274 -0.286214 -0.058352 0.064676 -0.265946 -0.082855 -0.290256 -0.490931 -0.134772 0.324986 0.028739 0.017581 -0.11891 0.144942 0.151544 0.138261 0.013271 0.177892 -0.136039 0.042698 0.070163 -0.081996 0.058273 0.139662 0.101295 0.123861 0.265431 0.045837 0.029239 -0.00872 -0.169664 -0.257456 0.155843 0.145869 0.109223 -0.125642 0.173799 0.006229 0.053041 -0.078736 -0.147639 0.264981 -0.006338 -0.249683 -0.167826 -8.07E-4 -0.151986 0.154099 0.081401 0.099753 -0.282035 -0.25658 -0.292059 0.287608 0.047033 0.068819 -0.0045 0.083611 0.009462 0.005784 -0.295793 0.181167 -0.128679 -0.361304 0.319696 0.080801 0.136885 -0.228102 -0.370045 -0.087412 0.11313 -0.052466 0.2771 0.193899 0.177631 0.086495 -0.159509 -0.191679 0.226671 -0.033709 -0.589845 0.138905 0.209453 -0.096782 0.06811 0.04668 -0.089521 -0.062829 -0.082676 -0.424064 -0.407807 0.071474 0.178399 0.207428 0.182967 -0.4213 0.307909 -0.154959 0.052737 0.137996 -0.194404 0.411605 0.022194 0.206592 0.003912 0.150195 0.064321 -0.039861 -0.031687 0.187797 -0.05503 0.048798 -0.265885 -0.250353 0.202294 0.438862 0.0622 0.218355 0.223773 0.086208 0.009243 -0.133913 -0.099441 0.051586 -0.407738 -0.240685 0.153582 -0.284581 0.049051 0.098731 -0.030306 0.085727 0.034586 -0.152793 0.236132 0.256681 -0.164882 0.24468 -0.350037 0.092124 -0.162849 -0.436796 0.15079 -0.056788 -0.014225 0.365927 0.024875 0.277356 -0.329584 0.021081 -6.81E-4 -0.011558 0.062086 -0.046464 -0.076291 -0.045023 -0.077466 0.069048 0.452544 0.110357 0.030236 -0.050233 0.051297 -0.190289 0.099885 -0.136868 -0.231586 -0.145898 -0.187341 -0.236044 -0.348503 -0.434788 0.432601 -0.032698 0.007687 -0.274432 -0.112896 -0.117656 -0.353591 -0.016462 -0.267476 -0.329167 0.107381 0.277308 -0.322795 -0.089039 0.080573 -0.133048 -0.065503 0.128839 -0.22768 -0.153407 0.001192 -0.216379 -0.025586 0.009147 0.299379 0.207095 -0.247355 -0.395339 0.346219 0.304122 0.391734 0.208034 0.144861 -0.27104 -0.01751 -0.145358 -5.35E-4 0.193832 -0.475832 -0.159164 -0.4101 -0.134297
stupid 0.144069 0.119694 -0.041604 0.144703 0.17323 0.025418 -0.452332 -0.019088 -0.093143 -0.042102 -0.079356 -0.005057 -0.476902 0.026041 0.300277 0.00828 0.184464 -0.096999 -0.238711 0.096422 -0.160523 0.237537 0.404239 0.001511 -0.103639 -0.08252 -0.036362 -0.084033 0.227514 -0.397908 -0.132827 0.218886 0.151013 0.11946 0.155941 -0.090159 -0.259204 0.113885 -0.018201 -0.246151 0.159414 -0.097292 -0.113076 -0.198873 -0.379557 0.14582 -0.04153 -0.087526 -0.240015 0.032732 0.193278 0.038685 -0.126022 0.444268 0.13998 0.29405 -0.141835 -0.180253 0.045834 -0.246674 -0.015246 -0.025055 0.097818 0.273173 -0.164786 0.177626 -0.053879 0.27831 -0.078537 -0.131628 -0.09693 -0.414089 0.057079 0.211531 0.041839 0.175925 -0.001798 0.036841 -0.074191 0.160629 0.200421 0.079935 -0.015591 -0.040525 -0.018523 0.026076 -0.338076 -0.010391 0.075447 -0.153652 -0.180439 -0.265678 0.015136 0.019544 0.181689 -0.194866 -0.22753 -0.111909 -0.173042 -0.115257 -0.278069 -0.032969 0.046899 0.149208 -0.073997 0.075748 0.031089 -0.074621 0.035689 0.002166 -0.063004 0.012637 0.309964 -0.225345 -0.342867 0.212432 -0.196952 -0.166587 0.146509 -0.244511 0.252081 0.148933 0.295179 0.019852 0.0891 -0.081661 0.150938 -0.003636 0.260033 -0.172253 0.002246 -0.15642 0.183535 0.233493 -0.245609 0.203116 -0.272916 -0.04595 -0.509575 -0.093479 -0.18257 -0.089604 -0.211496 -0.224769 0.100162 -0.024419 -0.141793 0.214131 -0.25098 -0.287395 -0.085639 0.335237 0.152263 -0.022243 -0.165014 0.100239 -0.314088 -0.303691 -0.321026 -0.219396 0.04162 -0.168905 -0.170665 -0.162313 -0.463876 0.050322 -0.094301 -0.15536 0.190942 -0.004213 0.142187 -0.209009 -0.168442 -0.488647 0.337936 -0.406 -0.155317 0.08725 0.120087 -0.064442 -0.215819 0.06166 0.188458 0.220257 -0.195375 -0.330153 0.081758 -0.180586 0.081162 0.129958 0.247499 -0.166483 -0.216586 0.247893 0.016805 0.104447 0.097277 0.267969 0.103674 0.090451 0.194608 0.022928 -0.387008 0.049079 -0.147845 0.254113 -0.066202 -0.093337 0.191747 0.080724 0.056121 -0.027044 0.056106 -0.13759 0.031538 -0.050193 -0.253123 0.168947 0.149145 -0.214943 -0.163784 0.068157 -0.083079 -0.210345 -0.371107 -0.165475 -0.134586 -0.191068 -0.103411 -0.148075 -0.173049 0.023089 0.029713 -0.260008 -0.080011 -0.322665 -0.005412 0.023242 -0.197846 0.036711 0.276638 0.161944 -0.098981 0.013554 0.116564 0.122938 0.220484 0.002263 0.011068 -0.061556 0.195552 -0.268953 -0.086648 -0.063695 0.644187 0.228612 -0.170048 0.085968 0.045748 -0.141988 0.18407 -0.140762 -0.016429 0.409118 -0.125201 -0.030627 0.059521 -0.192912 0.198036 0.150997 0.135404 0.099531 -0.038432 0.29261 0.035383 0.082082 -0.314745 -0.106396 0.135489 0.002873 -0.103993 0.241632 0.043122 0.156421 0.283491 0.120309 0.128478 -0.05388 0.126206 0.159423 -0.328403 0.248455 -0.256569 0.436626 -0.280695 0.212373 -0.154404 0.098515 -0.427603 -0.170616
egg 0.190536 0.004479 0.093922 0.125897 0.099087 0.040997 0.239394 -0.068402 0.144349 -0.046858 -0.013854 -0.169281 -0.127544 -0.085105 -0.359264 0.002751 -0.152991 -0.099069 0.124511 -0.012977 -0.465957 0.214612 0.264983 -0.053191 0.359291 0.16938 0.07488 0.074708 0.080138 -0.082355 -0.076547 0.279914 0.074789 0.034892 0.434078 0.22321 0.137352 -0.026729 -0.042313 -0.106305 0.059342 -0.10458 0.034786 0.184085 0.023372 0.011535 0.030004 0.143288 0.2066 0.112989 -0.191212 0.105204 -0.175028 0.364005 0.23334 -0.128099 -0.12763 0.022182 0.029793 0.325744 -0.307083 0.06698 0.002179 0.129131 -0.226776 -0.331489 -0.078865 -0.066377 0.219986 0.096037 -0.055039 0.086422 -0.249643 0.052361 -0.331203 0.006317 0.048823 -0.08615 0.386354 -0.343878 0.185925 -0.385151 -0.034351 -0.407956 -0.16314 -0.055925 0.212156 -0.057452 0.133408 -0.140552 -0.21196 -0.034194 -0.26486 0.276153 0.001429 -0.241035 0.104573 0.186015 0.47904 -0.049638 -0.24678 0.305222 0.057336 0.059161 0.477265 -0.04879 0.096179 0.264013 0.050858 -0.005955 -0.504348 0.161207 0.475458 0.004344 -0.537801 -0.031436 -0.197311 0.239667 -0.299104 0.416303 -0.131105 0.197461 0.337939 -0.202502 -0.060446 -0.407731 -0.266274 0.375498 -0.126019 0.049571 0.144926 0.197169 5.8E-5 -0.12659 -0.058903 0.114747 -0.013744 -0.030163 -0.433026 0.160033 -0.078963 0.144327 -0.069432 -0.182497 0.27355 -0.042678 -0.230508 0.278254 -0.116197 -0.172707 -0.128229 0.181093 -0.089553 -0.188544 0.058978 -0.163739 -0.084344 -0.178786 0.067602 0.034661 -0.205032 0.270194 0.068272 -0.17436 0.202815 -0.122643 -0.142853 0.273708 0.004511 -0.014165 -0.109868 0.218405 -0.109037 -0.214176 0.304136 -0.159091 0.011568 0.049963 0.068177 -0.166734 0.040596 -0.356711 -0.180626 -0.011195 -0.065637 -0.127606 0.083404 0.033518 -0.089215 0.226923 0.285388 0.11634 0.034138 -0.260468 0.321774 0.003963 0.416004 -0.119199 -0.302551 -0.264595 0.392287 0.294507 -0.336884 -0.169979 -0.251673 0.047328 0.466456 -0.339815 0.117866 -0.152112 -0.175775 -0.213866 0.148065 -0.098582 -0.081666 -0.065335 -0.245046 0.151997 -0.225145 0.257285 -0.023844 0.14241 0.532716 -0.058296 -0.092542 -0.070606 -0.15955 -0.274788 -0.183403 0.008038 0.184185 0.194915 0.103823 0.064579 0.008812 0.011187 -0.124369 -0.112373 -0.325724 0.094701 0.050525 0.056461 -0.168595 -0.174816 0.382863 0.058673 -0.121433 0.304306 -0.056431 -0.152114 0.001113 -0.097509 0.375527 -0.064225 0.150255 0.081693 -0.284274 -0.130018 0.025423 -0.087724 0.241693 -0.143735 -0.24076 0.089423 0.195428 0.154622 0.24913 -0.191619 0.098281 -0.121251 -0.012439 0.045168 -0.318429 0.278412 -0.654815 0.096453 0.192257 0.200741 -0.261219 0.236557 0.113894 -0.002079 0.337944 0.016559 -0.021686 0.038993 0.234489 0.033967 0.448806 0.090581 -0.513455 0.105945 0.152283 0.143118 -0.155596 0.169318 -0.27064 -0.276979 -0.100729 0.025761
year 0.203865 0.016102 -0.106352 -0.154568 0.054961 0.089675 -0.213444 0.021349 0.081588 0.047667 -0.19338 0.029602 0.109578 -0.208186 -0.025986 -0.183083 -0.104518 0.300425 -0.27369 0.061213 -0.237532 -0.011589 0.230419 0.265854 -0.309672 0.105188 0.055996 -0.093667 0.114811 0.064193 -0.051662 0.139491 -0.15334 -0.166431 -0.057131 0.095621 -0.290878 0.322655 -0.005947 -0.229813 -0.089182 -0.006394 -0.005525 -0.205245 0.066973 -0.222054 0.103573 -0.305931 0.060724 0.207894 -0.007235 0.240094 -0.136319 -0.059439 -0.114236 0.298348 -0.015091 0.165256 -0.008193 -0.094803 -0.155965 0.088642 0.295416 -0.322449 -0.249006 -0.039193 0.043504 0.028403 0.022222 -0.05029 0.032997 0.068515 -0.084266 -0.002752 -0.201262 0.01549 0.036696 -0.016669 -0.108408 0.12937 -0.134003 -0.026926 0.081537 6.32E-4 -0.091682 -0.12987 0.013903 -0.045861 0.25175 -0.160993 -0.309 0.005453 -0.168041 0.090616 -0.078745 0.242454 -0.062354 0.120394 -0.112165 -0.117904 -0.173089 0.435894 0.329488 0.17158 -0.168659 -0.160019 -0.085571 -0.031345 -0.139639 0.124471 0.06753 0.394258 0.096336 -0.080897 -0.205881 -0.190269 0.015661 0.205167 -0.196473 -0.001375 0.129672 -0.04871 0.070564 0.10869 0.023784 -0.121624 -0.103234 -0.114329 -0.026298 0.100699 -0.181786 0.13414 -0.086917 -0.116785 0.147388 0.0606 -0.526482 -0.042371 -0.14045 0.24408 -0.001422 -0.065149 -0.086049 -0.093247 -0.032127 0.283354 -0.357641 0.19821 0.0755 -0.212597 0.240826 -0.01512 0.342552 -0.15044 -0.071636 0.053157 -0.21765 0.084214 -0.047334 -0.057633 0.022754 0.048653 -0.136709 0.096374 0.048609 -0.056438 -0.167025 0.168638 0.082263 -0.176484 -0.379591 -0.114336 -0.097088 -0.310011 -0.043141 -0.095592 -0.190383 0.10809 0.208032 -0.052267 0.108799 -0.357538 -0.182462 -0.150698 -0.176463 0.080331 -0.008613 -0.067629 0.136484 0.138598 0.028606 0.022183 -0.007288 -0.045754 0.033812 0.114441 0.004424 -0.272563 0.17384 -0.073798 -0.141158 0.105296 -0.264091 0.127794 -0.20044 0.044273 -0.089088 0.235263 -0.118939 -0.114021 0.103987 -0.140179 -0.035969 -0.093381 0.129532 0.062746 -0.001143 0.055682 0.233268 0.045031 -0.198145 0.120634 -0.111517 -0.106896 -0.136632 0.031311 -0.190178 0.096076 -0.072168 -0.037798 -0.064231 0.291082 0.180255 -0.064498 0.213004 0.013932 0.039195 -0.054257 -0.12123 0.035634 0.042948 0.012578 -0.135152 -0.144563 0.111237 -0.023386 -0.137317 -0.016881 0.068877 0.128111 0.306949 -0.137974 0.105994 0.055757 0.31625 -0.013829 -0.318004 -0.096603 -0.049263 0.081977 0.141591 -0.263132 0.109634 -0.088252 0.441858 0.076141 0.027101 -0.007616 -0.135761 0.116533 0.14876 0.130532 0.121752 0.341378 -0.39398 0.124808 -0.137989 -0.211761 -0.034038 0.087168 0.14265 0.146604 0.044334 -0.276159 0.061804 -0.377211 -0.148621 -0.117827 -0.210443 0.208123 -0.108904 0.042314 -0.283821 0.047844 0.028983 -0.03945 0.228915 0.168021 -0.026351 -0.159402
psychiatry -0.011722 0.411866 -0.289066 0.162163 -0.376291 -0.198736 0.27059 0.028414 -0.155565 0.242448 0.280062 -0.23984 0.018262 -0.341111 -0.15537 -0.257111 0.140305 -0.270469 -0.184743 -0.152401 0.16763 -0.135351 0.326198 -0.042307 -0.2663 -0.307647 -0.029962 -0.227537 -0.306319 0.399315 0.122629 0.296502 -0.194925 0.200326 0.27835 0.079659 0.087035 0.11457 0.230134 -0.314673 -0.200396 -0.225286 0.075775 -0.067117 0.147731 -0.170962 -0.101834 -0.190013 0.366424 -0.046133 0.113313 0.442771 0.023775 -0.023062 -0.096732 -0.053837 0.30268 -0.337968 0.233914 0.056391 -7.83E-4 -0.507613 -0.012942 -0.270055 -0.09899 -0.219251 -0.153922 -0.020341 0.092096 0.050794 0.002619 0.168009 0.235825 0.337878 -0.035912 0.122478 0.315854 0.100514 0.101684 -0.140741 -0.152304 0.30367 0.142428 0.392814 -0.194308 -0.145439 -0.109128 -0.177887 0.306306 -0.029502 -0.014312 -0.510668 -0.132686 0.159552 0.135357 0.131737 0.287099 0.220327 0.05512 -0.397137 -0.040259 0.312948 0.108703 0.111191 0.306569 0.067204 0.158953 -0.070679 -0.227665 0.151883 -0.252448 -0.046461 0.423098 -0.283833 -0.145087 -0.104633 -0.111179 0.045374 0.019027 0.065689 -0.209637 -0.015644 0.376388 0.126729 -0.218184 -0.040453 -0.082864 -0.282246 0.111234 -0.19374 -0.320244 -0.192018 0.095047 0.280394 -0.085989 -0.265368 0.013317 0.05135 -0.059705 -0.046074 0.124629 -0.215589 0.152456 -0.098949 0.075388 0.140669 -0.30319 0.350695 -0.117587 -0.194624 0.367986 0.363689 0.081175 -0.247244 0.51077 0.100615 0.172595 -0.224542 -0.102822 -0.155782 -0.253954 0.429283 0.044098 0.022616 0.068693 0.261347 -0.027167 0.10433 -0.081672 0.355082 -0.18451 -0.483106 -0.137379 -0.64229 0.023249 -0.29209 -0.095445 0.278819 -0.157975 -0.153935 -0.240865 -0.34182 -0.147496 -0.045511 -0.035687 0.082425 0.174063 0.084086 -0.232647 -0.356497 0.197161 -0.078968 -0.039632 0.385066 0.403213 -0.02188 0.479041 0.021175 -0.050557 0.072964 0.089993 0.264572 -0.135946 0.10678 0.023248 0.369644 -0.053241 0.296241 -0.033671 -0.025441 0.233202 -0.062792 0.355798 0.103456 0.033398 0.019101 -0.293238 -0.181299 -0.022793 -0.028205 0.321394 0.102753 -0.198049 -0.042952 0.04205 0.003436 0.007814 0.20216 -0.1775 0.061995 0.166467 -0.016549 -0.204768 -0.242542 -0.304337 -0.205609 0.243522 0.044435 -0.072012 0.226623 0.328561 0.358715 0.079381 0.262636 -0.315602 -0.016312 -0.049215 0.317761 -0.104884 0.294493 -0.153109 0.333488 0.020652 0.112307 0.205018 0.003709 -0.405161 0.061781 0.156576 0.029723 -0.189057 0.110119 -0.270345 -0.338063 -0.084128 -0.381528 -0.034606 -0.162842 -0.067756 -0.153206 0.170702 -0.167223 0.008034 0.04706 -0.153711 0.189558 -0.363711 0.264476 0.234958 0.305716 -0.103386 -0.008242 -0.290357 0.258604 -0.41605 -0.239537 0.121527 0.120902 -0.238158 0.123891 -0.021898 0.418196 -0.139441 0.55385 0.193674 -0.148659 -0.412482 0.14914 -0.192594 0.462275
asylum -0.153132 -0.382534 -0.018199 0.247107 -0.227491 -0.038092 0.06424 -0.286717 0.31968 0.213833 -0.041794 0.02858 0.082015 -0.099249 -0.154338 -0.174613 0.030779 0.059041 -0.308347 -0.020034 0.177399 0.011063 0.125206 -0.022498 -0.199634 0.245539 -0.088271 -0.096611 0.106536 -0.011803 0.134398 -0.032405 0.145905 0.310151 0.267697 0.097528 -0.367502 0.35086 -0.084318 0.263874 0.057039 -0.246923 -0.132856 -0.289578 -0.026081 0.239086 -0.334608 -0.647113 -0.275887 0.138095 0.220136 0.328464 0.046462 -0.042733 -0.16477 -0.090319 0.109027 -0.209461 -0.101546 -0.013186 0.038643 -0.24752 -0.382167 0.167049 0.062267 -0.115838 -0.04213 0.278473 0.057973 0.059865 -0.168408 0.007252 0.042817 -0.408703 0.146991 -0.046427 0.042861 -0.011963 0.015548 0.21749 -0.379231 0.030582 -0.047691 -0.065386 0.35966 -0.198465 -0.263741 -0.286194 0.495274 0.218355 -0.028052 -0.541923 0.037314 0.427696 0.051776 0.053245 0.337709 0.273584 -0.423944 0.179973 -0.175004 -0.124838 0.225557 -0.063233 0.264456 -0.228812 -0.258766 -0.079588 0.029966 0.135268 0.264799 -0.322064 0.39318 0.045928 -0.036964 -0.155353 -0.039803 -0.251418 0.421264 0.251064 -0.113394 0.017111 0.112862 0.070092 -0.038672 -0.453102 0.017653 0.145131 -0.202225 0.04247 0.006667 -0.144899 0.343474 0.10662 0.356918 0.283173 -0.514799 0.186493 -0.461579 -0.07607 -0.528611 -0.132095 -0.280786 -0.070086 -0.42867 0.740589 -0.134568 -0.151303 -0.15389 -0.574556 -0.014662 0.216653 0.050538 -0.25841 0.119296 0.282166 -0.063358 -0.14544 -0.091917 -0.006077 -0.010609 0.311663 0.027045 -0.094696 0.1897 0.047938 -0.18374 0.389433 -0.107558 -0.210394 0.013915 -0.156538 -0.317307 -0.177818 0.244083 -0.088318 -0.132381 0.255688 0.217822 -0.35856 -0.060184 -0.314897 -0.280238 0.119509 -0.269341 -0.098105 -0.04176 -0.14576 -0.693714 -0.349831 -0.067663 -0.343704 -0.356635 0.176145 -0.023864 0.119797 0.016432 -0.079547 0.130968 -0.194346 -0.061522 0.579431 0.082837 0.16916 -0.03368 0.18004 0.004547 0.08576 0.06484 -0.274688 0.07431 0.247508 0.212032 -0.432658 0.122561 0.021506 -0.213025 0.16846 -0.049222 0.071986 -0.131903 0.183867 0.305796 0.151655 -0.041252 0.002383 0.369539 0.041038 -0.124127 -0.386054 0.191403 0.150425 0.322864 -0.198483 -0.275356 0.273583 -0.208575 -0.429938 -0.105839 0.251666 -0.064886 -0.036991 0.085587 0.030614 0.121389 0.041319 -0.011356 -0.051102 0.335469 0.455337 0.018014 -0.016724 0.093107 -0.012905 0.123914 -0.122501 -0.210303 -0.29672 0.084421 0.168125 0.191018 -0.176426 -0.092174 0.096333 0.208529 0.037039 0.108238 0.012079 -0.318718 0.207865 -0.386341 0.124109 0.176292 -0.190369 -0.024338 0.066121 -0.202575 0.094404 -0.196276 0.103521 0.20124 0.326158 -0.163631 0.205657 -0.290572 0.124183 -0.01386 -0.12832 0.094289 -0.029494 -0.170807 -0.027045 0.069106 0.026953 -0.143501 0.025423 -0.439027 6.96E-4 -0.229883 0.013855
manslaughter -0.557159 -0.001147 -0.15529 0.192524 0.058088 -0.054754 -0.384049 -0.30347 -0.252494 0.160941 0.015427 0.195591 -0.258538 0.206585 -0.052845 0.008924 0.2144 -0.18349 0.405985 0.351636 -0.193705 0.126473 -0.028867 0.423465 -0.231588 -0.163429 0.158985 -0.011133 0.029383 -0.231172 0.130997 -0.048292 -0.215384 0.225899 0.093011 0.113191 -0.135975 0.34057 -0.472081 -0.067117 0.017447 -0.115805 -0.381963 0.028478 -0.014103 -0.245719 -0.576329 -0.65648 0.325309 0.363967 0.016893 0.048996 0.122225 -0.025331 0.132167 0.148528 -0.202847 -0.322061 -0.145087 -0.001977 0.175804 -0.447163 -0.45338 -0.205503 -0.016803 -0.011229 -0.130339 -0.190345 0.19373 0.322692 0.159292 0.471219 -0.269523 0.260171 0.215161 -0.57124 -0.167442 0.534972 -0.153064 0.176871 -0.220803 0.223453 -0.027988 -0.236501 -0.163875 -0.164768 0.312442 0.279163 0.454967 -0.190832 -0.098925 0.018854 -0.448627 0.289918 0.050947 -0.189436 0.600376 -0.058303 0.243571 0.565772 -0.216783 0.254093 0.360869 -0.126108 0.363232 0.029916 0.434271 -0.179562 -0.073785 0.106756 -0.137526 -0.205105 0.109014 -0.283118 0.333712 -0.308532 -0.164985 0.235244 0.102912 -0.112104 0.430349 0.204597 -0.043689 -0.250093 -0.169721 0.390612 0.100736 0.351649 0.092571 -0.077237 -0.311551 0.177135 -0.053368 0.117202 0.224403 -0.16208 -0.777873 -0.179168 -0.137869 -0.399581 -0.022223 -0.018024 -0.056713 0.095727 0.118918 0.307986 -0.06284 0.200615 -0.532766 -0.61832 0.543981 0.376251 0.412241 0.355415 0.037257 -0.29536 0.107329 -0.115566 0.103578 0.179736 0.018441 0.382517 -0.25692 -0.49299 -0.131222 -0.018505 0.095124 -0.126116 0.137708 -0.13269 -0.045548 -0.32041 -0.233627 -0.222275 0.05807 0.239401 -0.053307 -0.24776 0.133565 -0.187265 -0.280071 -0.257279 0.381772 -0.362996 0.134624 -0.380378 -0.147326 -0.332306 -0.828761 0.260152 0.508349 0.182935 -0.064352 -0.239756 0.095794 0.268296 0.29158 0.148129 0.343234 -0.118705 0.298801 0.468141 -0.358005 0.381927 -0.343005 -0.004625 0.557226 -0.139929 0.334728 -0.580653 0.016875 -0.039509 -0.011786 0.186636 0.028385 0.295286 -0.44865 -0.589543 -0.245106 -0.554938 0.048331 0.221466 -0.456578 -0.160444 -0.242677 -0.35035 -0.019007 -0.095024 0.300789 -0.079643 -0.009089 -0.114631 -0.225976 -0.151838 -0.013885 -0.158861 -0.121931 -0.355404 0.187361 0.083737 0.096818 -0.378545 0.273277 0.124409 0.098942 -0.210962 0.346561 -0.422198 0.125685 -0.148349 -0.051428 -0.184577 -0.358068 0.129164 -0.172467 -0.197069 -0.332611 -0.298345 0.231363 0.236786 0.109256 -0.490483 -0.189542 -0.390206 0.055763 -0.199779 0.882277 0.699443 0.329925 -0.436847 0.135504 -0.374332 0.017018 0.089679 -0.251348 0.051482 -0.346126 0.215802 0.200051 0.325292 -0.20917 0.026118 0.058953 0.075609 -0.082477 -0.242339 0.1554 0.093854 -0.356158 -0.4198 0.148622 0.159486 -0.538121 -0.031349 0.122539 -0.516101 -0.12731 -0.107792 0.04145 -0.181074
music 0.310618 0.083536 0.080616 -0.297855 -0.059611 0.066116 -0.045299 -0.481488 -0.035874 0.048564 -0.143331 -0.023277 0.212101 -0.034387 0.344962 -0.15942 -0.07883 0.261477 -0.235961 0.094888 -0.196391 0.289656 0.213104 0.313962 -0.024774 0.127805 -0.087497 -0.370745 -0.284016 -0.148889 -0.213819 0.035888 0.204643 0.166705 0.169786 -0.189944 0.075343 -0.149948 0.014597 -0.026531 -0.077239 -0.074301 0.036317 0.060908 0.028268 0.023823 0.069617 -0.040375 -0.083866 -0.076793 0.011256 0.015356 0.235342 0.014176 -0.176205 0.102526 0.098116 -0.030415 -0.005825 -0.101219 -0.193013 0.040832 0.141499 -0.265764 -0.298033 -0.108293 0.0193 0.050251 0.360567 -0.080441 -0.22342 0.012875 0.006607 -0.051867 -0.072052 -0.297926 -0.247707 0.140103 0.412039 0.013661 -0.005693 0.220761 0.171391 -0.279891 0.064352 -0.063432 0.214773 -0.232857 0.128715 -0.27403 -0.314577 -0.038488 0.128979 -0.043869 0.118673 -0.062814 0.312619 -0.325395 -0.059662 0.007942 -0.23677 0.189472 -0.112558 0.16781 -0.067824 -0.062897 -0.21441 0.069195 0.082333 0.283557 0.070916 -0.018233 0.387967 -0.089815 -0.215382 -0.085671 -0.097107 -0.039292 0.155583 0.014904 0.016092 0.054906 -0.021765 0.023749 0.085942 0.094317 -0.072297 -0.142572 0.111548 -0.197178 -0.247915 -0.137398 -0.180964 -0.202592 0.107034 0.134656 0.036229 0.028143 -0.083596 -0.101965 -0.128974 0.087621 0.134721 0.174779 0.181028 0.313039 -0.243588 -0.100432 -0.065712 -0.073652 0.25277 0.053106 0.093684 -0.243332 -0.185259 0.221646 -0.164749 -0.141854 0.07253 -0.014763 0.19498 0.022958 -0.135323 0.062958 0.020456 -0.019786 -0.159648 0.019345 -0.028346 -0.09561 -0.022119 0.015816 -0.255378 -0.344209 0.120508 -0.072946 -0.026469 0.043361 0.227849 -0.252703 -0.056366 -0.226183 0.230308 0.124268 -0.135849 0.273938 0.103398 0.250287 -0.029549 -0.125049 0.088196 -0.043203 0.020965 0.052668 0.098315 0.14529 0.447933 -0.01893 0.103149 -0.086096 0.155385 0.031144 -0.067375 0.061161 -0.05371 -0.054907 -0.068347 7.85E-4 -0.175123 -0.218216 -0.172338 -0.120724 -0.044837 -0.016073 0.046501 -0.044381 -0.073047 0.055334 0.048067 -0.007112 0.185389 -0.104974 0.033538 0.059967 -0.193678 0.0266 0.051631 -0.005549 0.005287 0.138983 0.163167 -0.122405 -0.366731 0.071441 -0.126168 -0.046444 0.287913 -0.388903 -0.142139 0.029564 0.135685 0.036423 -0.122263 -0.018152 0.291791 -0.030328 0.0481 0.096693 0.223938 -0.382337 -0.393449 0.102936 -0.144672 0.2201 0.255349 0.37538 0.077053 -0.215275 0.198561 -0.127578 0.009538 -0.531712 -0.102219 0.199949 -7.37E-4 -0.094169 0.027794 -0.318405 -0.050971 -0.306126 0.059722 -0.18668 -0.024914 -0.114191 0.06589 -0.269588 -0.600607 0.237152 -0.036704 0.104906 -0.139081 0.294026 -0.062717 0.021837 0.049327 0.203779 -0.096527 0.111743 0.164333 -0.08422 0.118042 0.08084 -0.252812 0.330769 0.064593 0.131313 0.063576 0.007015 -0.154543 -0.02157
record 0.290686 0.020932 -0.006796 -0.250234 -0.007357 -0.069979 -0.242956 -0.163427 0.148001 -0.217519 -0.077546 -0.154044 -0.056163 -0.140976 -0.049008 0.088864 -0.255469 0.253083 -0.181554 -0.027244 0.034143 0.050455 0.199579 0.188228 -0.177784 0.101271 0.044964 -0.128076 -0.045698 0.137789 -0.204963 0.307641 -0.023462 -0.026344 -0.384936 0.187537 -0.010772 0.062859 -0.045536 -0.136559 -0.053377 -0.212559 -0.160805 0.079883 -0.310642 -0.16331 -0.069184 -0.022274 -0.169603 -0.056665 -0.209062 0.267526 -0.011649 -0.112965 0.098245 -0.014589 -0.067853 -0.249752 -0.038037 -0.263808 -0.187627 -0.128434 -0.059776 -0.178946 -0.292772 -0.491523 -0.090119 0.008764 0.234861 0.105255 -0.426437 -0.090967 -0.304245 -0.077998 -0.21852 0.043673 -0.02545 0.154169 0.122242 0.151349 -0.135209 0.262306 0.027283 -0.250476 -0.120881 0.057028 -0.053064 0.121666 0.249259 0.032029 -0.205282 0.13754 -0.140867 -0.205197 0.110842 0.127175 -0.078837 0.250071 -0.184002 0.169738 -0.151448 -0.047869 -0.09765 -0.161029 -0.06999 -0.189007 0.161139 0.056464 0.148291 -0.076613 -0.14217 0.189965 0.100153 0.049463 0.05061 -0.042339 0.139093 0.078276 -0.071469 0.034793 0.235489 0.066707 0.161188 0.214726 -0.009578 0.031979 -0.073206 0.061507 0.018672 -0.141826 -0.260338 -0.020398 0.049519 -0.223267 0.090015 -0.054881 -0.463541 0.086223 -0.165322 0.117296 -0.147493 -0.174214 0.166193 0.053644 -0.011471 0.125144 -0.065101 0.156726 0.188027 -0.14893 0.108906 -0.092826 -0.018116 0.262674 -0.274831 0.07915 -0.042379 -0.089006 -0.327225 -0.185116 -0.036194 -0.071624 -0.105004 -0.129978 -0.072619 -0.336354 -0.016629 0.067517 0.135582 -0.032476 -0.098688 -0.340191 0.027557 -0.099668 0.148654 -0.292539 -0.251828 -0.088232 -0.100667 0.034618 -0.207706 -0.111304 -0.054998 0.065501 0.026782 0.221241 0.056555 0.123258 0.15335 0.115614 0.163697 -0.134353 0.145789 0.247526 -0.100477 -0.016811 -0.118193 -0.21727 0.03113 -0.320677 0.12132 0.025625 -0.065551 -0.23098 -0.143824 0.063153 0.233909 0.288974 -0.214172 -0.152026 -0.056687 0.163031 0.178017 -0.273459 0.107571 0.032715 -0.010544 -0.213081 0.241019 -0.263624 -0.118838 -0.135696 -0.093197 0.076704 -0.07096 -0.116672 -0.052676 -0.149632 -0.015432 -0.063931 -0.209746 0.240095 -0.092353 0.203992 0.007906 -0.160059 -0.028095 0.048889 -0.150124 0.14147 -0.012291 -0.104585 -0.030564 -0.140537 -0.00732 -0.110042 -0.34503 0.103032 -0.029651 -0.098978 -0.254863 -0.193782 0.329638 0.476568 0.088446 0.016353 -0.133271 -0.136922 0.235122 0.180113 0.011553 -0.533575 -0.147639 -0.13762 0.121086 -0.043558 0.004964 0.301668 0.087966 -0.296146 0.144441 0.119284 0.120799 0.097688 -0.139279 0.07288 -0.145572 0.03175 -0.226317 0.304658 -0.01152 0.009558 -0.239888 0.051935 0.163074 -0.182773 -0.105456 -0.22491 0.020311 0.138678 -0.238622 -0.018816 -0.141078 0.138934 0.002733 0.15899 -0.198175 0.435926 -0.279526 -0.150104
energy 0.741786 0.159941 -0.142633 0.033726 -0.154144 0.006299 -0.152021 -0.320298 -0.00583 -0.255046 0.02697 0.345153 0.210017 -0.133422 0.264443 0.235114 -0.035793 0.089356 -0.230776 -0.194329 -0.00724 0.215705 0.207442 0.149092 -0.064087 -0.003845 0.089427 0.046924 -0.293492 -0.304446 -0.089109 0.43014 -0.034275 0.320029 0.219859 0.102924 0.022806 0.400934 -0.027948 -0.008743 0.34023 -0.011089 0.109487 0.01514 -0.241474 -0.045986 -0.043524 -0.18835 0.035446 0.009209 0.076868 0.261297 0.279422 0.269989 0.231664 0.24275 -0.121869 -0.188414 0.152547 -0.075989 -0.147719 0.043099 0.19459 0.140239 0.012513 -0.227941 -0.203487 0.076286 -0.079902 -0.053539 -0.127737 0.129299 -0.274478 0.097346 -0.236811 0.117741 -0.218784 0.026718 0.17444 0.156594 -0.082865 -0.060419 0.079534 -0.163258 0.001167 -0.084601 0.207738 -0.367983 0.405566 -0.082176 -0.05376 0.008613 -0.488771 -0.25928 -0.129563 0.028634 0.157224 -0.009731 -0.023186 -0.045702 -0.194836 0.211893 0.091496 -0.06107 -4.28E-4 0.23329 -0.039963 0.089429 -0.020883 -0.077507 -0.021384 -0.060277 0.145001 -0.182561 0.15022 0.304921 0.06709 0.069197 0.222216 0.270708 0.288064 -0.148413 -0.192838 -0.14525 0.004067 -0.072339 -0.057778 0.251671 -0.00628 0.160048 0.042444 -0.083522 0.069475 -0.152001 0.118967 0.059153 -0.100313 -0.017508 -0.133677 0.143361 0.001542 0.085588 -0.138285 -0.166487 0.095039 0.269198 -0.104172 0.007234 0.380809 -0.129642 0.186068 0.436898 0.247649 -0.25545 -0.159053 0.486011 -0.049409 0.046022 -0.009399 -0.096652 -0.173805 0.508142 0.274265 -0.004246 -0.046956 -0.114718 -0.042562 0.171898 0.053582 -0.255048 0.006336 -0.393155 -0.147691 -0.233121 -0.035738 -0.308127 -0.032481 0.178488 0.10978 -0.22786 0.084471 -0.218836 -0.037062 0.076335 0.122384 -0.049454 0.158167 -0.118748 -0.113523 0.014903 -0.004165 -0.004998 0.178172 0.238506 -0.100691 0.231979 0.338316 -0.043098 -0.097896 0.079868 0.047308 -0.370417 0.108168 -0.217802 0.06271 0.038763 0.179748 -0.116129 -0.047506 0.01384 -0.149637 -0.218782 0.14452 -0.192179 0.234994 -0.201537 -0.046105 0.034618 -0.019599 0.030826 0.29733 -0.14325 0.051972 0.274223 -0.013107 -0.076442 0.004464 0.177738 -0.060109 0.102816 0.08931 -0.069845 0.346045 -0.01834 0.328214 -0.017192 0.040539 0.286625 0.261853 0.095672 0.054588 -0.1625 -0.155029 -0.180562 -0.010878 0.278532 -0.203151 0.112416 0.253538 -0.025991 0.223208 -0.06203 0.005886 0.062322 0.252085 -0.29319 0.107418 -0.072553 0.031929 0.026547 0.099528 0.014649 -0.228235 0.076723 0.163926 0.141839 -0.017001 -0.337831 0.082508 -0.094174 -0.205472 -0.297049 -0.224027 0.199829 -0.147339 -0.242784 -0.171539 0.178258 -0.152341 -0.118334 0.181244 0.235287 -0.166388 0.120121 0.011403 0.234059 -0.11818 -0.097376 -0.106353 -0.090116 0.145064 -0.285466 -0.30873 0.253703 0.149697 0.185891 -0.177762 0.069417 -0.346272 0.161038
announcement 0.219164 0.138125 0.067458 -0.142649 -0.11274 -0.073674 0.171339 -0.31276 0.26301 0.071885 0.038554 -0.076518 0.302235 -0.300131 -0.085901 -0.148482 0.044499 -0.121632 -0.141397 -0.171901 -0.201915 -0.142179 0.162949 0.104592 -0.23698 0.169382 -0.091876 -0.050154 0.073886 -0.047477 0.079428 -0.110657 -0.135911 -0.120072 -0.241941 -0.057687 -0.18258 0.058202 0.228021 0.004458 0.108482 -0.216555 -0.142235 0.041478 -0.078145 0.098589 0.062393 -0.446699 0.196346 -0.202687 -0.085017 -0.044451 0.135032 0.110857 0.055339 -0.225636 0.14801 0.019378 -0.002059 -0.131322 -0.291944 -0.315965 -0.118028 0.087896 -0.202679 -0.10561 0.120278 -0.058863 0.323279 0.110349 0.018626 0.07187 -0.15279 0.156665 -0.28007 0.112052 0.047786 -0.090931 0.070994 -0.064499 -0.299781 -0.123773 0.005745 -0.259574 -0.087155 0.23004 0.123977 -0.194295 0.131819 -0.223206 0.087572 -0.009284 -0.555092 -0.215882 -0.220454 0.07775 -0.112884 0.323426 -0.383558 0.028351 0.004034 0.246197 0.097571 0.121692 0.412681 -0.079041 0.174129 0.10229 0.130842 0.26187 -0.043977 0.407369 -0.067019 -0.416472 -0.03114 0.06997 0.198441 -0.10189 -0.11353 -0.102676 0.147211 -0.066323 -0.114705 0.068937 -0.088958 0.046541 0.223688 0.086966 -0.096694 -0.015143 0.188386 -0.112651 -0.007361 0.332999 0.009853 0.063644 -0.164428 -0.041966 -0.451857 0.066597 0.083328 -0.106254 0.189046 -0.031775 -0.022897 0.122934 -0.250874 -0.209683 -0.132769 -0.160237 0.226468 0.22332 -0.048527 -0.072505 -0.162053 0.084858 -0.210728 -0.223176 -0.230317 0.010629 -0.090135 -0.109255 -0.162344 0.295598 -0.040309 -0.180134 -0.041616 -0.102793 -0.213526 0.006962 -0.256541 0.002278 0.154304 -0.035059 0.013551 -0.18997 -0.447462 -0.260327 -0.105711 0.060826 0.190538 -0.040806 0.144517 -0.138301 0.011175 -0.324342 -0.19345 0.111387 0.155861 0.104249 0.173765 -0.192269 -0.194993 -0.061201 0.217003 0.00442 0.057485 0.119862 0.180917 0.128249 0.106502 0.194973 -0.281214 0.04743 -0.143263 0.053423 -0.047243 -0.187693 -0.130326 -0.298692 -0.023589 -0.115737 0.03968 -0.273946 -0.056967 -0.173652 -0.070517 0.131573 0.396999 -0.271967 0.106675 0.152398 -0.070387 -0.116391 -0.251958 0.318793 -0.221469 -0.062626 0.087434 0.29903 -0.161883 0.163494 -0.001201 -0.142775 0.098299 -0.128466 -0.091198 -0.287006 -0.162902 -0.055551 -0.171327 -0.151436 0.052614 -0.074212 0.282678 0.155175 0.157313 -0.127234 -0.230647 0.160129 0.107177 -0.219242 -0.207315 -0.160416 0.168957 -0.260618 0.261094 -0.091122 0.09418 0.136252 0.085116 -0.046055 0.44266 -0.030135 -0.020974 -0.045816 -0.254896 -0.036512 0.090489 -0.011306 0.015118 -0.020888 0.175292 0.267495 -0.15635 -0.106937 -0.338723 0.190119 0.13729 0.229758 0.442827 0.35392 0.018362 -0.207839 -0.012517 -0.33332 -0.088561 0.040994 0.09895 0.06871 0.271022 -0.273915 -0.444541 0.109149 -0.115335 -0.349054 -0.129644 0.066057 -0.382282 0.200152
mile 0.184671 0.133396 -0.052821 -0.365409 0.212013 0.184694 0.323541 -0.265851 -0.232608 0.049772 -0.416267 0.039193 0.398448 -0.084528 0.325937 0.269132 -0.321196 -0.083595 -0.245551 -0.142476 -0.364799 0.288889 0.281347 -0.255391 -0.211191 -0.295323 -0.316319 0.086174 -0.089911 -0.126209 -0.169489 0.501979 0.078156 -0.450695 -0.114245 0.217575 0.039654 0.330286 0.165681 0.236882 -0.144642 -0.042469 -0.173535 -0.049639 -0.062378 -0.231678 0.074641 -0.074874 -0.204195 -0.116629 -0.261585 0.193583 -0.20566 0.006122 0.22345 -0.074257 0.16149 -0.021291 0.003444 0.126676 0.276029 -0.005295 -0.044241 -0.009446 0.069398 -0.083502 -0.219619 -0.196078 -0.092566 0.229238 0.03469 0.199187 -0.20225 -0.123758 -0.012478 -0.075441 -0.076913 -0.019436 0.117214 0.07588 -0.062287 -0.631734 0.160272 -0.164574 -0.022411 0.360372 -0.192178 -0.24983 -0.187344 0.115322 -0.253015 -0.004818 -0.413483 0.349626 0.036954 -0.075169 -0.001369 0.021262 -0.041809 -0.03235 -0.373907 0.302551 -0.022286 0.147969 -0.164338 -0.207629 -0.013641 0.336608 0.049186 0.05031 -0.244287 0.145209 0.189966 0.137398 0.048445 -0.123926 -0.067985 0.045466 -0.07429 0.097164 0.040878 -0.416924 0.221752 0.036699 0.038715 -0.059227 0.165873 0.202772 -0.014802 -0.279531 0.139704 0.219168 -0.013248 -0.086691 -0.006047 -0.163967 -0.52481 -0.350979 -0.127596 0.048597 -0.098772 -0.175372 0.413131 -0.30208 0.123448 0.060252 -0.104277 0.239024 0.13673 -0.346916 0.130838 -0.181087 0.027032 0.004428 -0.043429 -0.091577 0.298133 -0.034384 0.119823 0.237508 -0.107085 0.207429 0.026348 -0.448971 0.023122 0.027658 -0.181026 0.137347 0.306075 -0.663155 -0.149908 0.265914 0.107696 -0.253706 0.201649 -0.144435 -0.492345 0.062169 -0.063274 -0.187764 0.385542 0.048049 0.075446 -0.351325 -0.346742 0.109306 -0.206811 0.250772 -0.034766 0.53416 -0.067414 -0.079684 0.326437 -0.100014 0.027679 -0.056364 -0.389363 -0.043778 -0.036236 -0.189296 -0.124758 0.147861 -0.137122 -0.140809 -0.118634 0.276537 0.181132 0.368927 -0.106637 0.30162 0.334593 0.085715 0.150517 -0.025871 0.172951 0.118525 -0.332999 -0.102832 -0.159837 0.087623 -0.07666 0.146158 -0.067091 -0.049019 -0.321514 0.047542 -0.044867 -0.186443 -0.022574 -8.52E-4 -0.178562 0.291463 -0.208396 -1.25E-4 -0.195546 0.107349 -0.269762 -0.032282 -0.170873 0.166769 0.294327 0.236392 0.209233 0.247669 0.248535 -0.061064 -0.177678 -0.224558 0.363476 0.137918 0.119488 -0.15255 -0.230712 0.029591 -0.157401 0.068663 -0.353014 -0.294814 0.558637 0.084187 0.144661 -0.208453 -0.022606 0.393234 0.004803 -0.060428 -0.086236 -0.138322 0.057522 0.124028 0.002575 0.412897 0.417225 0.22905 -0.157494 0.136057 -0.115755 -0.157305 0.084462 0.002214 -0.046422 -0.18038 0.207956 -0.060134 -0.245147 -0.073301 -0.260659 -0.212116 0.136674 -0.006056 0.220613 -0.145997 0.102937 0.457534 0.167413 0.328873 -0.174617 -0.09055 -0.254166 -0.161373
airport 0.108935 -0.126893 -0.062479 -0.01911 -0.071659 0.195486 0.097772 -0.012831 0.056049 -0.080746 0.010549 0.362907 0.289402 0.015689 0.042052 -0.293538 -0.135828 -0.298336 -0.295183 0.198617 -0.149037 -0.047467 0.07339 0.268323 -0.185529 -0.021327 -7.4E-5 0.161619 0.069711 0.058411 0.250018 0.036449 0.126807 0.214865 0.11758 0.325559 -0.063762 0.372059 -0.085554 0.020269 0.137503 0.112134 0.050227 -0.329664 -0.409235 0.079408 0.093318 -0.367837 0.306866 0.103657 0.168362 0.270599 0.183909 0.042108 0.19717 0.067386 -0.20149 -0.133021 0.252503 -0.026778 0.235623 -0.101997 -0.189254 -4.86E-4 -0.331663 -0.240351 -0.089671 0.112133 -0.071512 0.122351 -0.131812 0.131926 0.057536 -0.108577 0.146399 0.056668 -0.016616 0.238699 -0.001629 -0.118006 -0.003731 0.17102 0.18907 0.076079 -0.158609 0.01019 0.149288 -0.210231 0.077793 -0.13414 -0.053695 -0.271947 -0.150957 0.05429 -0.133577 0.270522 -0.122583 0.157918 0.113514 0.489056 -0.110187 0.05966 0.024409 0.141116 -0.104378 -0.186715 -0.017099 0.021742 -0.013545 -0.042402 0.144699 -0.109071 0.262349 0.15499 0.027422 -0.051473 -0.093916 -0.357571 0.246892 0.013537 -0.028687 -0.160775 0.037295 0.113238 -0.00991 -0.332817 0.010689 0.081704 -0.384935 -0.147765 0.105143 0.220659 -0.250711 0.186174 0.092117 0.032175 -0.059632 -0.064829 -0.178341 0.223273 -0.111659 -0.087434 0.085767 -0.273031 0.090148 0.188046 -0.164834 0.113313 0.199251 -0.278524 0.250378 0.225 0.154262 -0.056777 -0.195586 -0.186167 0.278392 0.157482 0.127064 0.338537 0.119046 0.046752 -0.051977 -0.327045 0.382389 -0.043022 -0.165275 -0.268231 0.353742 -0.251391 -0.063326 0.085555 -0.013736 -0.296038 -0.044118 -0.286607 -0.352383 0.061755 0.114667 0.108 -0.016942 -0.269683 0.059682 -0.316598 -0.042304 0.198471 -0.245946 0.566247 -0.129843 0.016625 -0.007481 -0.146511 -0.281001 -0.042843 0.128558 0.297422 0.00491 0.206854 -0.174078 -0.248151 0.109133 0.642245 0.14793 0.093923 -0.030458 0.465717 -0.14519 0.060128 0.087384 -0.055459 -0.061306 0.036423 0.163278 -0.279354 0.36242 0.115864 -0.094938 0.177359 0.211019 -0.001849 0.217631 -0.035298 -0.086615 0.388296 -0.370494 0.090755 -0.200372 -0.038476 0.368648 0.183082 0.291095 0.241021 -0.047357 0.225183 -0.225243 -0.081615 0.114989 -0.208355 -0.147505 0.109928 -0.001314 0.111004 -0.158935 0.096621 0.492433 0.11649 -0.175773 0.077318 0.023278 -0.035884 0.169567 -0.34633 -0.36627 -0.045652 -0.062649 -0.197903 -0.145204 -0.243912 0.108729 -0.203948 0.190926 -0.019656 0.018928 -0.156938 -0.005048 -0.231348 -0.030998 -0.189919 0.020245 0.243431 -0.242255 -0.009045 0.069291 0.158485 0.091206 0.25351 -0.288173 -0.014866 0.01051 -0.275735 0.220387 -0.061958 -0.003719 0.291171 -0.34346 -0.452927 0.207302 0.200927 0.072794 0.108885 0.021179 -0.357466 -0.192196 0.222279 0.006108 -0.093388 -0.323319 -0.124062 -0.299692 -0.142866
population 0.295049 0.067803 -0.075186 -0.013457 -0.262699 0.078468 0.044915 -0.216686 0.130281 0.120334 -0.421064 0.091903 -0.125454 0.018408 -0.255848 -0.214685 0.052017 0.001711 -0.081276 -0.079325 -0.166813 -0.158167 0.35738 -0.126617 -0.213986 -0.140238 -0.055004 -0.029955 -0.01163 -0.232445 -0.216954 0.445925 0.015538 -0.056822 0.180084 0.320818 -0.133553 0.593317 0.288932 -0.02573 0.165342 -0.239159 0.041515 -0.29003 0.209195 -0.241934 0.073768 -0.387885 -0.137392 0.092251 0.043867 0.416109 0.046191 0.112361 0.463683 0.432575 0.073575 -0.078622 0.13523 0.245967 -0.248236 -0.363071 0.098625 -0.14984 -0.316599 -0.02894 -0.551833 -0.123054 0.100307 -0.008708 0.013583 0.045477 -0.130739 -0.315382 -0.192151 0.098434 -0.098568 0.257024 0.02186 0.057484 -0.219122 -0.052191 0.241789 -0.078648 0.302566 -0.015581 0.367305 0.26009 0.192869 0.086664 -0.174563 -0.069951 -0.119492 0.010327 0.024606 -0.133381 0.171183 0.10584 0.131516 0.05898 -0.043242 0.277982 0.028891 -0.076146 -0.240539 -0.08954 0.281963 0.186145 0.238403 0.220367 0.048146 -0.183776 0.036657 -0.250196 0.256244 -0.188454 0.174585 -0.067712 0.123557 0.074827 -0.228323 0.028252 0.337058 -0.144446 -0.038277 -0.199039 -0.388334 0.076778 -0.049921 0.041493 0.258442 -0.192508 0.015809 -0.340401 -0.254736 0.156201 -0.188018 0.115899 -0.361932 0.135615 -0.104769 0.144313 -0.046111 -0.090141 0.010934 0.232596 -0.322302 0.120346 -0.094876 -0.117426 0.474934 0.337339 -0.119178 -0.069107 -0.097082 0.145838 0.012303 -0.158271 -0.117586 0.071865 -0.105813 0.252731 -0.205597 -0.097211 0.032781 0.002847 -0.33577 0.153444 -0.261302 -0.235848 0.087535 -0.436499 -0.233953 -0.220355 0.192098 0.005468 -0.230482 0.116575 0.038835 -0.486782 0.087254 -0.131797 -0.026888 -0.042184 0.046961 0.24266 -0.07789 0.119616 0.036011 0.031968 0.19153 -0.179005 -0.011169 -0.050115 0.364791 -0.035146 -0.007654 0.26409 -0.022519 0.134447 0.233167 0.089862 -0.048058 -0.188378 -0.392922 0.197394 -0.14071 -0.114718 0.47719 -0.029488 0.184232 -0.022113 -0.117873 -0.075924 0.0203 -0.012628 -0.304706 0.249382 0.219996 0.356245 -0.008526 -0.11993 -0.118653 -0.195931 -0.072988 -0.128278 0.107373 -0.136101 -0.113633 -0.193606 -0.202644 0.490756 0.30727 0.019252 -0.110379 0.235312 -0.003613 -0.079037 -0.311091 -0.277156 0.07464 -0.007051 -0.072409 -0.075762 0.105838 -0.095873 -0.270919 0.294531 0.026398 -0.039431 -0.028936 -0.193196 0.028494 0.156694 0.051799 -0.137034 -0.128334 -0.535094 0.181181 0.035954 -0.027648 -0.06455 -0.034658 0.291109 0.097892 0.008674 -0.006739 0.193694 -0.203278 0.038072 -0.223439 0.022164 -0.044952 -0.2576 -0.168891 -0.10026 -0.025681 0.199476 -0.038381 0.234441 0.131176 0.073532 -0.044707 0.100375 -0.270125 0.012467 0.135496 -0.060491 -0.168333 0.375628 0.011986 -0.055859 -0.212882 0.08527 0.045604 -0.085401 -0.268746 0.00366 0.075118 0.104228
planning 0.09838 0.143297 -0.088819 0.139615 0.1051 -0.048715 0.38034 -0.196404 0.142065 0.040173 0.101363 0.205939 0.206173 -0.168936 0.07544 -0.056355 -0.186715 0.192643 0.110806 0.143853 -0.053044 0.225766 0.210396 0.010704 -0.13097 0.254936 -0.166633 -0.141896 0.012064 -0.106434 -0.158369 -0.053749 0.18196 0.065752 0.086166 0.021538 0.140975 0.409741 -0.003362 -0.02045 0.102929 0.095243 -0.15546 -0.096285 -0.018114 -0.007466 -0.083008 -0.127823 0.114174 0.005502 -0.145633 0.04775 0.101082 0.080108 0.096405 -0.047658 0.041178 -0.073184 -0.138503 -0.258583 -0.253728 0.002829 -0.018022 -0.13724 -0.182488 -0.182083 -0.262256 0.068126 0.127758 0.113856 -0.034261 0.19588 -0.147226 -0.076186 0.190013 -0.0377 -0.194133 0.128444 -0.03105 0.114538 -0.04194 -0.146097 -0.06451 -0.125306 -0.044465 -0.181686 0.076744 -0.315297 0.302477 0.166951 -0.224597 0.110665 -0.147967 0.001592 0.009508 0.15029 -0.156758 0.123284 -0.050518 0.174468 -0.021268 0.353774 0.035897 -0.05698 0.280253 0.085555 0.093603 0.057159 -0.015027 0.172944 0.017332 0.15836 0.048809 -0.0845 -0.070552 0.176214 -0.216259 -0.100646 0.089354 -0.006602 -0.048252 -0.180128 -0.107252 0.097601 0.023415 0.090568 0.10879 0.184238 -0.178349 0.03858 0.029806 -0.004945 0.173706 0.103348 0.158101 0.162159 -0.058914 0.170315 -0.32471 0.214986 -0.080036 0.019357 -0.012364 0.054997 -0.048653 0.065254 -0.002694 0.041128 -0.004253 -0.235892 0.198869 0.138543 0.33716 0.002167 0.033508 -0.038574 -0.107988 0.160453 0.078079 0.051382 -0.202606 0.069833 -0.034094 0.150029 -0.043512 -0.105296 -0.005514 -0.064813 -0.105741 -0.259038 0.211014 -0.19488 -0.243188 -0.150183 0.060269 -0.136952 -0.237807 0.165319 0.026996 0.07473 0.158849 -0.112271 -0.006643 0.045283 -0.00993 -0.062035 -0.093199 0.048998 -0.216259 0.034324 0.088381 0.070541 -0.270762 0.144811 0.133231 0.312869 0.071327 -0.030918 0.167003 0.193172 0.098234 -0.098419 -0.031842 0.131902 -0.104889 0.130033 -0.162729 -0.008632 0.167408 -0.224672 -0.068504 0.11402 0.10521 0.049659 0.16715 -0.07315 0.230357 0.117806 -0.053935 -0.224787 0.138631 0.076329 0.047191 -0.042514 -0.313145 -0.061637 -0.177856 -0.139735 0.229022 0.089964 0.055782 0.063195 0.148016 -0.139668 -0.02233 -0.204855 0.048302 -0.256143 0.027661 -0.188832 -0.165239 -0.122069 -0.153083 0.300313 -0.008288 0.324005 -0.185901 0.141179 -0.084019 -0.143936 -0.069863 -0.018475 -0.232393 -0.011634 0.330238 -0.053917 -0.442208 -0.091195 0.039769 -0.260307 0.065214 -0.394231 -0.184173 -0.258398 0.178022 -0.105185 0.22286 -0.13126 0.115896 0.273195 0.196376 -0.109374 -0.091595 0.256114 -0.179316 -0.107239 -0.304667 -0.31138 -0.033881 -0.253542 0.10734 0.204556 -0.079792 0.176029 0.124786 -0.05593 0.139905 0.268482 -0.103488 -0.063317 0.01884 -0.008209 -0.169122 0.050933 0.109995 0.061768 -0.215681 -0.167043 -0.306846 -0.010492
canyon 0.132542 0.04438 0.117537 -0.186435 0.167443 -0.093405 0.317258 -0.035166 -0.068433 -0.09919 -0.10209 0.070728 0.066821 -0.004436 -0.04354 0.108304 -0.100207 -0.066446 0.0897 0.001434 -0.342111 0.062946 0.298173 0.058897 -0.189714 -0.300645 0.039787 -0.292627 0.049406 0.033485 -0.301726 0.179447 -0.09485 -0.256539 -0.019709 0.510792 0.162703 0.226633 0.063544 0.139796 0.092255 0.079315 -0.227011 0.00794 -0.370145 -0.320609 0.001875 -0.098213 -0.016336 -0.15023 0.067923 -0.073225 0.261504 0.063357 0.169071 -0.060573 -0.140414 -0.132184 0.024782 0.404858 0.053743 0.148469 -0.025336 -0.104419 -0.217131 -0.115943 -0.44635 0.038734 0.217846 -0.07775 -0.416899 0.108067 -0.137718 0.170467 -0.149061 0.063078 0.02009 0.103877 -0.077996 0.022499 0.009567 -0.128967 0.174047 -0.238375 -0.319259 0.008725 -0.506759 0.054889 -0.049578 -0.205179 -0.283162 -0.080992 -0.479747 0.23517 -0.141681 0.054678 -0.035457 -0.109882 0.323305 -0.176887 -0.537583 0.061771 0.07113 0.102971 -0.038346 -0.477614 0.149053 0.180867 -0.054391 0.082606 -0.088229 0.031924 0.2413 0.032792 -0.030688 -0.301462 0.130791 -0.073281 0.03636 -0.171414 0.140646 0.199418 0.214011 0.205739 0.187716 -0.383918 -0.121845 0.149988 2.58E-4 -0.159847 0.215816 0.128544 0.046386 -0.208048 -0.116817 0.115343 -0.101632 -0.291248 -0.345645 0.015601 -0.108805 -0.29272 0.110035 -0.016153 0.168055 -0.14629 -0.137378 0.015806 -0.229561 -0.050044 0.237986 -0.267395 -0.209016 0.065072 -0.350971 0.273108 0.348196 0.063638 0.130115 0.165361 0.355701 0.217295 -0.14039 -0.297039 0.190868 -0.073928 -0.082502 0.329888 0.185083 -0.286862 -0.0807 0.100681 -0.023254 -0.497074 0.186676 -0.293249 -0.140905 -0.161999 0.176065 -0.079372 0.345174 -0.235301 0.034851 0.037546 -0.054615 0.236785 -0.157195 0.258568 -0.004457 0.010276 -0.02822 0.1007 -0.122098 -0.118729 0.053401 -0.137221 0.042624 0.092093 -0.087788 -0.007234 0.243889 0.444677 -0.116265 0.075221 -0.086572 0.531736 -0.141925 -0.13984 -0.248765 0.033575 0.038298 -0.121531 -0.018932 -0.031969 0.033466 0.145543 -0.024408 -0.018776 0.046414 0.14194 0.103346 0.001927 -0.044919 0.034709 -0.121104 0.356496 0.180077 -0.111587 -0.19001 0.154529 -0.36606 -0.02078 -0.012957 0.051328 -0.235926 0.296145 0.143195 -0.071105 0.059424 -0.048034 0.134895 -0.158787 0.198842 0.06747 -0.12198 -0.258607 -0.25672 0.065115 0.132319 0.183223 -0.082162 -0.192091 -0.036241 0.332115 -0.121644 -0.045183 -0.230025 -0.41461 0.121151 -0.103038 -0.018136 -0.217073 -0.249757 0.363121 -0.128422 0.160171 -0.072767 -0.365608 0.051519 -0.010775 -0.110963 -0.175479 0.046443 0.035987 0.281486 -0.039482 -0.221992 -0.07722 -0.002043 -0.076119 -0.01159 0.026242 0.59555 0.073635 -0.338779 -0.018471 -0.095436 0.107444 0.188448 0.148779 -0.07917 -0.048957 -0.166068 0.15965 0.200831 0.211748 -0.445433 -0.109527 -0.298269 -0.314224
delay 0.199427 -0.093793 -0.190947 0.146655 -0.144447 0.145755 0.234657 0.20519 0.075844 0.037198 0.067519 -0.250952 0.150043 -0.301141 0.221484 -0.098857 -5.92E-4 -0.233196 -0.264353 -0.02327 0.173847 -0.03254 0.335932 0.127758 -0.358596 0.009578 0.005319 -0.021547 0.018563 -0.111492 0.072037 -0.075153 -0.017658 -0.046008 -0.133236 0.155263 -0.134515 0.014926 0.202686 -0.081933 0.366285 -0.256782 0.017507 -0.322616 -0.068076 0.269867 -0.187518 -0.250039 0.038206 0.218473 -0.021947 0.119189 0.095424 0.029242 0.390347 0.152512 -0.124185 0.149498 -0.397591 0.026023 -0.191564 -0.231304 -0.01542 -0.056384 -0.162095 -0.079441 0.19241 0.025331 0.203246 0.087812 -0.085373 0.21285 -0.197057 -0.154463 -0.01805 -0.252399 -0.016996 -0.005487 -0.042706 0.14284 -0.046489 -0.216314 -0.077741 -0.198391 -0.242402 -0.014459 0.004301 -0.241929 0.068087 -0.06286 0.129299 0.226535 -0.273158 -0.041919 -0.013586 0.179491 -0.077407 0.034141 -0.072303 0.011293 -0.140035 0.200857 -0.048973 -0.001789 0.338983 0.035975 0.081126 -0.336628 0.060913 0.18145 -0.006994 0.224688 0.07357 -0.327688 -0.077135 0.089154 0.024473 0.006696 0.149734 -8.9E-4 -0.270054 -0.090755 -0.069594 0.06688 -0.339554 0.063819 0.251703 0.154022 -0.169067 -0.135002 0.02927 -0.087323 -0.021239 0.106589 0.105935 -0.082788 -0.219856 -0.179698 -0.526617 0.0717 -0.087105 -0.263045 0.146747 -0.019989 0.082392 0.287308 -0.351137 0.017624 -0.04843 -0.290416 0.142667 0.411083 0.272995 0.09458 0.196673 -0.047706 -0.048345 0.052331 0.152141 -0.061577 0.024131 0.059389 0.102577 0.111473 0.092089 -0.010023 0.071489 -0.048047 -0.122141 -0.004178 0.155524 0.242625 0.134626 -0.130375 0.186961 -0.021317 -0.288729 -0.048771 0.136618 -0.347787 -0.110636 -0.020088 0.341694 0.071439 -0.090605 -0.095955 -0.031396 0.101636 0.068614 0.212751 0.202217 -0.243894 -0.273965 0.055812 -0.090603 0.131541 0.11089 -0.016869 0.273761 0.166711 0.087779 0.257417 0.05521 0.001763 -0.260861 -0.086899 -0.177598 0.236165 -0.14875 -0.018811 -0.061091 -0.061293 0.258785 -0.336276 0.056827 0.029292 -0.065425 -0.043637 0.101134 -0.202193 -0.069342 0.271283 -0.207159 0.095065 -0.316732 0.058848 0.017037 -0.215465 0.136442 0.231941 0.134218 0.163079 -0.120498 -0.028975 0.03765 -0.147281 -0.114613 -0.098349 0.016449 -0.011169 -0.301624 0.024716 -0.070803 0.095611 0.051744 0.105228 -0.105212 -0.095646 -0.141157 -0.187387 0.050261 -0.550055 0.004383 -0.066894 0.128038 -0.254735 -0.090036 0.115198 0.115812 -0.175909 -0.013855 -0.294472 -0.108394 -0.121285 0.129812 -0.001458 0.252713 -0.308152 0.126027 -0.006706 0.165914 0.142616 0.041373 0.212909 0.021538 -0.071656 -0.214548 -0.105765 -0.202326 -0.116668 0.119899 0.193473 -0.085343 0.075537 -0.122351 -0.036082 -0.152128 0.028105 -0.179415 -0.040391 -0.005166 -0.092647 -0.155342 0.10606 -0.055711 -0.225419 0.029317 -0.087846 -0.190454 -0.195118
size 0.431858 0.118573 -0.026684 0.022248 0.08867 0.208899 0.191259 -0.267537 0.046562 -0.109957 -0.100917 0.172439 -0.02451 -0.140693 0.144973 0.125582 -0.128414 -0.028038 -0.008679 0.046574 -0.22409 -0.115444 0.343918 0.02236 0.008268 0.069449 -0.222825 0.093741 -0.001482 0.007134 -0.081268 0.491407 -0.020574 -0.175269 0.208711 0.194446 0.146357 0.174431 0.178414 -0.410589 0.28074 -0.091308 0.026728 -0.171848 0.208385 -0.111786 0.253739 -0.191762 0.155251 -0.012036 -0.007196 0.053236 0.172031 0.168919 0.651418 0.098305 -0.036976 -0.021549 -0.092229 0.17402 -0.151224 0.078123 0.034486 -0.079272 -0.226191 -0.161258 -0.103158 -0.138712 0.265162 -0.098951 0.222129 0.19128 -0.072554 0.006857 0.102112 -0.061948 -0.299583 0.088024 0.062398 -0.239886 -0.084923 -0.316099 0.091951 -0.229164 0.027917 0.24026 0.250489 -0.07408 0.083778 0.135096 -0.061641 0.188406 -0.226617 -0.011709 -0.034956 0.081895 0.147335 -3.14E-4 0.057121 -0.08317 -0.251625 0.289993 0.064364 -0.091161 -0.168092 0.010039 0.141427 -0.076421 -0.054802 -0.072261 0.067064 0.179841 0.137205 -0.197618 -0.141126 -0.087874 0.102455 0.076267 0.109871 -0.120398 -0.036738 0.212395 0.462464 -0.110447 -0.156332 0.086234 -0.332086 0.143599 -0.149896 0.097082 0.14505 0.007713 0.042114 -0.077048 0.106571 0.192261 -0.200087 0.088604 -0.226586 0.350003 -0.043501 0.138791 0.205045 -0.087026 0.176955 -0.126141 -0.245457 -0.043471 -0.032409 -0.316685 0.17311 0.195687 -0.215612 -0.082633 -0.320576 -0.05652 -0.055863 -0.242561 -0.157233 -0.107665 0.081339 0.084101 -0.199746 0.069729 0.133624 0.135509 -0.265744 0.194632 -0.019285 -0.239133 -0.059991 -0.135546 0.220806 -0.401457 0.260886 -0.214053 -0.056289 0.113316 -0.08573 -0.317788 0.015237 -0.039941 0.0868 -0.088357 0.212387 -0.096695 -0.204619 0.235663 0.066504 0.064694 0.103594 -0.025476 0.048848 -0.082602 0.298079 -0.174422 -0.079811 -0.135454 -0.294952 -0.11594 0.01787 0.219205 -0.045943 -0.311069 -0.30347 0.09184 -0.050158 -0.027305 0.336315 0.077456 0.048931 -0.233566 0.479347 0.12543 0.220179 -0.043856 -0.007788 -0.023528 0.081128 -0.082126 0.015815 0.176947 -0.111609 -0.014878 -0.119547 -0.107748 -0.078903 0.07385 -0.159728 0.013868 -0.144073 -0.162698 0.328461 0.106317 0.092129 0.058383 -0.144729 -0.067598 -0.205705 -0.081544 0.108325 -0.095989 -0.095642 4.81E-4 0.112303 -0.08942 -0.174636 0.076568 -0.228928 -0.151351 -0.051891 -0.097966 -3.62E-4 -0.058294 -0.1177 0.04553 -0.454962 -0.292864 0.207984 -0.080941 0.042253 0.059855 -0.009463 0.098285 -0.077008 0.03216 0.194643 -0.046624 -0.130185 0.189378 0.143436 0.068967 -0.098961 -0.104246 -0.4581 -0.225164 -0.149481 0.251035 -0.095105 0.131755 0.318007 -0.051781 -0.128423 0.093198 -0.135877 -0.027276 0.11102 0.042403 0.064574 -0.107771 0.01927 -0.048141 -0.036134 0.090499 0.252248 0.113935 -0.101547 -0.125364 -0.126514 -0.175856
peace -0.224175 0.246736 -0.13248 0.047765 -0.106397 -0.06396 0.134579 0.00526 0.108674 -0.139654 -0.23574 0.244135 0.01235 0.046147 -0.031622 0.061724 -0.065989 -0.140926 0.10073 -0.210621 -0.193777 0.01383 0.008985 0.048339 -0.189103 -0.028487 -0.214558 -0.369012 -0.069701 -0.159965 -0.218738 -0.425727 -0.213639 0.032722 -0.381927 0.331174 0.014116 -0.066945 -0.036968 -0.053631 -0.050784 0.387305 0.146547 -0.197264 -0.161788 -0.142497 -0.080472 -0.467416 -0.042898 0.166211 0.047782 0.211177 -0.116647 0.2763 -0.124239 0.153078 -0.365598 -0.420571 0.278691 0.024834 -0.267986 -0.219053 -0.394531 0.153697 -0.04811 -0.34418 -0.160142 0.113173 0.326578 0.504486 -0.185632 -0.168029 0.269608 0.003126 0.14869 -0.313301 -0.078418 -0.022413 0.070101 0.549439 -0.369081 0.057201 -0.04691 -0.399054 0.106735 -0.291815 -0.001131 -0.262684 -0.084295 -0.106315 -0.053274 0.141004 0.009005 -0.180034 0.280024 -0.326903 0.062449 0.300009 -0.182216 -0.041792 -0.109499 0.295489 0.146041 -0.009204 -0.033855 0.270409 -0.067808 -0.051854 -0.124563 0.037496 0.157968 0.285772 0.048425 -0.037563 -0.1242 -0.089205 0.028889 0.219726 -0.062687 0.226596 0.305422 -0.048113 -0.092474 -0.036237 0.43183 -0.067081 0.044131 0.173275 0.180541 0.275096 0.304603 0.213663 0.254308 -0.018635 0.010084 0.218216 -0.365995 0.010555 -0.504492 0.064705 0.179857 0.228988 0.189708 -0.329396 0.402927 0.413084 -0.29504 -0.28606 -0.0474 -0.256273 0.143846 0.108189 -0.059302 -0.233345 0.101294 0.136139 -0.351989 -0.477992 -0.10621 0.348578 0.107384 -0.057156 -0.254969 -0.515037 0.184332 0.133718 -0.091289 0.360659 -0.105556 -0.012411 -0.080201 0.215465 -0.395851 -0.468881 0.067536 -0.182149 -0.338076 0.010178 0.349105 -0.424677 0.188047 -0.259301 0.194759 0.06965 -0.170441 -0.151066 0.270861 -0.036281 -0.171108 -0.12558 0.413771 -0.120063 -0.243743 -0.251546 -0.125225 -0.131988 0.164961 -0.056105 0.36517 0.166207 0.082925 0.044074 0.037441 0.191771 0.014788 0.27472 0.034015 0.051214 -0.308095 0.232715 0.202362 0.019251 0.3229 -0.153551 0.332909 -0.219906 -0.06312 -0.001318 0.057284 -0.413305 0.188953 -0.259091 0.088872 0.120171 -0.045527 -0.144195 0.053424 0.057073 -0.049543 0.283325 -0.160087 0.505487 -0.091475 -0.004019 -0.012476 0.411421 -0.345147 -0.34161 0.002722 0.00436 -0.33676 -0.178734 0.057702 0.327809 -0.003718 -0.246798 -0.029339 0.246939 -0.178115 0.019362 0.364155 -0.279359 -0.057324 -0.083155 -0.261327 -0.17409 0.2807 0.027332 0.164217 -0.131987 -0.297799 -0.392921 -0.218852 0.434241 0.343362 -0.06039 0.039093 -0.0346 0.310913 -0.465578 -0.285573 -0.295456 -0.315937 -0.004748 0.070894 0.348957 -0.628839 0.332766 -0.069566 0.071317 0.105062 0.455408 -0.164482 0.37359 -0.054779 0.04391 -0.088792 0.368355 -0.327575 0.121431 0.07491 0.029113 -0.271465 0.281998 0.2204 -0.062432 -0.278075 0.081608 -0.34738 0.067798
science 0.146697 0.282127 -0.175281 -0.074143 -0.166727 0.046141 0.147712 -0.165342 0.005329 0.017051 -0.020193 0.057689 0.0457 -0.151575 0.064873 -0.069617 0.148569 -0.049084 -0.111177 -0.004969 -0.110449 0.266322 0.183052 0.167971 -0.095403 -0.002748 0.09968 -0.193003 0.090715 -0.051121 -0.159767 0.359378 -0.387936 -0.025255 0.100265 0.132395 0.043369 0.372832 0.240184 -0.227723 0.126689 -0.067248 0.031572 -0.155334 -0.205295 -0.163972 0.115948 -0.106475 0.208558 -0.296784 -0.19581 0.447451 0.118304 0.018951 -0.219627 0.318112 0.035509 -0.102461 0.153191 0.193948 -0.298548 -0.165361 0.221225 0.174653 -0.181575 -0.409561 -0.044645 0.231177 -0.056134 -0.179921 0.044914 0.090129 0.068589 0.149642 -0.067907 -0.242526 0.117256 0.191302 -0.020706 0.121529 -0.163391 0.105457 0.140876 -0.050662 -0.205112 -0.135901 0.234359 -0.273162 0.597816 -0.158377 0.026346 -0.141288 -0.061257 0.288829 0.232581 0.118419 0.145632 -0.217368 -0.003064 -0.304454 0.225642 0.331363 -0.039968 -0.096951 0.017307 -0.103633 -0.256336 -0.011308 0.162614 -0.049617 -0.235221 -0.163461 0.222093 0.041407 -0.120172 0.146646 0.010797 -0.138943 -0.021113 0.055512 -0.206081 0.243583 0.166562 -0.05171 -0.002401 -0.181607 -0.088824 -0.192083 -0.109281 -0.152851 0.00474 -0.328564 0.0165 0.090194 0.083841 -0.080993 -0.078654 0.023289 -0.27709 -0.078048 0.084324 0.025008 0.158382 -0.120736 0.224477 0.064293 -0.258707 0.229532 0.031592 -0.044497 0.220929 0.191149 0.13028 -0.2486 0.290807 0.230336 -0.093074 0.010743 -0.061103 -0.087889 0.139977 0.060353 9.67E-4 -0.162698 0.010238 0.120588 0.081987 0.15361 -0.094014 0.20918 -0.223125 -0.345146 -0.249624 -0.40395 0.173279 -0.1381 0.128074 0.219911 -2.5E-4 -0.539735 -0.031923 -0.079443 0.041402 -0.011976 -0.012646 0.151686 0.239535 4.16E-4 -0.277472 0.085604 -0.135817 -0.133733 -0.011589 0.143054 -0.179462 -0.134883 0.419003 0.0461 0.154155 0.127927 -0.070244 -0.104267 0.104385 0.068123 0.060171 0.037514 -0.230424 0.031242 0.132667 -0.011661 0.086574 -0.230244 0.260623 -0.310044 -0.039295 0.144792 -0.042613 -0.074495 0.18555 -0.064722 0.240464 0.205788 0.011393 0.176966 -0.095658 -0.132698 0.193594 0.090948 0.097526 -0.06208 0.342738 -0.262318 0.118042 0.046119 -0.008419 -0.184721 0.045845 0.030965 0.071305 0.152933 0.077562 -0.13033 0.273812 0.280099 -0.061208 0.018768 -0.057953 -0.072792 0.052883 0.033749 -0.140864 0.023126 -0.30197 -0.158858 -0.003565 0.098373 -0.470889 -0.071376 0.121183 -0.103984 -0.003451 -0.435304 0.044729 0.071811 -0.045984 -0.141138 -0.051229 -0.331922 -0.067568 -0.084653 0.157113 -0.426037 -0.143006 0.135795 -0.295941 -0.241742 -0.323742 0.161839 -0.056032 -0.009207 -0.102181 0.230376 0.028309 0.284612 0.208294 -0.120502 -0.008715 -0.048753 0.015319 0.045539 0.066941 0.023925 -0.078641 0.236097 -0.189681 -0.040924 -0.385216 0.055917 -0.435059 0.235838
dawn 0.044853 0.086011 -0.128661 0.014096 0.160338 -0.064796 0.098221 -0.325202 0.223739 -0.010781 -0.069642 -0.24036 -0.033716 -0.250147 0.246689 -0.065655 -0.078092 -0.202938 -0.396621 -0.336467 -0.101359 -0.093869 0.230247 0.391114 0.021744 -0.049413 -0.020835 -0.302557 -0.044359 -0.037515 -0.190772 -0.017172 0.229102 0.368072 0.112845 0.346286 0.020276 -0.064209 -0.304374 0.155563 -0.118846 0.004748 -0.041945 -0.075022 -0.035917 -0.079148 -0.090605 -0.356947 -0.075204 -0.187612 -0.222889 0.182898 0.231719 0.077757 -0.044579 -0.103019 0.011273 -0.140001 -0.278922 0.106578 0.014913 -0.051472 0.054443 0.042714 -0.104327 -0.19124 0.136315 -0.114646 0.021625 -0.09597 -0.20248 0.305261 0.211224 0.155676 -0.078312 -0.138209 0.206356 0.041228 -0.31072 0.20157 0.017309 -0.087429 0.076632 -0.288187 -0.134134 -0.146505 -0.059315 -0.297537 0.322275 0.058342 -0.02685 -0.19681 -0.351658 0.048791 0.090486 0.132712 -0.342487 -0.044998 -0.09082 -0.063176 -0.270004 0.091575 0.207838 0.0103 0.123472 -0.346345 0.004415 0.23095 0.116593 0.117602 0.112267 0.117462 0.043187 -0.058134 -0.179521 -0.028613 0.382285 -0.340125 0.007225 -0.222674 0.065781 -0.298274 0.112011 0.158699 0.082642 -0.378226 0.385117 0.151595 -0.112336 -0.317361 0.118874 -0.082962 -0.392386 0.072473 -0.305269 -0.299955 -0.323912 -0.185232 -0.428764 0.181654 0.023851 -0.18085 -0.206319 -0.267014 0.438837 0.244296 -0.274372 -0.018489 -0.061241 -0.063527 0.297916 0.238793 0.171264 -0.043754 -0.410382 0.318641 0.232506 -0.005637 0.184448 0.272476 -0.232655 0.094096 -0.122801 -0.195352 0.227572 -0.060189 0.101267 0.087362 -0.006032 -0.108554 -0.031638 0.32854 -0.020553 -0.316064 -0.137701 -0.179794 -0.386811 0.158878 0.129428 -0.27725 0.326913 -0.273545 -0.079503 -0.008754 0.013616 0.164452 -0.177716 0.099609 0.049742 -0.045276 -0.126237 -5.57E-4 -0.10187 -0.048659 0.21944 0.044036 0.122483 0.006414 -0.212238 -0.032742 0.045346 0.124247 -0.14261 0.122959 -0.046859 0.519756 0.171148 -0.184075 -0.073886 -0.087934 0.078346 0.182919 -0.025774 -0.145638 0.069625 -0.130576 0.097719 0.14044 -0.102062 -0.07428 0.25083 0.112263 0.185098 0.366687 -0.587524 0.033863 -0.047053 -0.007862 0.143801 0.202425 0.023912 -0.031904 0.119295 0.21104 -0.397634 0.192723 -0.001591 -0.120454 -0.114642 -0.250334 0.185478 -0.140504 -0.092128 0.191184 0.14742 -0.009044 0.002684 -0.084278 -0.033933 0.015389 0.07949 -0.023268 0.127271 -0.054071 -0.117329 -0.228955 -0.201304 -0.211829 0.160442 -0.029537 0.001631 -0.172119 -0.182781 0.107205 -0.028266 -0.09977 -0.226928 -0.311066 0.046907 0.122623 0.049762 -0.131321 0.464136 0.022514 0.163252 0.071467 0.181146 0.135825 0.12344 0.088551 0.006411 -0.053672 0.034437 0.092859 0.027145 -0.128848 -0.02067 0.115854 0.03649 -0.047211 0.042885 0.018975 -0.073436 0.256347 0.077255 -0.090819 -0.2416 -0.277112 -0.072706 -0.218237
brother 0.095284 -0.09134 -0.012616 -0.230715 -0.243304 -0.063256 0.17741 0.045592 -0.135742 -0.080641 -0.074193 -0.190849 -0.073175 0.217931 -0.114678 0.042818 -0.060873 0.026521 0.226815 -0.107009 -0.081861 -0.097187 -0.03296 0.188658 -0.178049 0.024052 0.027765 0.252199 -0.134727 0.085862 -0.069529 0.16437 -0.106744 0.008572 -0.102592 -0.008204 0.11829 -0.039611 -0.044777 -0.076977 -0.007456 0.128852 -0.174895 -0.129664 0.366695 -0.181838 -0.017833 0.046898 0.061116 -0.065862 0.156989 0.314905 -0.014175 0.044327 0.020764 0.154893 0.291725 -0.11523 -0.073179 -0.142805 0.316728 0.094489 0.152957 -0.263386 -0.137395 -0.039769 -0.358926 -0.089796 0.133544 0.208565 -0.208893 0.140148 0.047455 0.129338 0.097688 -0.103762 -0.064615 0.118311 -0.202212 0.129656 -0.276526 0.3253 0.190379 0.001905 -0.003403 0.061864 0.10878 -0.078018 0.046436 0.012415 0.064653 -0.324964 0.113723 -0.258769 -0.291162 0.043048 -0.173316 -0.107784 -0.161186 0.085017 -0.1305 0.303097 0.218934 0.163822 0.511725 -0.198798 0.052284 -0.078802 -0.210883 0.056638 -0.156059 -0.150153 0.04457 -0.087693 0.009949 -0.356013 -0.146318 -0.125838 -0.030727 -0.080424 -0.075802 -0.191513 0.245634 0.172282 -0.052478 -0.018888 0.079714 0.170642 -0.029176 -0.01638 -0.032298 0.124908 -0.071894 0.029707 0.229759 0.229262 -0.519426 0.170669 -0.193815 0.004962 -0.112698 -0.17135 0.033494 0.020869 0.316701 0.293805 -0.362951 0.020408 -0.247615 -0.477146 0.221424 0.183055 0.026961 0.143949 -0.188069 -0.009517 0.10426 -0.50318 -0.198828 0.287535 -0.092646 0.329547 -0.188304 -0.056309 0.005554 -0.051692 -0.443978 0.079963 0.199919 -0.033883 0.028987 0.158846 0.013912 0.070373 -0.279327 -0.126758 0.046525 0.087151 0.202179 0.0117 -0.209563 -0.167302 -0.082795 -0.249595 -0.4312 -0.343824 -0.230156 -0.048606 -0.012834 0.271682 0.086978 0.351323 -0.452873 0.234345 0.109995 0.167057 0.463066 0.171761 -0.029061 0.19727 -0.036939 0.133664 -0.211945 -0.211981 0.001671 -0.08702 0.016041 0.021224 0.240207 -0.096708 -0.06247 -0.070595 -0.162795 0.009205 0.030485 0.279171 0.193772 0.144061 -0.209877 -0.260461 0.282037 0.032394 0.130916 -0.24435 0.060126 0.091967 -0.23415 -0.129312 0.114317 -0.077628 -0.077541 0.52159 -0.103978 -0.184991 -0.217277 -0.179776 -0.233913 -0.403479 -0.067672 0.316454 0.297515 0.081964 -0.080995 0.432644 0.044484 0.037642 0.155664 0.171423 -0.046075 0.00647 -0.403245 0.179152 0.426956 0.047158 0.3879 -0.06359 -0.291717 0.076527 -0.197022 0.022344 -3.56E-4 -0.222018 -0.186235 -0.14258 0.054131 -0.076532 0.015886 -0.162035 0.21852 -0.142399 0.0756 -0.24462 0.34565 0.218412 -0.168259 0.040415 -0.463286 0.280264 0.019678 0.024655 -0.03557 0.199123 0.111274 -0.066349 -0.074852 0.075058 0.284906 0.07973 0.116625 -0.201508 -0.11554 -0.109371 -0.279978 -0.034129 1.25E-4 0.062034 -0.352334 0.113145 -0.249783 -0.130493
wine 0.040001 0.329908 0.063811 0.007085 -0.09871 0.004085 4.11E-4 -0.263272 0.129498 -0.090034 -0.087122 -0.160864 -0.09727 -0.279737 0.28956 -0.075543 -0.239602 0.088191 -0.029776 0.205491 -0.359988 0.002503 0.121596 -0.102679 0.015049 0.113247 -0.153503 -0.216201 -0.209848 0.136716 -0.443358 0.180738 0.213543 0.026034 0.273898 0.350529 -0.078466 -0.078153 -0.055795 -0.13719 0.164719 0.027015 0.066202 0.205688 -0.14865 0.130271 -0.021961 0.613371 -0.165375 -0.188597 0.154842 -0.009919 0.150949 0.214077 -0.010206 -0.075716 0.074006 0.134368 -0.077113 0.256511 0.049154 -0.021076 0.049868 -0.151276 -0.552865 -0.586794 0.058902 -0.031005 0.321745 -0.077144 -0.073918 -0.371167 -0.083353 0.056167 -0.368384 -0.088591 -0.11038 -3.19E-4 -0.010338 -0.171102 0.114795 -0.043072 0.267777 0.22062 -0.141008 -0.13408 0.138621 0.008813 0.056279 -0.044504 -0.450861 0.007346 -0.086683 -0.01865 0.286977 -0.163741 0.247979 0.138655 0.151367 -0.164538 -0.302715 0.012902 0.092466 -0.225125 0.117676 0.080434 0.007801 -0.168163 -0.043243 0.022985 -0.099771 -0.00457 0.466627 -0.307095 -0.263999 0.146227 -0.406268 0.095574 -0.064346 0.104774 -0.035975 -0.187139 0.009733 0.039908 -0.004018 -0.265778 -0.233382 0.273148 0.283166 0.098008 0.043923 0.100532 0.222322 -0.144641 -0.079333 0.335431 -0.266787 -0.033737 -0.18742 0.049413 -0.207564 0.082025 -0.33384 -0.183127 0.059811 0.31407 -0.285272 0.451073 0.24315 0.041619 0.135975 0.084412 -0.154571 -0.394567 -0.383665 0.074952 0.231008 0.045179 0.095704 -0.142616 -0.143493 0.493546 -0.265588 -0.510399 0.222829 0.086429 -0.153143 0.272114 -0.172322 -0.194711 -0.08925 -0.082489 -0.133964 -0.359978 0.352794 -0.321903 -0.099319 0.099582 0.2516 0.016671 0.187351 -0.231911 0.039975 -0.2713 -0.015852 -0.178233 0.032693 0.163019 -0.266939 -0.09364 -0.131919 -0.041157 0.11692 -0.258215 0.068928 0.297618 0.313648 0.040957 -0.08803 -0.190593 0.327016 0.271666 -0.046528 -0.033834 -0.30879 0.174764 0.180558 -0.179556 -0.105065 -0.035514 0.128018 -0.119811 0.326826 0.012325 0.064596 0.010042 -0.007732 0.163337 -0.282118 0.283347 0.263802 0.050085 0.298601 -0.220674 0.048 0.02914 -0.098168 0.066667 -0.017149 0.145946 0.087974 -0.136782 0.186223 0.120125 0.099235 0.079566 -0.084212 -0.151211 -0.218953 0.165493 0.053692 -0.053234 -0.350226 -0.061788 0.145544 -0.142539 -0.180123 0.405572 0.267979 -0.117905 -0.031262 0.114078 -0.397843 -0.100506 0.132722 0.090446 0.032328 -0.070062 0.020964 0.002609 0.18283 -0.044581 -0.156097 0.331502 0.13904 -0.078413 0.212727 -0.108467 0.025058 -0.172723 -0.101252 0.002012 -0.064067 -0.046689 -0.254417 -0.062359 -0.212356 0.303661 -0.071178 0.296218 0.21079 0.047956 -0.052973 -0.210161 0.063898 -0.031547 -0.042171 0.259045 0.162552 -0.026537 -0.075547 -0.154015 -0.195523 0.291991 0.096157 0.073583 -0.219615 -0.167531 0.089224 0.108498
object 0.178013 0.060727 -0.035321 0.011099 0.059592 0.232857 0.129588 0.14933 -0.088666 0.204722 0.021282 0.079818 0.094485 0.020576 0.012159 -0.126557 -0.040157 0.050086 -0.050232 0.012024 -0.130879 -0.073195 0.180205 -0.006508 0.177732 -0.002364 0.212102 0.118703 -0.004347 -0.225332 0.061926 0.285826 -0.190508 0.094542 0.048606 0.018834 -0.053181 0.02037 0.200204 -0.106973 0.241299 -0.216721 -0.156481 -0.021701 -0.042621 -0.238078 -0.12145 0.143069 -0.013009 -0.323966 0.008934 0.216827 0.120664 0.105193 0.345541 0.10553 -0.082091 -0.170062 -0.097636 0.155112 -0.289662 0.013592 -0.208819 0.261992 0.062301 -0.014089 -0.110929 0.179259 0.270503 0.044131 0.204904 -0.035326 -0.07791 0.019179 0.116773 -0.191977 -0.005067 0.053495 -0.027999 -0.171465 -0.091726 -0.192772 -0.022615 -0.185155 -0.297629 0.247294 -0.193464 -0.283289 0.022702 -0.003492 -0.025574 -6.19E-4 -0.104421 -0.1132 0.147552 0.016786 0.091082 -0.21551 0.05373 -0.100843 -0.202689 0.141269 -0.046205 -0.07617 0.115552 0.080459 0.061475 -0.189607 -0.011826 0.080105 0.131498 0.271471 0.037966 0.049006 -0.259567 -0.042479 0.116616 0.156807 0.138722 -0.104823 0.133674 0.016496 0.042759 -0.068991 0.064529 -0.051765 -0.270951 0.258827 0.155299 -0.072694 0.131945 -0.057033 -0.202617 0.007103 0.184409 0.136112 -0.262631 -0.018918 -0.179603 0.115649 0.158783 -0.151539 -0.120836 -0.096136 0.110088 0.139602 -0.01953 0.205961 -0.031563 -0.212593 0.113805 0.293998 -0.027433 -0.039698 -0.088719 -0.046167 -0.252841 -0.077879 -0.052043 -0.211382 0.022593 0.19763 -0.214966 -0.08794 0.271261 -0.072122 -0.212818 0.23438 -0.154386 -0.232795 0.174603 0.010715 0.032893 -0.350635 0.237974 -0.233875 -0.276211 -0.110345 0.074698 -0.050209 0.038278 -0.017563 0.172294 0.028307 0.20392 0.122969 -0.072022 0.098563 0.1118 0.095765 -0.015561 0.013057 -0.054408 -0.016819 0.086841 -0.111005 0.110547 0.05879 -0.08575 -0.148551 0.216512 -0.096394 -0.065519 0.053651 -0.122952 0.413334 0.229608 -0.292302 0.06926 -0.087353 -0.041233 -0.068489 0.226458 -0.15974 -0.071325 0.239317 -0.144259 0.018772 -0.036673 -0.107437 0.17404 0.076919 -0.018665 0.067808 -0.06498 -0.110523 -0.07279 0.056396 -0.006682 0.063195 0.022131 0.103774 -0.03109 -0.060091 -0.171667 -0.104549 0.072365 0.008339 -0.023646 0.066207 0.145053 0.233212 -0.004249 -0.035766 0.13826 -0.092413 0.182601 -0.234527 -0.201973 -0.193036 -0.078255 -0.222591 -0.10453 -0.168151 -6.39E-4 -0.012193 -0.279368 -0.259549 0.368533 0.004722 0.061425 -0.270126 -0.284832 0.254338 0.001305 -0.024695 0.144627 -0.238946 -0.084471 0.142622 0.034669 0.073657 -0.111765 0.363065 -0.161951 -0.083794 -0.396196 0.203375 0.078862 0.039369 -0.128144 -0.085196 0.217362 0.320611 0.034065 -0.343024 7.38E-4 -0.157159 0.034483 -0.181501 0.140176 -0.089886 -0.08461 0.213509 -0.195316 -0.067078 -0.256538 -0.167566 -0.303769 0.036459
attitude -0.086558 0.069204 -0.096059 -0.067036 -0.301444 0.098703 -0.339386 -0.259028 0.067973 0.193054 -0.15748 0.043569 -0.098449 -0.016763 -0.023567 -0.229474 0.106189 0.042929 -0.280546 -0.344893 -0.122712 0.10042 0.103033 -0.004139 -0.206795 0.099309 0.02577 -0.017637 0.203924 -0.096205 0.023507 0.195004 -0.013461 0.171139 0.132814 0.070624 0.039082 0.360372 0.264759 -0.142942 -0.078902 -0.060945 -0.24852 0.134518 0.199635 -0.131176 -0.180958 0.019374 -0.199761 -0.112053 -0.019784 0.140026 -0.125813 0.167385 0.234276 0.165652 0.104193 -0.271242 0.093731 -0.094844 0.099398 0.062113 0.075371 -0.218374 -0.006844 -0.243285 -0.024618 0.171519 0.227305 -0.354285 -0.13207 -0.093713 -0.142444 -0.049837 0.294582 -0.123545 -0.029734 -0.065674 0.043484 0.057626 -0.135653 0.065211 0.076021 -0.116536 0.03358 0.138551 -0.129533 -0.128371 0.284574 -0.171088 -0.074687 -0.084953 -0.191825 -0.150119 0.001796 -0.281958 0.070574 0.133164 0.158801 -0.158834 -0.056375 0.120109 -0.178817 -0.039985 0.04151 -0.085059 0.049359 0.011684 -0.112059 0.117282 0.004087 -0.327175 -0.174595 -0.397833 -0.2034 0.186114 -0.090425 -0.12531 -0.080765 -0.289166 0.091444 0.151971 -0.018903 0.13175 0.144746 -0.17825 -0.162316 -0.029178 -0.122305 0.153221 0.08258 -0.363929 0.057055 0.277112 -0.041383 0.129957 -0.055369 0.03336 -0.260113 0.264849 -0.237662 -0.019055 -0.145698 0.028708 0.13594 0.119281 -0.240942 -0.340291 -0.156729 -0.240352 -0.001221 0.26763 0.059029 0.055706 0.015704 -0.135157 -0.057239 -0.249526 -0.107084 -0.064462 0.103734 -0.024638 -0.282161 0.025162 -0.120055 -0.017052 -0.267923 0.034966 -0.03642 -0.07006 -0.326881 -0.05533 -0.087289 -0.156904 0.317231 -0.099179 -0.026746 0.113718 -0.057876 0.056971 -0.023454 -0.286599 -0.038358 -0.141431 0.26036 -0.285309 -0.027696 -0.027532 0.023563 0.03411 0.343032 0.072347 -0.119822 0.274752 -0.155018 0.343975 0.171125 0.158341 0.122354 0.08807 0.032926 0.158682 -0.272037 -0.152079 -0.148104 0.207839 0.181177 0.100645 0.090458 -0.104552 -0.076154 -0.291349 0.107488 -0.393734 -0.14158 0.27517 -0.083493 -0.130269 0.128328 -0.022213 0.250327 0.070052 0.068256 -0.19646 -0.095354 0.06587 0.109418 0.205195 -0.173375 0.026747 0.050075 0.100304 -0.071562 -0.068282 -0.105227 -0.10218 -0.035768 0.001492 -0.141618 0.011554 0.137674 0.15129 -0.082507 0.154429 0.007758 -0.212788 -0.141675 0.023885 -0.089443 -0.120899 0.047221 -0.386035 0.005631 0.125254 0.356689 -0.080469 -0.052695 -0.119557 0.258197 0.025786 0.227432 -0.136042 0.102501 0.280252 -0.237349 0.099389 0.295557 -0.383296 -0.172866 0.094259 -0.072039 -0.017867 -0.01012 0.343228 0.033411 -0.091446 -0.402253 0.520307 0.110646 0.076228 0.086494 0.230079 -0.111022 0.592307 0.039254 0.158144 0.184897 0.109157 -0.149885 0.045639 0.165803 0.013921 -0.509546 0.409824 0.002234 -4.95E-4 -0.459731 0.043274 -0.279169 -0.167787
treatment -0.296049 0.156939 0.061801 0.005218 -0.056867 -0.274225 0.109152 -0.278945 0.154677 -0.111396 0.082218 -0.06088 0.080809 -0.225881 -0.057219 -0.05254 -0.040354 -0.060719 -0.351956 -0.025722 0.129426 -0.155967 0.107712 0.138268 0.00228 -0.256739 -0.092404 0.194635 -0.105797 0.099694 -0.064346 -0.073474 0.245803 -0.153701 0.012895 0.236794 -0.173051 0.370601 0.281837 0.210612 0.225805 -0.356466 -0.018596 0.012038 -0.07169 -0.107722 0.069671 -0.382464 0.11314 0.120487 0.172241 0.195634 -0.062622 -0.003451 0.276161 0.158843 -0.096442 -0.207846 -0.23029 0.012838 -0.064932 -0.259894 0.001687 -0.143291 0.223587 -0.034635 0.03701 -0.172681 0.186329 -0.12087 -0.270408 0.296995 -0.116876 -0.108126 -0.005167 -0.018352 -0.121544 0.179226 0.112158 0.067799 -0.039199 0.081503 0.059989 0.026821 -0.228718 -0.198578 0.02937 0.067276 0.084146 0.209394 -0.181489 -0.192105 -0.408767 0.112285 -0.020188 -0.202241 0.405203 0.074712 0.075363 -0.247456 0.16834 0.419662 -0.048636 0.07507 0.31978 0.02351 0.135304 -0.238022 0.083335 0.227905 -0.451071 -0.024287 0.066717 -0.04566 -0.206254 -0.066306 -0.024043 0.048777 -0.021194 0.042953 0.29316 -0.207789 0.046247 -0.032536 -0.078442 -0.199478 -0.04479 -0.072351 -0.17528 0.188684 -0.094473 -0.095497 0.049448 0.154368 -0.055384 -0.115104 -0.171671 -0.058263 -0.535213 0.018762 -0.330291 -0.154627 0.010041 -0.073854 -0.001552 0.51467 -0.080623 0.247592 -0.051013 -0.177648 0.050318 0.257631 0.371298 -0.16503 0.329956 -0.082807 -0.040754 -0.069846 -0.134977 0.039744 -0.109021 0.223914 0.160135 0.09803 -0.038191 0.250589 -0.123481 0.096734 0.188281 -0.083102 0.115708 -0.123962 0.083426 -0.563753 0.001409 -0.045124 -0.158231 -0.089868 0.006479 -0.291004 -0.019457 -0.264285 -0.291278 0.224465 -0.128597 -0.264638 -0.053424 -0.228442 -0.350644 -0.112544 0.306181 -0.156628 -0.134781 0.288439 -0.168006 0.127434 0.3529 -0.166116 -0.204854 -0.11908 0.052323 0.009122 -0.160281 -0.023343 -0.025919 0.329324 0.18193 0.010435 0.06706 -0.166625 -0.06872 0.215325 0.236299 -0.230721 0.062068 0.022078 -0.113385 0.027392 -0.0362 -0.058791 -0.121585 -0.145256 0.003076 0.046285 0.02635 0.047663 0.05965 0.132044 -0.020157 -0.095471 0.161318 0.36337 0.236096 -0.057451 -0.216349 0.02393 -0.073586 -0.069254 -0.097301 -0.136928 4.57E-4 -4.81E-4 0.198303 0.097938 -0.074696 0.161144 0.046594 -0.035381 0.002033 0.153903 -0.049722 -0.012874 -0.064482 -0.060849 0.478548 0.142768 -0.391851 -0.273193 -0.040413 0.071123 0.133243 -0.034232 0.011319 0.12329 -0.149271 -0.069076 0.290906 -0.31514 -0.077393 0.064607 -0.067888 0.005055 -0.125974 0.167064 -0.14887 -0.122419 -0.229359 0.054182 -0.166502 0.060856 0.203531 -0.134229 -0.30361 0.043229 -0.133277 -0.152148 0.094504 0.350268 -0.013011 -0.173748 0.307254 0.01797 -0.041456 0.185065 -0.082814 -0.010699 -0.157606 0.027752 0.09235 0.008688
flight -0.063877 -0.273204 0.325145 -0.014394 0.098319 0.040033 0.192874 -0.015333 -0.115548 0.28347 0.125486 0.137234 0.078857 -0.130818 -0.021243 -0.12533 0.130421 -0.332658 -0.305595 0.206646 0.180413 0.087401 0.030428 0.029322 -0.039061 -0.160758 -0.026043 0.088847 0.116658 0.014085 0.117159 -0.032341 0.009924 0.281575 0.024808 0.215749 -0.191978 0.151208 -0.077483 0.080168 -0.025263 -0.180841 0.019127 -0.400802 -0.080602 0.094643 -0.068652 -0.443385 0.281694 0.145178 0.040266 0.207906 0.18415 -0.125316 0.241413 0.127358 -0.191967 -0.132655 0.204851 -7.52E-4 -0.081638 -0.046139 -0.163896 -0.070282 -0.083955 -0.430567 -0.115344 -0.180569 0.076768 0.148308 -0.217649 -0.15627 -0.116192 0.031575 -0.017102 -0.003056 0.007483 -0.164858 -0.085704 0.117056 -0.11929 -0.06408 0.061796 -0.038524 -0.048266 -0.373273 0.017495 -0.217643 -0.022224 -0.198259 -0.207537 0.001533 -0.195613 -0.322239 0.03143 0.231062 -0.07759 0.160913 -0.049428 0.131854 0.00904 0.16423 0.108998 0.041149 -0.0975 -0.181898 0.00546 -0.002953 0.342717 0.095509 0.12224 0.098412 0.305774 0.081782 0.327049 0.181514 -0.269512 -0.180108 0.082716 0.003645 -0.06809 -0.251367 0.008366 0.032847 -0.12037 -0.120498 -0.298004 0.003893 -0.314213 -0.243935 -0.374766 0.191484 -0.274407 0.149623 0.067113 0.006819 -0.376638 -0.060858 -0.053238 0.348374 0.052332 -0.061985 0.348259 0.15445 -0.108206 0.285679 -0.120295 0.202389 0.108753 -0.032531 0.11466 0.354986 0.379903 -0.005514 -0.393013 -0.256032 0.104893 0.045478 0.343444 0.145497 0.218943 -0.01121 -0.037785 -0.075458 0.32883 -0.021648 -0.386974 -0.086308 0.111426 0.05208 -0.213032 -0.061891 0.108918 -0.369437 -0.10462 -0.280065 -0.442005 -0.040257 0.058494 0.10125 0.055087 -0.44326 0.237414 -0.157915 -0.177035 -0.049689 -0.207932 0.532087 0.056762 0.123588 0.102627 0.062588 -0.058308 -0.074857 -0.071266 0.312578 -0.147517 -0.051181 -0.149401 -0.254224 0.209683 0.364029 0.195288 0.16167 0.04843 0.040539 0.073984 -0.036982 -0.118264 -0.069609 -0.160912 -0.173245 0.165235 -0.228631 0.176748 0.182451 -0.175746 0.129732 0.038309 0.013811 0.37588 0.420967 -0.093758 0.190599 -0.53412 0.001569 -0.103286 -0.19087 0.06738 -0.214805 0.276373 0.121296 0.119403 0.329176 -0.210533 -0.152526 0.042561 0.046143 -0.16221 0.178503 -0.319353 0.028756 -0.146605 0.140718 0.302481 -0.111462 -0.008606 -0.135175 -0.023221 -0.147259 -0.018319 -0.120354 -0.291253 -0.093756 -0.227267 -0.180681 -0.381815 -0.35121 0.198074 0.115911 0.320516 -0.476351 0.136612 -0.032941 -0.384715 -0.109049 -0.10038 -0.43239 -0.064344 0.167834 -0.148627 -0.132812 -0.060007 0.164276 -0.003242 0.254473 -0.28247 -0.076983 -0.079959 -0.164218 -0.023915 -0.076771 0.212588 0.221387 -0.219542 -0.261643 0.168951 0.221579 0.360777 0.100937 0.169646 -0.389599 -0.192022 0.013993 -0.0429 0.224732 -0.384155 -0.297024 -0.507863 -0.050607
forest 0.109264 0.281311 0.001107 0.08894 0.022846 0.155771 0.131461 -0.053789 0.123498 0.096685 -0.095046 0.169105 0.304405 -0.093345 0.073781 -0.056471 -0.00582 -0.09253 0.173787 -0.335058 -0.301035 0.126941 0.165687 -0.229167 0.143805 -0.141113 -0.017666 -0.091542 0.265033 -0.08679 -0.309942 0.414633 -0.338762 0.021368 0.200665 0.15528 0.20815 0.219534 0.047458 0.114668 0.243097 -0.014734 -0.148192 -0.254476 -0.194032 -0.197879 -0.111076 -0.106783 -0.189248 -0.044775 -0.256896 0.239882 0.135292 -0.029675 0.552544 -0.034895 -0.161224 -0.27479 0.148475 0.371308 0.088764 0.049937 -0.037657 -0.262515 -0.247995 -0.235463 -0.468717 0.225341 -0.044797 0.173112 -0.18663 0.186589 -0.176248 -0.082222 -0.189308 -0.12191 -0.231507 0.176569 0.069116 -0.165951 0.053217 -0.405353 -0.109309 -0.165089 -0.200027 -0.012116 -0.072983 -0.064181 -0.073295 0.105556 -0.04326 -0.125889 -0.285207 0.354522 0.029226 0.039998 0.218144 -0.095087 0.119789 -0.008289 -0.257701 0.230475 0.019099 0.007593 -0.128669 -0.346545 0.092602 0.034799 -0.082338 0.319851 -0.072166 -0.142528 0.214146 0.285095 0.013857 -0.118789 0.106673 0.159045 0.26905 0.013193 0.078536 0.178582 -0.054326 -0.249405 -0.071606 -0.195822 -0.184484 0.151283 0.040723 -0.047307 0.478667 -0.027063 -0.101326 -0.161276 -0.442805 0.24563 -0.113068 -0.189096 -0.226984 -0.013226 -0.148036 -0.16053 0.13035 -0.013075 0.102755 0.009419 -0.218072 0.108348 -0.11243 -0.156099 0.32308 -0.126989 0.02506 -0.345964 -0.186524 0.196712 0.184201 0.010031 0.092194 0.322824 -0.160271 0.388442 0.306408 -0.173797 0.229941 -0.127765 -0.174889 0.569133 0.069134 -0.473497 -0.187395 -0.253751 -0.270885 -0.376698 -0.067061 0.118877 -0.205458 0.135913 0.319307 -0.327729 0.316769 0.012181 0.07594 -0.058546 0.057493 0.122253 0.072557 0.172942 -0.135462 0.121855 -0.010131 0.162481 -0.01088 0.076856 -0.353881 -0.118389 0.036428 0.108475 -0.175499 -0.119697 0.25314 0.102971 -0.219199 0.171269 -0.300304 0.550333 0.13383 -0.078008 0.052948 -0.12828 0.068653 -0.090365 0.141566 -0.241566 -0.134633 -0.490074 0.04823 0.18934 0.025411 0.14809 0.217986 0.174999 -0.325073 -0.062741 -0.076921 0.038797 0.149393 -0.425114 0.034328 0.076353 -0.297947 -0.03213 0.252863 0.002786 -0.098843 0.333441 -0.089025 -0.114877 0.10064 -0.186078 -0.033483 -0.435734 0.145344 0.031604 0.014078 -0.008082 -0.143096 0.269632 0.135261 -0.018298 -0.103482 -0.279997 -0.076915 0.145617 -0.165618 -0.136519 -0.427355 -0.043006 0.025057 -0.097026 0.0549 -0.280774 -0.33974 0.268841 -0.064406 -0.180617 -0.059594 -0.058411 -0.045311 0.098749 -0.088803 0.113908 -0.038255 -0.093782 0.197327 0.160031 -0.164167 -0.128116 -0.085141 -0.157807 0.15575 0.144362 0.426979 0.077603 -0.347043 0.182144 0.03693 0.23798 0.062374 -0.159796 0.166244 -0.097031 -0.105459 -0.01471 0.254299 -0.058389 -0.447715 0.008735 -0.319802 -0.040743
abuse -0.185721 -0.199717 -0.147764 -0.097005 0.072106 -0.268882 -0.204589 -0.126233 0.059223 0.166274 -0.105513 0.323209 -0.066325 -9.7E-5 0.016508 0.063259 0.339573 -0.102244 0.077301 0.149009 -0.189956 -0.009969 -0.047909 -0.131426 -0.01548 -0.353377 -0.075806 -0.158823 0.02268 0.078685 -0.26352 0.050762 0.290702 0.586014 0.151069 0.297994 -0.052046 0.289311 0.34887 0.025248 -0.167413 0.044887 0.098613 0.013085 -0.003535 -0.287449 -0.04818 -0.526521 -0.214018 -0.27032 0.151849 0.196168 -0.189252 -0.166257 0.187804 0.42165 -0.056752 0.05985 0.070128 -0.005449 0.147201 -0.107436 0.003133 0.032501 0.104684 -0.486665 -0.146758 0.1209 0.388517 -0.00398 0.057935 0.340871 -0.090703 0.02192 0.040274 -0.418312 -0.122075 0.07619 0.107707 -0.014831 -0.099064 0.112092 0.014702 0.025901 -0.070367 -0.036235 -0.537776 -0.090204 0.012378 -0.040017 0.10972 -0.204342 -0.409149 -0.209515 -0.155888 -0.189672 0.212291 0.025843 -0.041927 -0.168918 -0.193757 -0.054436 0.139111 -0.08752 0.447033 -0.055832 0.129011 -0.487311 0.152098 -0.112177 -0.069982 -0.129436 0.176035 -0.229334 -0.028282 -0.227018 -0.180991 0.129557 -0.100406 0.016864 0.039221 -0.005834 0.161637 -0.164655 -0.048868 -0.25974 0.058426 0.063424 0.172594 0.023966 -0.073553 0.08356 0.15999 -0.260538 0.022912 0.086723 -0.092558 -0.21747 -0.169746 -0.325417 -0.196707 -0.116547 -0.03193 -0.147898 0.183601 0.500534 -0.130964 0.136781 -0.01323 -0.088371 0.117889 0.395287 0.398094 0.077983 0.01333 -0.028716 -0.324369 0.054998 -0.322457 -0.109613 -0.221568 0.367988 -0.16347 -0.114791 0.232406 -0.119965 -0.221305 0.105449 -0.131162 0.045404 -0.091062 -0.063861 -0.349529 -0.605519 -0.286202 0.037517 -0.086067 0.121047 0.111925 -0.249226 -0.060833 0.096939 0.196715 0.125195 0.026747 -0.096331 -0.333048 0.095835 -0.14481 0.056984 0.263075 -0.105297 -0.159852 -0.117205 0.308994 0.149229 0.419718 -0.019328 0.156197 0.199709 0.231731 0.174809 -0.241164 0.21636 -0.247788 -0.116201 0.26444 -0.342541 0.152413 -0.144663 -0.00772 0.279168 0.293767 -0.083096 0.144769 0.144845 -0.00434 -0.468329 -0.267828 -0.038288 -0.160896 -0.266575 -0.273619 0.211378 -0.163805 -0.060592 -0.341345 0.157914 0.062456 -0.174062 -0.236384 0.111107 0.065069 -0.182617 -0.341951 -0.018374 -0.019073 -0.061608 -0.054583 0.016401 -0.1089 0.219392 0.022671 0.028393 -0.321468 -0.05095 0.236013 -0.240483 0.320899 0.167248 -0.167522 -0.107013 -0.108751 0.082713 0.488711 -0.05601 -0.281041 -0.244937 0.176593 0.242048 -0.194321 -0.112609 -0.374894 -0.087824 0.038769 0.168723 0.274081 -0.131542 -0.065263 0.014445 0.084692 0.020769 -0.113357 0.216182 -0.050519 -0.119454 -0.73625 0.365557 0.232809 0.308355 0.485752 0.056438 -0.321973 0.234069 -0.003801 -0.404944 0.031771 0.145088 -0.090352 0.200025 0.092081 0.060095 -0.156315 0.386603 -0.376822 -0.400808 -0.237046 0.077472 -0.016159 0.130658
criterion -0.192364 0.045737 -0.027716 -0.067229 0.181373 -0.199526 -0.083866 -0.227023 -0.050696 0.07868 -0.07185 0.260753 -0.194403 -0.217255 -0.006874 0.136951 -0.204879 -0.012676 -0.133434 -0.106007 0.082954 0.24553 0.115732 -5.1E-4 -0.129994 -0.097683 -0.138392 -0.121606 0.218679 0.173337 -0.181154 0.107211 0.03025 -0.092668 0.130922 0.178079 -0.412614 0.165079 -0.051229 -0.032739 0.151342 -0.309706 0.025579 0.203304 -0.205011 0.040887 0.109449 0.069652 0.160174 -0.075143 -0.003417 -2.82E-4 0.159535 0.206 0.175561 0.154222 -0.133337 -0.237146 0.148135 0.104527 -0.465093 -0.041836 0.002717 -0.18642 -0.116691 0.070238 -0.031096 0.043212 0.206007 -0.138592 0.236452 -0.105884 0.077405 -0.014671 0.059837 0.114873 -0.06177 0.230267 0.221409 0.053743 -0.320106 0.081057 0.185 0.162086 -0.169436 0.161569 0.044252 -0.18673 0.096113 0.334664 -0.263821 0.00218 0.036482 0.047832 0.064459 0.129048 0.003728 0.160962 -0.10499 -0.157935 -0.019774 0.318499 -0.128029 -0.242204 0.325154 0.162908 -0.205278 -0.133906 0.306896 -0.032197 0.087314 0.037748 0.181457 -0.048189 0.034948 -0.006696 0.022034 0.2225 0.105863 -0.069949 0.211329 0.099448 0.031206 -0.150777 0.052182 -0.318445 -0.089323 0.206109 0.045997 -0.179771 0.008018 -0.156838 0.108153 0.020021 0.072796 0.088281 -0.169785 -0.005761 -0.522712 0.082477 -0.006289 0.039085 -0.040521 -0.039745 0.183241 0.073916 -0.169354 0.015191 -0.083539 -0.136138 0.239286 0.212698 0.202739 -0.1039 0.339698 -0.020012 -0.354293 -0.004555 0.236441 0.004565 0.148852 0.072048 -0.087211 -0.081958 -0.265415 -0.101863 -0.014062 0.085366 -0.097518 0.045616 -0.144442 -0.126673 0.046451 -0.232936 0.212983 -0.274844 -0.012413 0.103324 0.055065 -0.203475 0.141473 -0.356294 0.146425 0.151316 0.333432 -0.279486 0.133552 -0.205304 -0.16932 0.092334 0.193147 -0.124669 -0.371769 0.36669 -0.031864 0.217826 0.300628 0.024956 0.104755 0.06193 0.312506 0.168334 -0.002169 -0.19145 -0.596969 0.241119 0.356863 -0.199683 0.104574 0.02051 -0.044426 -0.054421 0.137131 -0.145592 -0.012734 0.070281 -0.07885 -9.56E-4 0.071285 0.023545 0.034388 0.116576 -0.083933 0.054371 0.070724 -0.06597 0.035959 -0.119614 -0.183825 0.060173 0.007704 0.178384 0.051576 -0.011942 -0.263002 -0.0788 0.117806 0.178087 -0.250786 0.075444 -0.077905 0.106259 -0.001486 0.152249 -0.084311 -0.102394 0.145241 -0.226531 -0.031884 -0.126136 -0.127663 0.007516 -0.103379 0.080384 -0.00505 0.270461 -0.2703 -0.098599 0.211385 -0.18863 0.0979 -0.382398 0.046063 0.040668 0.063178 -0.070715 0.302468 -0.191235 -0.095681 -0.124106 0.132547 0.103464 -0.16272 0.267091 -0.184559 -0.365788 -0.292648 -0.022449 -0.119919 0.253154 0.077711 0.277469 -0.039491 0.052349 0.202944 0.288247 -0.024679 -0.265937 -0.13458 -0.098438 0.051694 -0.057643 -0.262694 0.231882 -0.189704 -0.054814 -0.298713 0.055366 -0.60294 0.115557
sea -0.100601 0.13731 0.123126 0.023044 0.107139 0.134433 0.050176 -0.098292 -0.046619 0.060712 -0.035519 -0.055509 0.118955 -0.083543 -0.090198 -0.172975 0.055386 -0.159421 -0.009955 -0.096565 0.033092 0.008156 0.267218 0.257675 0.102152 -0.082887 0.121676 -0.041516 0.223649 -0.284462 -0.113544 0.442007 0.050302 0.187428 0.090515 0.136556 0.105988 0.378232 0.223615 0.307112 -0.015827 -0.087527 -0.275776 -0.001496 -0.085649 -0.141254 -0.015502 -0.164751 0.059969 -0.220148 -0.402375 -0.174014 0.072267 0.236811 0.213264 0.24262 -0.038292 -0.068311 0.06489 0.085738 -0.144216 0.133675 0.039085 0.184335 -0.185321 -0.175289 -0.438844 -0.097702 0.23125 0.047365 -0.345039 -0.027753 -0.302322 0.126025 -0.207558 -0.03144 0.075313 0.04927 0.218916 0.132059 -0.13835 -0.206385 0.137218 0.005627 -0.342267 0.003394 -0.099532 -0.094448 0.163094 -0.116934 -0.129414 -0.065644 -0.259402 0.211811 0.124975 0.004315 0.20946 -0.151304 0.40191 -0.020554 -0.234074 0.293239 0.077123 0.172266 -0.043136 -0.265527 -0.02949 -0.11608 -0.140067 -0.288079 -0.324171 -0.017157 -0.078396 0.365325 -0.060403 -0.140379 -0.22922 0.029612 0.160481 -0.114401 0.094291 0.224333 0.174737 -0.248589 -0.171866 -0.154807 -0.013616 0.099265 0.01489 0.126573 0.15089 0.083432 -0.033589 -0.355948 -0.297367 0.178568 -0.002141 -0.194714 -0.42156 0.345162 0.111696 0.167143 -0.0229 -0.136456 0.015242 0.021894 -0.157146 0.152612 0.033274 -0.160523 0.217129 -0.022853 -0.102914 -0.181856 -0.453819 0.207198 -0.001051 0.124766 0.191687 -0.085399 -0.061409 0.302234 -0.092181 -0.388588 0.469289 -0.234566 -0.148378 0.260253 0.206701 -0.374045 -0.004287 0.023449 0.083625 -0.203474 0.251466 -0.120837 -0.205923 0.087203 0.168424 -0.052311 0.036476 -0.192785 -0.114159 0.069946 -0.206712 0.050449 -0.084949 -0.015488 -0.185364 0.174081 -0.123242 -0.069111 -0.123309 0.026421 -0.108914 -0.343355 0.263211 -0.192619 -0.021796 -0.181083 0.099207 0.475499 0.108698 0.136601 -0.515611 0.238591 0.002998 -0.112105 0.089867 0.132693 -0.06367 -0.213185 0.163424 -0.252864 0.115841 -0.067991 0.001868 0.208444 -0.007514 0.087419 0.183917 0.012572 -0.002116 0.234751 -0.409252 -0.01377 -0.092305 -0.236569 0.105593 0.083734 -0.020161 0.051695 0.265638 0.192046 0.036746 0.244397 -0.128261 -0.066683 0.157081 0.048558 0.309412 -0.135237 0.001338 0.102526 0.016798 0.030911 -0.311312 -0.218075 0.106864 -0.037791 0.119032 -0.005351 0.075802 0.224475 -0.291613 -0.162613 -0.432299 -0.35668 0.147306 -0.06171 0.112568 -0.025844 -0.423021 0.304087 0.132956 -0.146177 0.009268 -0.206533 0.037735 0.023238 -0.218825 0.001398 -0.151791 0.057061 0.244914 0.267269 -0.147206 0.231208 0.018212 -0.025293 -0.123986 0.001401 0.292821 0.279864 -0.048987 0.049922 0.436756 0.084334 -0.182194 -0.112531 0.143535 -0.129862 -0.141242 -9.94E-4 0.174451 0.198636 -0.455152 -0.036277 -0.227697 -0.176202
dollar 0.454232 0.01152 -0.26896 0.047261 -0.022885 -0.150627 -0.11233 -0.211083 -0.113169 -0.220829 0.270653 -0.036623 0.157011 -0.193513 0.079226 0.093821 -0.293496 0.083556 -0.23579 -0.136171 0.003677 -0.09626 0.170307 -0.046727 -0.421955 -0.059596 0.309482 0.311363 -0.105296 0.233932 0.094548 0.461824 -0.431634 -0.209995 -0.130988 -0.127736 -0.390997 0.498666 0.203798 -0.024803 0.136443 -0.293195 0.044309 0.060923 -0.286782 0.001029 -0.279297 -0.535608 0.160454 -0.240232 0.133087 0.259488 -0.092084 0.111424 0.260494 -0.237536 -0.169034 -0.329359 -0.061279 0.096372 0.072449 0.14088 -0.152089 0.017355 -0.545728 -0.1261 0.02037 -0.069273 0.23446 -0.216508 -0.01666 0.026203 -0.243046 0.277307 -0.22875 0.079424 0.269279 0.302698 0.149653 0.169838 -0.194127 -0.44087 0.126494 -0.10174 0.233288 -0.188678 -0.138868 -0.117581 0.355876 -0.092391 -0.519832 -0.404413 -7.14E-4 -0.304821 6.01E-4 0.101972 0.234289 0.125313 -0.29909 0.084322 -0.217319 0.459898 -0.254747 -0.40695 0.112851 0.095138 -0.067513 -0.075072 -0.034339 -0.259131 -0.048295 0.208843 -0.0223 -0.29843 -0.044141 0.04699 0.092459 0.114081 3.73E-4 -0.057969 0.327666 -0.205473 0.045703 -0.171372 0.270823 -0.007928 0.133773 0.002011 -0.082401 -0.514043 0.280958 0.465705 0.098328 -0.374512 -0.186353 0.011162 -0.396228 0.058827 -0.413395 0.235389 0.005192 0.058537 -0.071969 0.217416 -0.00345 0.489589 -0.365071 0.086088 0.421166 -0.035087 -0.327757 0.683309 0.154127 -0.160032 -0.044386 -0.045273 -0.12411 -0.206859 -0.134492 -0.049753 0.098732 -0.008319 -0.358016 -0.025691 -0.126589 -0.306217 -0.329148 -0.08998 0.215107 -0.237554 -0.292105 -0.058097 -0.020841 -0.398845 -0.039686 -0.582957 -0.516358 -0.294239 0.186054 -0.300736 0.336343 0.107255 0.310573 -0.028782 0.011105 0.123221 0.038572 -0.073242 0.252776 0.080857 -0.029509 -0.239855 0.139627 0.255889 0.269535 -0.205489 -0.276023 -0.010213 -0.188492 -0.239763 -0.12117 -0.250555 -0.014935 0.192972 0.039419 0.277134 -0.40715 -2.66E-4 -0.035687 0.078765 0.106686 -0.165477 0.074991 -0.059741 -0.211286 -0.304817 0.304428 0.027117 -0.004743 0.397574 0.091396 0.114917 -0.018432 0.145897 -0.045217 0.276664 -0.178485 0.015737 -0.227949 0.049808 -0.113213 -0.036421 0.049763 -0.08414 0.279302 -0.238118 -0.221082 -0.217924 0.237976 0.144988 0.103413 0.150534 -0.238755 -0.169678 0.111637 -0.167738 -0.272416 -0.016696 0.341254 0.098213 -0.145984 -0.381551 -0.017063 0.521287 -0.055021 -0.095658 0.268444 -0.290017 -0.021925 0.053531 -0.012726 -0.112975 -0.394344 0.269799 0.26068 0.24807 0.019576 0.518341 0.103483 -0.357683 -0.078624 0.106557 -0.024581 -0.245084 -0.086933 -0.003976 -0.26139 0.565431 -0.207012 0.05658 0.180117 -7.76E-4 0.184947 -0.078926 0.136136 0.024372 0.212815 -0.106173 0.395206 -0.084169 0.015196 -0.291587 -0.219723 -0.135142 -0.060042 -0.152697 -0.089818 0.228543 -0.164602 0.016738
example 0.2389 -0.154106 -0.029368 -0.171457 -0.138313 -0.042745 0.007632 -0.042313 0.023127 -0.010125 -0.13828 0.18668 -0.048884 -0.12568 -0.049837 0.112718 -0.019488 -0.05125 -0.183021 -8.51E-4 -0.24675 0.129497 0.343752 0.06879 -0.238911 0.07643 -0.284481 0.004344 0.072649 0.255506 -0.121651 -0.025025 -0.010694 -0.164451 0.146123 0.449661 -0.13432 0.089188 -0.001132 -0.088891 0.50136 -0.183731 -0.210169 -0.092926 -0.149996 -0.020405 0.184213 0.227058 -0.079333 -0.012914 -0.058208 0.15251 -0.135499 0.177208 0.054762 0.114535 0.021007 -0.045308 0.196365 -0.04115 -0.230852 0.00893 -0.175234 -0.16508 -0.111482 -0.258687 0.004375 -0.137686 0.229665 -0.113764 -0.165767 -0.027489 0.060003 -0.171282 0.033475 0.094984 -0.29319 0.066455 0.104074 0.104064 0.287851 -0.302673 0.307947 0.111224 0.01135 0.122094 0.039308 -0.143132 0.122384 0.213685 -0.281962 -0.144992 -0.023861 -0.131678 0.025907 -0.084468 0.07321 0.189865 0.019877 -0.383229 0.068479 0.312629 -0.042045 0.015422 0.01161 0.144658 -0.027948 -0.142696 0.294194 0.098367 -0.158178 -0.061208 0.280726 -0.027344 -0.137164 0.202247 -0.01221 0.082409 0.153352 -0.025052 0.323626 0.022501 -0.094758 -0.079148 -0.059562 -0.123471 -0.203003 0.491993 0.029178 0.178022 0.149725 0.010578 -0.261157 0.276051 0.240752 0.362738 -0.143041 0.082939 0.004518 0.167287 -0.114014 -0.201195 -0.215721 -0.031886 0.087257 -0.018478 -0.484734 -0.111142 -0.088272 -0.070901 0.051323 0.186507 0.101821 0.01979 0.159021 0.134208 0.083111 -0.08886 -0.063117 -0.092373 0.11302 0.023792 -0.07709 -0.262289 0.091297 -0.058453 -0.083981 0.062053 -0.263067 0.00563 -0.228719 -0.310415 0.165456 -0.369604 0.169727 -0.073823 -0.21441 0.016084 0.099208 -0.038918 -0.112511 -0.053854 0.079954 0.158019 -0.072323 -0.1046 0.008075 -0.210959 -0.29513 -0.063282 -0.168695 -0.214513 9.36E-4 0.183211 0.142498 0.035745 0.077835 0.065838 -0.067301 -0.206383 0.131495 -0.028692 0.219299 -0.008393 -0.061077 0.209681 0.120084 -0.253261 -0.12891 -0.194461 0.046735 -0.068464 0.008002 -0.13045 0.11023 -0.153702 -0.059762 -0.056235 0.114532 -0.330275 -0.186755 0.148904 -0.266169 0.01024 -0.173462 0.1609 -0.076214 0.060102 -0.072384 0.001431 0.145758 0.048517 0.121815 -0.123864 -0.116002 0.021333 -0.177563 -0.221807 -0.057141 0.179833 -0.190521 -0.11168 -0.008073 0.044157 0.176571 -0.074029 0.087425 -0.101329 -1.3E-5 0.183975 -0.037114 -0.158357 0.017549 0.165683 0.046948 0.083969 -0.315548 0.060479 2.06E-4 0.260652 -0.14352 -0.32051 -0.097789 -0.011376 -0.028114 -0.199669 0.070965 -0.15054 -0.246489 -0.062729 0.133856 0.101686 -0.019673 0.111984 -0.199667 -0.032275 -0.196421 -0.090443 0.055491 -0.010193 -0.160404 0.163189 -0.115187 -0.189312 0.118178 0.118143 -0.284349 0.032474 -0.245217 0.069587 -0.120461 0.11134 -0.157196 0.408563 -0.002895 0.333468 -0.297104 -0.015481 -0.269357 -0.008618
journal 0.221123 -0.592837 -0.128682 0.167785 -0.337714 0.153324 0.092055 -0.471627 0.200305 -0.236624 0.422038 -0.086137 0.159358 0.160371 -0.335108 -0.133144 0.222426 -0.018036 -0.144066 -0.061143 0.016621 0.085142 0.382994 0.031708 -0.334842 0.291945 -0.037668 -0.164578 -0.343254 -0.082681 0.270666 0.361898 -0.500501 -0.286955 0.210081 0.18818 0.100418 -0.144587 0.199503 0.238292 0.289491 -0.519656 0.296901 -0.057778 -0.357676 -0.637469 -0.149895 0.002787 0.07966 2.59E-4 0.084199 0.357973 0.178229 0.117503 0.024036 -0.336789 -0.096384 -0.351641 -0.096854 0.58799 -0.477466 0.248246 -0.110917 0.029 -0.207909 -0.215413 0.051141 0.466136 0.237985 -0.433494 -0.254728 0.458429 0.165561 0.472844 -0.201412 0.620183 0.356175 0.042503 -0.158061 -0.157218 -0.199853 0.267762 -0.321501 0.282669 0.474408 0.05091 0.348173 0.487199 0.529265 0.202945 0.149086 -0.243388 -0.617947 0.294758 0.255879 -0.158162 0.419299 -0.190898 0.016963 -0.251616 -0.004239 0.599675 0.017103 0.174475 -0.179062 0.037474 0.238636 -0.143221 0.442595 0.240701 -0.713218 -0.028978 0.180199 0.135222 -0.232147 -0.274474 -0.13125 0.06306 0.400645 -0.052562 -0.37818 0.065186 0.539 0.135536 -0.026816 0.297742 0.007149 -0.138597 0.236698 0.140338 -0.282215 -0.573244 0.376404 0.160023 -0.133158 -0.560293 -0.229734 -0.122878 -0.509443 -0.107755 0.194302 -0.774481 0.204361 -0.036179 -0.228399 0.731697 -0.5424 0.264986 -0.486749 -0.028601 0.331691 0.025474 0.274865 -0.522921 -0.228295 -0.184111 -0.412845 0.159873 0.125328 0.03155 -0.309188 -0.168717 -0.039015 -0.496587 -0.033546 0.396623 -0.194651 0.081849 -0.150604 0.506853 -0.294151 -0.261437 -0.066608 0.009841 -0.214855 0.074202 0.311678 0.368606 0.210022 -0.220602 0.046682 -0.375081 0.17526 -0.209275 0.152909 -0.092634 -0.102627 0.071623 0.127546 0.372965 -0.290131 0.342847 0.181762 -0.393311 0.139221 0.081004 0.334409 0.253619 0.208684 -0.627192 -0.022837 0.405047 0.209325 0.17859 0.238012 0.016202 0.192205 0.327636 0.173439 0.160344 0.232459 0.023332 0.344249 -0.093314 -0.264889 -0.146037 -0.403533 0.183825 0.799586 -0.30446 0.250199 0.29043 -0.130365 0.032353 -0.019011 0.36736 0.020858 0.192213 -0.231966 -0.118592 -0.030593 -0.027602 -0.261111 0.159812 -0.297249 -0.093346 -0.245122 0.255001 -0.372589 -0.079085 -0.068787 0.203173 0.269234 0.534021 0.086192 0.394152 -0.168877 -0.081894 0.263157 0.848613 0.398454 0.130755 -0.186827 0.00252 0.171296 0.085763 -0.540166 -0.421544 -0.230837 0.224965 -0.033165 -0.30489 -0.398372 0.129972 -0.397861 -0.012014 -0.665416 -0.02346 0.365685 -0.149904 0.386474 -0.296668 -0.493992 -0.229778 -0.264292 -0.352838 -0.703655 0.353985 -0.135243 -0.227729 0.173258 0.483508 0.066131 -0.002175 -0.463023 -0.046563 -0.02921 -0.180398 0.06529 -0.097628 -0.321082 0.256225 -0.484148 0.137499 0.097758 0.030965 -0.344456 -0.064665 -0.158332 -0.09982
laundering -0.593284 0.180229 0.039581 0.245307 0.242202 -0.29578 0.076356 -0.041202 -0.170111 0.218114 -0.263191 0.471734 0.25546 0.417573 0.226548 0.289709 -0.427928 -0.066625 0.336629 -0.084295 -0.116764 0.016792 -0.012332 -0.152953 -0.093609 -0.166127 0.296035 -0.06924 -0.003502 0.35649 0.389202 0.340707 -0.372973 0.486888 0.152665 0.085571 -0.075378 0.222876 0.013513 -0.170497 0.034794 -0.266214 0.0982 -0.206115 -0.3302 -0.3464 -0.46002 -0.393066 0.075549 0.446517 0.032498 0.093042 0.027373 0.208811 0.137031 -0.111872 -0.271174 -0.163228 -0.131462 -0.240649 0.73625 -0.240161 -0.226546 0.212096 -0.373458 -0.035207 0.001298 0.173023 -0.092199 0.091916 0.398332 0.401915 0.305351 -0.201922 0.289895 -0.394063 -0.177327 0.327036 0.001208 -0.221119 0.283642 0.088064 -0.277356 0.137449 0.091678 -0.43226 -0.030113 -0.11365 0.561026 -0.231851 0.116903 0.185965 -0.649819 -0.014984 0.245385 0.071875 0.289184 0.243677 -0.052256 0.454636 -0.110967 0.259765 0.35651 -0.442916 0.541476 -0.04571 -0.315496 0.090879 0.077642 0.004252 -0.313534 -0.144477 0.619106 -0.568651 0.038105 0.022889 -0.362121 -0.112573 0.056619 0.624671 0.527009 -0.099436 0.016563 -0.151643 0.085838 -0.074041 0.269844 0.116897 0.349882 -1.67E-4 -0.05198 -0.012392 -0.043691 -0.233994 0.236401 -0.022954 -0.341256 -0.040908 -0.272124 -0.170164 -0.329281 -0.030751 -0.223729 0.059466 -0.052058 0.304908 -0.130663 0.340262 0.307441 -0.658827 0.169428 0.351221 0.32918 -0.036442 -0.258952 0.331149 -0.242225 -0.201169 -0.329354 0.01292 -0.423586 -0.008846 -0.201296 -0.317224 0.09087 -0.014637 0.003039 0.232661 -0.025782 -0.156809 -0.230171 -0.33525 -0.239106 -0.48955 -0.125784 -0.211918 0.073011 -0.21072 0.324171 0.16789 -0.152625 0.140265 -0.102253 -0.126534 -0.177666 0.171051 -0.228532 -0.515453 -0.196916 0.524287 0.077309 0.661902 -0.339624 -0.244968 0.32837 0.305623 0.50394 0.15429 0.085641 0.070434 0.057919 -0.008272 0.269884 -0.041551 -0.091022 0.044113 0.28232 -0.182242 0.509652 -0.242304 -0.273883 0.326854 0.250544 0.105288 0.135787 0.156386 -0.171115 -0.622238 -0.290755 -0.42461 0.483622 0.071374 -0.486445 0.47754 -0.351403 0.184914 -0.446098 0.024195 -0.060707 -0.123448 -0.364625 0.027586 0.373851 0.216773 0.348349 -0.083033 -8.97E-4 -0.365965 0.479111 0.00117 0.032598 0.083006 -0.075538 -0.138826 0.179329 0.121173 0.20027 -0.353854 0.533852 -0.16107 -0.392039 -0.535499 -0.355898 0.539479 0.93397 0.128275 -0.493349 -0.106256 0.01339 0.042778 -0.04798 -0.097611 -0.34802 -0.059908 0.062065 -0.299156 0.453459 0.303371 -0.250768 -0.251604 0.254219 -0.117813 -0.057338 0.144297 -0.11701 0.330431 -0.080612 0.390673 -0.057979 0.380918 -0.087726 -0.074724 -0.005018 0.297318 0.182967 -0.275969 -0.17864 -0.110435 -0.508169 0.051074 -0.176339 -0.008711 -0.077051 -0.151743 0.13086 -0.268886 0.203559 -0.137159 -0.521027 -0.093214
