436 300
plane -0.061967 0.093094 0.25444 0.1542 0.310171 -0.009184 -0.234406 0.213692 -0.116493 0.206431 0.178656 0.163523 0.130011 0.100638 0.26238 -0.061597 -0.012588 -0.042477 0.012087 0.091654 0.097303 -0.061538 0.288937 -0.005358 -0.063666 0.029498 0.050273 -0.071026 -0.137311 0.205339 0.004694 0.124259 -0.563559 -0.133286 -0.077885 0.086549 0.142568 -0.176536 0.170371 -0.075266 0.041559 -0.331064 0.065403 0.013837 -0.329337 -0.338057 0.38909 -0.330178 -0.01138 0.405018 -0.079089 0.154792 0.08438 0.093371 0.186914 0.087066 -0.425292 -0.36252 0.152711 -0.184098 -0.122361 -0.192172 0.027985 -0.056063 -0.321475 -0.274161 -0.017562 0.316216 0.32179 0.347592 -0.093048 -0.151022 0.074607 0.089123 -0.265604 0.081494 -0.21378 -0.036963 0.003541 -0.402824 0.085018 0.296723 0.381191 -0.040877 0.300601 0.078768 -0.070441 -0.138185 0.340952 -0.091246 0.085665 -0.304344 -0.223417 -0.150968 -0.189059 0.033035 0.178068 -0.093104 -0.148055 -0.31598 -0.29842 0.502995 0.182725 0.140243 0.252198 -0.025203 -0.097022 0.150008 -0.216124 0.109488 -0.06877 0.205867 0.021871 0.184679 -0.168493 0.014763 -0.139565 0.136907 -0.006487 0.097229 0.075428 -0.450257 0.034409 -0.019221 0.041683 -0.042421 0.331567 0.171517 0.201803 -0.07 -0.014459 -0.079566 0.043068 0.023049 -0.149179 0.384628 0.101669 -0.035214 -0.10847 0.041848 -0.020108 -0.167094 0.040535 -0.032676 0.068006 0.313199 -0.003959 -0.156423 -0.14541 -0.197419 0.106946 0.160742 0.256867 0.062549 0.097349 0.253605 0.062852 -0.173357 0.196933 -0.022791 -0.141626 0.376564 0.231185 -0.200396 0.243491 0.299345 0.017834 0.217577 -0.041372 0.298698 0.258533 -0.029409 0.221058 0.141267 0.013791 0.217642 -0.323763 0.065279 -0.015884 -0.212929 -0.104147 -0.099732 -0.066726 0.212091 -0.100757 -0.184277 -0.165102 -0.037568 -0.252846 -0.205503 -0.186026 -0.086749 0.049782 0.192756 0.159745 0.471246 0.074243 0.363271 -0.24463 -0.275404 0.181272 0.370817 -0.10106 -0.244825 0.201111 0.03745 -0.039323 0.313947 0.01942 -0.281378 -0.084639 0.23905 -0.112515 -0.011954 0.419927 -0.016788 -0.383033 -0.26294 0.033005 0.228614 0.268541 -0.081703 -0.057238 -0.152858 0.254148 -0.164149 -0.189211 -0.345815 0.312826 8.4E-4 0.08965 -0.025847 -0.047438 -0.035729 0.271468 0.110058 -0.202627 -0.244201 0.091291 0.193636 0.294003 -0.260362 0.307423 0.250988 0.347025 -0.013893 0.034483 0.206892 -0.027825 -0.029188 -0.108414 -0.033662 0.391543 0.03497 0.217875 -0.234633 -0.600908 -0.283538 0.023513 0.141926 0.05233 -0.085674 -0.106812 -0.133529 -0.225821 0.14482 0.001661 -0.124009 0.229679 0.090985 -0.008076 -0.191757 0.075205 0.078399 0.075624 -0.324422 -0.292147 0.061398 0.110983 -0.154116 -0.325476 0.144261 0.141848 0.086612 0.126459 -0.207603 -0.284103 -0.131579 0.247937 0.068694 0.102296 -0.142988 -0.270479 -0.160329 0.070641 -0.033161 0.09446 0.096298 0.090335 -0.010603
stupid 0.295346 0.068636 0.142106 0.074312 0.102059 -0.266528 0.198229 -0.280623 -0.016598 0.091654 0.173463 0.085541 0.081519 -0.252665 -0.084194 -0.192421 0.252409 -0.038497 0.108782 0.079305 -0.188218 -0.054323 0.055256 0.044409 -0.055738 0.059602 0.013656 0.194779 0.186771 -0.027615 0.0123 0.149976 0.250667 0.083303 0.12207 0.344031 -0.2671 0.135106 0.083795 0.202985 0.308247 -0.00607 0.141119 -0.138369 -0.059545 0.028639 -0.030292 -0.162187 0.057749 0.194725 0.239169 -0.050092 -0.097329 -0.041342 0.152361 0.547724 -0.188915 0.065906 0.269486 0.104909 0.088365 0.099546 0.167631 0.118961 -0.200943 -0.093338 -0.016833 0.041657 0.127969 -0.101172 0.003703 0.204068 0.031064 0.081241 0.045281 -0.067201 -0.101587 -0.162876 -0.15216 -0.17212 -0.12214 -0.35822 0.234611 -0.001836 -0.232163 -0.091413 -0.034496 0.01157 0.074134 -0.15213 -0.1078 0.091428 -0.235851 -0.04187 -0.242235 -0.180491 -0.042003 0.11898 -0.197301 -0.037858 -0.358579 0.300229 -0.222951 0.009888 0.011576 -0.056141 0.295136 -0.2339 0.045141 0.056488 -0.014252 0.072505 0.570235 -0.061787 -0.275401 -0.215653 0.110661 0.157988 0.299135 -0.21923 -0.051641 0.252769 -0.218791 -0.080646 -0.110079 -0.146326 0.286844 0.09909 0.248755 0.180333 -0.048995 -0.285181 -0.197398 0.215783 0.085107 -0.142001 -0.148459 0.233596 -0.250438 -0.104331 -0.161163 -0.027637 -0.104527 -0.136516 0.439963 0.103866 0.084182 -0.119675 0.091476 -0.050325 0.275845 0.24551 0.165814 -0.254299 0.061805 0.232705 0.035692 -0.170675 -0.183849 0.339925 -0.267703 0.134808 -0.06246 0.116307 0.094461 0.086841 -0.131006 -0.042997 0.225143 -0.019577 -0.074261 -0.078279 0.153292 -0.400466 -0.13544 0.184325 0.235448 0.10738 -0.106907 -0.100852 -0.089558 0.039495 0.23122 -0.099215 0.060141 -0.043796 0.092717 0.148833 -0.049036 0.069912 0.438384 -0.211255 -0.243424 0.38824 -0.079034 -0.238924 0.128392 0.070554 -0.098198 -0.229193 0.114316 0.404305 0.082696 -0.068996 -0.363876 0.298629 -0.08845 -0.076979 -0.14533 0.123209 -0.085224 0.21022 0.043879 0.008497 -0.177022 -0.032756 -0.14713 -0.190005 0.146443 -0.158401 0.123631 -0.068227 -0.194726 -0.075072 -0.300142 0.076419 -0.173043 0.01647 -0.126288 -0.213837 -0.0854 0.060759 -0.198329 0.116055 -0.187642 0.166646 0.153986 -0.073399 -0.028902 -0.142257 0.230614 -0.033766 -0.032036 0.01249 0.252571 -0.083877 0.123254 0.161009 -0.010736 0.047864 0.051789 0.047874 -0.04275 0.162316 0.394861 -0.224645 -0.410742 -0.167924 0.022253 0.072368 0.043182 -0.277554 -0.354384 0.19269 -0.159438 0.250375 0.184842 -0.283385 0.034803 -0.222157 -0.181424 -0.114978 -0.124234 0.360246 0.065431 -0.254943 -0.396768 0.006166 0.069245 -0.056611 -0.180294 0.183412 -0.213448 0.166509 0.050346 0.137262 -0.212507 -0.012914 -0.214462 -0.068869 0.042272 0.097131 -0.283224 0.015187 -0.095117 0.089434 -0.090292 -0.11686 -0.090061 -0.008218
egg 0.527473 0.235463 -0.100732 -0.191652 -0.18142 -0.077307 -0.060976 -0.231085 0.006421 0.113744 -0.13818 -0.049892 0.049198 -0.203994 0.279037 0.324396 -0.140625 -0.064582 -0.164294 -0.004372 -0.366222 -0.028052 0.07099 0.027222 0.22632 -0.042736 -0.216971 0.164962 0.196587 -0.347365 -0.258086 0.197915 0.03145 0.031975 -0.081783 -0.265301 0.075718 -0.030548 0.056775 -0.07594 0.085305 -0.103152 0.1746 0.256836 0.151568 0.270433 0.310144 -0.018094 0.358702 -0.034 0.117596 -0.071094 0.133872 -0.204889 0.029172 0.168023 -0.168809 -0.228074 0.246407 0.195519 -0.050206 -0.06011 0.097264 0.543585 -0.088445 -0.141214 -0.267197 -0.045104 0.495094 0.295414 -0.037225 0.136195 0.194468 0.293349 0.245973 -0.210896 0.076584 -0.062842 0.182481 0.010783 -0.082311 -0.268548 -0.20245 -0.357445 0.163025 -0.269273 0.072676 -0.429976 0.12478 -0.21858 -0.207501 0.02713 -0.49622 -0.181803 0.148024 0.076142 0.109345 -0.05122 0.028232 0.075566 0.053256 0.462738 0.458226 0.166371 0.053413 0.127851 0.246745 -0.162537 -0.171842 0.083929 -0.476237 0.092237 -0.053477 -0.335712 -0.195164 -0.044502 -0.195453 0.282001 0.139028 -0.043906 -0.001096 -0.133152 -0.052217 -0.007193 -0.389485 -0.649443 0.124892 0.040036 -0.118848 -0.239793 -0.190612 -0.08237 0.238851 -0.012049 0.033613 -0.085178 -0.241873 -0.104562 -0.060077 0.341241 0.139072 -0.110377 0.050932 0.164436 0.073969 0.145666 -0.190295 0.32916 0.066869 0.123007 0.325671 -0.174812 -0.339126 -0.229946 0.22417 0.109515 -0.012487 -0.33487 0.103339 -0.115765 -0.162857 0.097785 0.170399 0.024655 -0.156355 0.089976 0.081757 0.04265 0.118365 0.158126 0.077666 0.142186 -0.136588 -0.37363 -0.024944 -0.320812 0.026125 0.065336 -0.151336 0.20585 0.1885 -0.15504 -0.195686 -0.190586 -0.013694 -0.185064 0.121592 -0.245757 0.238497 0.129205 0.375381 -0.171931 -0.029183 0.391183 0.17787 -0.023754 0.380722 0.165971 -0.157708 -0.071404 0.37232 0.329745 -0.133942 -0.261096 -0.155431 0.355673 -0.076183 0.101109 -0.07637 -0.225538 0.125624 -0.135009 -0.183915 -0.222524 -0.169267 -0.059055 -0.153915 -0.090834 0.234488 0.101477 -0.106426 0.115998 0.192845 -0.192444 -0.320052 -0.070954 -0.07196 -0.046928 0.154573 -0.1979 0.169661 0.123842 -0.005063 0.050662 -0.018861 0.016638 -0.098232 -0.085687 -0.424525 0.294993 0.154172 0.130467 0.285637 0.310877 0.24299 -0.133697 0.051595 0.081922 -0.009288 -0.144248 -0.274297 -0.034939 0.082932 0.174445 -0.042605 -0.104785 -0.251087 -0.165385 -0.055224 0.070104 -0.035616 0.025074 -0.072753 -0.028281 0.151254 -0.035881 0.00617 -0.234309 0.38354 -0.077483 -0.030525 0.050897 0.148425 0.025373 -0.039713 -0.061704 -0.181943 0.138616 -0.112587 -0.036869 0.148881 -0.009614 0.123168 0.175175 -0.37671 -0.074373 0.427409 -0.049258 -8.39E-4 -0.197923 -0.114447 0.107384 -0.231336 0.171906 0.180299 0.191729 0.077551 -0.016573 0.158345 0.076632
year 0.298859 0.078306 0.050555 -0.006645 0.362309 0.242526 0.053819 -0.207972 -0.137554 -0.311246 -0.023619 -0.137376 0.181948 0.044143 -0.02304 0.079096 0.033555 -0.268873 -0.141681 -0.02034 0.029355 -0.009 0.282798 0.155389 -7.2E-4 0.083114 -0.304692 -0.407974 -0.146124 -0.014345 0.123858 0.311028 -0.077742 0.004196 -0.214925 -0.194433 0.206197 0.066588 0.074481 0.16596 0.187329 -0.073788 0.084877 -0.033475 -0.191858 -0.086641 -0.015664 -0.232055 0.216766 0.059699 0.131482 0.096345 -0.029412 0.111909 -0.030982 0.269445 -0.063006 0.058817 0.186176 0.13778 -0.062553 -0.057516 0.124285 -0.38637 -0.284341 -0.259275 0.109692 0.069736 0.174155 0.014699 -0.145677 -0.217835 0.03756 -0.033907 -0.074271 -0.196348 -0.036249 0.012721 -0.06468 0.025742 -0.181102 0.021449 0.397245 0.297787 -0.095897 -0.012078 -0.004333 -0.150797 0.301932 0.039819 -0.077625 -0.025822 -0.148593 -0.157418 0.006256 0.274932 0.064553 0.153646 -0.22717 -0.118905 -0.042996 0.35953 -0.052382 0.318408 0.150485 -0.125737 0.01506 -0.196881 0.078671 0.243259 -0.009411 0.07525 0.116701 -0.168142 -0.167837 -0.04651 0.020488 -0.028762 -0.161865 0.151187 0.240232 -0.03617 0.130265 0.019188 -0.07657 0.171861 -0.096762 0.291294 -0.308307 0.066475 -0.094592 -0.028035 0.046088 0.157258 0.172211 0.019898 -0.255427 0.025525 0.128479 0.124273 0.002417 2.96E-4 -0.157865 -0.144958 -0.178804 -0.135572 -0.188325 -0.004245 -0.21039 -0.092878 -0.078848 0.282155 0.270159 0.218601 -0.075555 0.036485 -0.363469 -0.105298 -0.073546 -0.146108 -0.065522 0.034272 -0.02961 -0.067534 -0.015152 -0.092843 -0.190634 -0.116541 -0.179118 0.035884 -0.018644 -0.017333 -0.070638 -0.457259 -0.142203 -0.068674 -0.07464 -0.042893 0.209358 0.024991 0.128355 -0.025631 -0.058916 -0.068114 -0.32563 -0.032068 -0.162894 0.016091 0.116818 -0.072384 0.098315 -0.25692 -0.138784 0.165604 0.048187 0.061719 0.20706 -0.251039 0.019384 0.117799 0.30791 0.220424 -0.130676 0.009571 -0.422954 0.031622 0.129032 0.091237 0.093882 -0.150835 0.056507 -0.049729 -0.078582 -0.248337 0.017759 0.230089 0.079725 0.139004 0.186256 -0.158217 0.055553 -0.007362 -0.178474 0.385253 -0.048586 0.035799 -0.159514 -0.070597 -0.066902 -0.129591 -0.21615 0.109563 0.173363 -0.055927 -0.055646 0.050999 0.202999 -0.162067 0.171824 0.101346 0.195859 0.342486 -0.240745 0.068922 -0.089823 0.030459 -0.030268 0.036555 0.152826 0.109121 0.029128 -0.182901 0.032294 0.112579 0.55082 -0.073712 0.016675 -0.181923 -0.090875 -0.192444 0.254878 -0.279605 -0.028657 0.063751 -0.041076 -0.005135 -0.0381 -0.07744 -0.29106 0.138993 0.044879 -0.016976 -0.140357 -0.156231 -0.123748 0.017066 -0.128831 0.177524 0.343803 0.04375 -0.029086 0.095569 0.192774 -0.101547 -0.228583 -0.071003 -0.038762 -0.075976 -0.249172 0.104312 -0.014574 0.027 -0.130683 0.194292 -0.200952 0.048311 0.058959 0.096529 -0.268138 -0.051887
psychiatry 0.237213 0.044379 -0.10769 -0.202769 -0.068425 0.031058 -0.004497 -0.034716 -0.057056 0.189776 0.104443 -0.120152 0.231601 -0.282804 0.17252 -0.019082 0.081369 0.056178 0.097438 0.171433 -0.25454 -0.111244 -0.097418 0.164569 -0.104758 -0.128496 0.218657 0.002677 -0.029916 -0.286138 -0.229089 0.425032 -0.031162 -0.229695 -0.201517 0.225634 0.102168 0.20792 -0.141688 -0.243566 0.164552 -0.222683 -0.138278 -0.346433 0.193274 0.058671 0.077233 0.092577 0.199441 -0.098081 -0.208078 0.239074 -0.06377 0.083006 0.053675 0.019975 -0.131745 -0.352909 -0.096483 -0.102184 -0.10437 -0.330317 0.180436 0.11102 -0.190012 -0.00895 -0.292555 0.20332 0.405517 0.171634 0.285096 0.282261 0.127282 -0.08922 -0.486386 0.003428 0.039483 0.37744 -0.104835 -0.08186 -0.004381 -0.231255 0.045728 -0.2463 -0.098347 -0.167197 -0.224505 -0.304039 0.328849 -0.270979 -0.280319 0.093978 -0.763694 -0.1826 -0.263301 -0.088677 -0.045262 0.141397 -0.054767 -0.054349 -0.4604 0.328558 -0.081152 0.123321 -0.179386 -0.41722 -0.054713 -0.033313 -0.131629 0.081978 -0.119382 -0.224321 0.22716 0.004503 -0.366804 0.135162 0.096539 0.36849 0.004378 0.028009 -0.236142 -0.25367 0.025934 0.297089 -0.032001 0.07539 -0.245218 -0.197123 -0.220327 -0.111247 -0.129983 0.526031 -0.359403 0.332562 -0.145349 0.107624 -0.299193 0.153676 -0.28275 -0.360502 -0.139969 -0.052482 0.176363 0.003723 8.46E-4 -0.016113 -0.359398 -0.219091 -0.041113 -0.128949 0.219483 0.124041 -0.226418 -0.106813 -0.246673 0.347018 -0.052363 -0.32815 -0.1868 -0.24814 -0.118037 0.159008 0.049905 0.046594 -0.12035 -0.043898 0.199986 -0.003374 0.33524 0.140917 -0.220601 -0.37012 0.033938 -0.30109 0.008972 -0.096094 -0.347213 0.020913 0.142357 0.180467 -0.108412 -0.070875 -0.092834 -0.14971 -0.175295 -0.150365 0.130859 -0.223322 0.268837 0.278234 -0.029559 0.38935 0.083407 0.051422 0.0351 0.104247 0.061752 -0.096599 0.199554 0.082109 -0.434466 0.514586 0.003364 -0.003374 -0.125366 -0.028519 -0.165369 -0.36848 0.121516 -0.222334 -0.270897 -0.143949 0.347804 -0.243868 0.096527 -0.061912 -0.375577 -0.006492 -0.199432 -0.161397 0.245547 -0.246139 -0.030216 0.156635 0.05007 0.126916 -0.222748 0.595107 -0.156423 0.244349 -0.0424 -0.150017 0.00537 0.092709 -0.137498 0.067512 0.012691 0.132287 -0.227308 0.100131 0.010972 -0.102867 -0.240203 0.119813 0.155611 -0.140724 0.096902 -0.049219 -0.230196 -0.11543 -0.41079 -0.023925 -0.184653 -0.001996 -0.021666 0.083174 -0.298063 -0.128576 0.183447 0.184606 0.485263 0.16687 -0.029024 -0.124036 0.16936 -0.133621 0.366805 0.241839 0.112826 -0.37599 -0.137288 0.205097 0.429899 0.296016 -0.186961 0.115869 -0.106708 -0.062641 0.37303 -0.207901 -0.34956 -0.10521 0.075902 0.074429 -0.063888 -0.076686 -0.238863 0.206926 0.054644 -0.451295 0.031498 0.144428 -0.031084 0.040113 0.275996 -0.244151 -0.311349 0.055205 -0.255973 0.203063
asylum 0.529284 0.375012 0.140748 -0.106676 -0.073376 -0.212717 0.225276 -0.093984 0.016228 -0.094701 0.221402 0.171023 -0.008435 0.2301 0.422717 -0.346606 0.225698 0.070713 0.024695 -0.153026 -0.036842 0.002256 0.033666 -0.221028 -0.164278 -0.173052 -0.115725 -0.258958 0.231783 0.181664 0.201984 0.027817 -0.134335 -0.0078 -0.131298 -0.064962 0.041169 0.040175 0.058972 -0.22235 -0.004878 -0.022358 0.21602 -0.166868 0.067142 -0.021214 -0.215658 -0.15403 -0.107795 -0.073955 -0.0226 0.127805 0.065487 -0.071139 0.049635 0.156901 -0.394801 -0.231531 -0.216364 -0.267427 -0.223046 -0.210909 -0.280951 -0.033433 -0.327708 -0.090618 -0.149351 0.06404 0.110679 -0.24456 -0.259334 0.049564 0.135542 -0.030395 0.024751 -0.109382 0.165708 -0.152104 -0.050013 -0.142572 -0.140617 -0.161429 -0.337393 0.058287 -0.343715 -0.343003 -0.276631 -0.032306 0.360589 -0.05059 -0.183153 -0.208419 -0.612906 -0.338191 -5.79E-4 -0.089422 0.08672 0.025963 -0.026568 0.003904 0.042878 -0.00451 -0.204926 0.213308 0.43666 -0.141774 -0.084048 0.052551 -0.051854 0.118766 -0.354806 0.012214 0.43126 -0.404526 -0.450925 0.006584 -0.177856 -0.234955 0.135753 0.12874 0.438545 -0.441371 0.067628 -0.076032 0.061717 -0.092858 -0.407431 0.193314 0.115618 -0.218905 -0.090079 0.005597 0.436292 -0.012328 0.226413 -0.035483 -0.066732 0.127118 -0.092104 0.260968 0.105373 0.257806 -0.023024 -0.084972 0.23325 0.211555 -0.0843 0.17117 0.364618 -0.27041 -0.053495 0.015751 -0.09522 -0.065863 -0.0137 0.176472 -0.468046 -0.055996 -0.038956 -0.118757 -0.05905 -0.086196 0.259024 0.074615 0.105305 0.264458 -0.016451 0.181447 -0.027342 0.084268 0.121866 -0.639235 -0.101367 -0.091364 0.384411 0.028249 -0.174531 0.208541 0.014221 -0.368062 0.421349 -0.257731 0.112966 -0.065202 -0.106819 -0.013351 -0.322158 -0.077323 -0.174298 -0.072652 0.076326 0.372931 -0.138659 0.312744 0.351883 -0.212503 0.093372 -0.118552 -0.349058 -0.457768 0.29228 0.209141 -0.011024 -0.066785 -0.314284 0.151995 -0.221699 0.235245 -0.031467 -0.392143 0.313342 -0.014475 0.154644 0.249342 0.051 0.003258 -0.095715 0.120458 -0.127093 -0.113059 0.163022 0.127536 0.157713 0.545585 -0.017335 0.090164 -0.286804 0.082713 0.048602 -0.026249 0.008176 0.048311 -0.168851 -0.073433 -0.055098 0.06333 -0.561663 -0.424558 -0.093005 -0.065422 0.015381 -0.577976 0.085416 0.254154 -5.58E-4 0.006003 0.157608 0.024067 -0.065492 0.400703 0.144524 -0.094922 -0.14744 -0.0551 0.066391 -0.084072 -0.215467 -0.512964 -0.030328 -0.447749 0.0811 -0.228227 -0.461818 -0.097614 -0.081843 0.211507 -0.030056 -0.144662 0.001859 -0.025839 -0.279941 0.143418 -0.056304 0.138742 0.07998 -0.056342 -0.13147 -0.015156 0.033809 -0.293695 -0.570471 0.226696 -0.143509 0.35149 0.009108 -0.373297 0.158637 -0.214472 0.045225 0.115053 -0.154275 -0.108158 0.220757 -0.051563 -0.099147 0.003672 -0.205595 0.214817 -0.08282 0.081562
manslaughter 0.098292 0.089341 -0.114578 -0.573811 -0.489113 -0.340068 -0.115858 -0.51585 0.136629 0.414619 -0.319613 -0.150307 0.184607 -0.128971 -0.096328 0.137246 -0.136534 -0.160698 0.267649 0.043417 -0.117194 -0.172736 -0.052791 0.347837 -0.098279 0.094476 0.392845 -0.323681 -0.240346 0.410561 0.204729 0.028313 0.154674 0.13096 -0.378892 0.196432 0.022522 0.526303 -0.1111 -0.536731 -0.237979 -0.317404 0.476947 -0.299863 -0.131954 -0.405563 0.171358 -0.019672 0.140843 0.306017 -0.333851 0.215163 0.330135 0.191587 0.068001 -0.132263 -0.344669 0.351625 0.234429 -0.257183 0.096505 -0.127978 0.54231 -0.461373 -0.24223 -0.366175 -0.045565 0.176779 0.097627 0.225546 -0.282095 -0.302787 0.017632 0.347653 0.279757 -0.332504 -0.022024 0.008534 -0.043244 -0.079012 -0.172251 -0.574726 -0.008432 -0.176837 -0.105629 0.039306 -0.309201 -0.322661 0.288892 0.261467 0.02586 -0.035582 -0.60176 -0.272715 0.162827 -0.131715 0.262009 0.196757 -0.140107 -8.76E-4 -0.219572 0.151962 -0.04717 0.139891 0.515273 -0.475583 0.445928 -0.379347 0.116095 0.260338 -0.644202 -0.043218 -0.233893 0.151726 -0.135305 -0.260721 -0.108637 0.205136 0.181596 -0.048196 -0.180098 -0.181484 0.120607 -0.010775 0.321522 0.372108 -0.527654 0.267777 -0.029222 0.150345 0.366738 -0.454661 0.142682 0.299341 -0.066211 0.142105 -0.702676 0.144505 0.058434 -0.122629 -0.242599 -0.318687 0.333938 -0.103394 0.560963 -0.354998 0.022336 0.300739 -0.183303 -0.329752 -0.245821 0.21931 0.290001 0.415003 -0.191362 -0.094468 0.047998 0.093606 -0.056589 0.217067 -0.203993 0.350719 -0.217912 -0.267736 0.178024 0.304715 -0.357708 0.2858 0.191873 0.044747 0.032602 -0.274041 -0.061524 0.124362 -0.177613 -0.488209 -0.215407 -0.076006 0.127577 -0.376773 0.084981 0.402216 -0.184992 -0.112721 -0.096498 -0.181262 -0.103822 -0.125013 0.102078 0.083802 -0.178012 -0.130001 -0.231351 0.296579 0.126655 -0.102979 0.072613 0.151109 -0.061095 -0.46015 0.138476 0.302771 -0.49645 0.170196 0.228927 0.23021 -0.127408 0.159703 0.090818 -0.010716 0.355806 0.108859 0.109528 0.34557 0.329493 0.06984 -0.133541 0.627606 0.195297 -0.530162 0.281236 0.153463 -0.057755 -0.063176 -0.200884 0.155121 0.008317 0.41266 0.103096 0.149801 0.164355 0.531856 -0.110016 0.067359 0.049329 0.441843 0.291861 0.061886 -0.046155 0.331692 0.404284 -0.502456 0.02428 -0.058127 0.093487 -0.337631 0.548555 0.092883 -0.294195 0.15542 -0.023742 -0.125935 -0.294639 0.054271 -0.28087 -0.596853 -0.466604 -0.500901 -0.003528 0.086957 0.429602 2.63E-4 -0.282314 -0.111196 -0.17924 -0.019738 -0.228765 -0.056659 -0.127066 -0.083759 -0.480004 0.148703 0.292951 0.213275 0.42022 -0.207214 -0.015201 0.027833 -0.31988 0.055308 -0.376626 0.070838 0.248293 0.125336 -0.475925 -0.353755 -0.276987 0.302576 0.183194 -0.09575 0.292083 0.380146 0.063321 0.040024 0.339659 -0.497782 -0.370273 0.257096 -0.18464 0.271051
music 0.078061 0.169237 0.171523 -0.133027 0.037938 -0.221449 -0.074375 -0.33331 -0.103075 -0.304254 0.057439 -0.040862 -0.019581 -0.0806 -0.186993 0.055743 0.096137 0.250636 -0.055189 0.144134 -0.326717 -0.037002 0.211368 -0.100132 -0.074891 0.234104 -0.014097 -0.124769 -0.284649 -0.086117 -0.146686 0.28667 -0.070332 -0.071476 -0.132198 0.035363 -0.038477 0.387153 0.16968 -0.27692 0.286606 -0.061591 -0.038538 -0.024948 0.067278 0.216726 0.263057 -0.050956 -0.064501 0.053084 0.006823 -0.027286 -0.260971 0.033942 -0.011038 -0.04747 -0.107188 -0.065105 -0.284687 -0.074531 -0.297049 -0.088421 0.327753 -0.114325 -0.212068 0.011572 0.404023 -0.146539 0.378991 0.094186 0.054991 -0.09991 -0.061697 -0.059877 -0.253879 0.061086 -0.100315 0.067468 0.060582 0.136819 9.78E-4 0.026106 -0.046787 0.023608 -0.164212 -0.226433 0.062461 -0.147245 0.091578 -0.081775 -0.026549 0.197811 -0.091018 -0.106938 0.151542 -0.053685 0.20473 0.128878 -0.297718 -0.243294 0.069008 0.028823 0.197787 0.009594 -0.026007 0.087422 0.070761 0.027399 0.1864 0.329921 -0.039351 0.04779 0.211325 0.36364 -0.114201 -0.18999 0.003039 0.064021 0.251621 0.318114 -0.027619 0.041094 0.083252 -0.009337 -0.097936 -0.168158 0.246856 0.010424 -0.21064 0.13438 0.034293 -0.254853 0.085555 -0.065144 -0.106462 -0.082457 -0.35427 -0.059027 -0.322708 0.37259 -0.308423 0.016078 -0.199109 0.078702 0.263232 0.093851 -0.225613 0.006196 0.068466 -0.088348 -0.141637 0.189021 0.034394 -0.372544 -0.120572 -0.045316 -0.099298 -0.316647 0.114607 0.028009 -0.019471 0.403497 0.014584 0.164413 0.191702 -0.075552 -0.069855 0.094861 0.079734 0.083975 0.022783 -0.429027 -0.092595 0.007683 0.307774 -0.29273 0.067673 0.300452 -0.128839 0.144992 -0.029299 -0.049448 -0.042067 -0.040231 -0.189169 0.138499 0.095631 0.166615 -0.017666 0.224457 0.06561 -0.039288 0.111961 0.206471 -0.202105 0.19954 0.079812 0.020754 -0.446397 -0.189034 -0.036779 0.150985 -0.043818 -0.115353 -0.041969 0.059706 0.023676 0.039999 -0.09474 -0.117948 0.223557 -0.224878 0.039859 -0.028267 0.051862 -0.003036 0.170393 -0.14459 0.234055 -0.067014 -0.026493 0.14517 0.025164 -0.17126 -0.113433 0.191895 -0.303516 0.22112 -0.077046 -0.289346 -0.155529 -0.063014 0.211841 0.197202 0.132893 -0.094031 -0.150786 0.112425 0.056587 0.162705 0.42271 0.00173 -0.016462 0.054549 0.002844 -0.151006 -0.069585 -0.156172 -0.094286 0.073783 -0.078804 -0.119055 -0.191387 0.038414 0.027745 -0.179778 -0.21162 -0.123931 0.078319 0.321606 0.00745 -0.409847 -0.242601 0.211483 0.068252 -0.21956 0.430167 -0.193812 -0.062777 -0.140945 0.072914 0.196792 -0.113033 0.167064 -0.220043 -0.370733 -0.23388 -0.038904 0.147262 0.101128 -0.106134 0.257304 -0.210717 -0.270881 -0.187988 -0.111715 0.00892 -0.065969 0.188739 -0.212547 0.009954 0.009829 -0.212896 0.312933 0.13645 0.049972 -0.261924 -0.017596 0.037966 -0.096721
record 0.389195 0.056392 0.237154 -0.025349 -0.137564 0.054543 0.106707 -0.414486 -0.111226 -0.146842 -0.069845 -0.025166 -0.091959 -0.018675 -0.098795 0.233602 -0.099497 -0.054075 0.053967 -0.056418 0.025607 0.106905 0.208461 -0.14342 -0.071507 -0.027634 -0.209595 -0.272587 -0.028658 -0.108446 0.0266 0.213205 -0.25125 0.080642 -0.410085 0.063026 0.221023 0.067201 -0.103017 0.127067 -0.008879 0.115434 0.284027 -0.172022 -0.199277 -0.033688 0.130677 -0.350012 -0.059908 0.193182 -0.067012 -0.019648 0.006948 0.22696 -0.006548 0.208208 0.056431 0.194357 0.328685 -0.133777 -0.038426 -0.180656 0.135607 0.099861 0.075579 -0.231219 -0.147609 -0.050357 0.215574 -0.25275 -0.280758 -0.006882 -0.23981 0.006599 0.204007 -0.126633 -0.217521 0.1454 0.149186 0.324213 0.080181 0.389539 0.112156 -0.077491 -0.167045 -0.184934 -0.18357 -0.282263 0.112721 0.142142 0.045303 0.099843 -0.153237 -0.059185 -0.049218 -0.179436 -0.213255 0.251729 -0.151395 -0.037839 -0.265701 0.264747 0.113097 -0.020159 0.14056 -0.145617 -0.014459 -0.074625 -0.050383 0.1302 -0.197136 0.051303 0.158354 0.17879 0.216996 -0.305268 -0.193688 0.179915 0.090615 0.226064 -0.016612 -0.177166 0.183359 -0.210537 0.24347 -0.145554 0.082929 -0.005973 -0.216991 0.102651 0.157617 -0.107865 0.14189 -0.017329 -0.007388 -0.046166 -0.349648 0.04026 -0.25265 0.039419 0.105669 -0.001661 -0.137627 0.053783 -0.058758 0.148006 -0.187363 -0.299187 0.118154 0.102474 -0.022904 0.317532 0.197228 0.371902 -0.320354 0.178255 -0.261399 -0.086905 0.070014 0.041501 -0.009325 -6.64E-4 -0.041243 0.026325 0.074562 0.060066 -0.107779 0.006894 -0.186763 -0.135492 -0.003463 -0.134243 -0.015985 -0.482541 0.071178 -0.057153 0.051647 0.062754 0.201885 -0.230092 0.052912 -0.164828 -0.023944 -0.020677 -0.231635 -0.048443 -0.020817 0.199513 0.050655 -0.128828 0.168204 -0.141767 -0.109408 0.031366 0.14987 0.180885 0.318697 0.06824 -0.162368 -0.118514 0.192958 -0.034801 -0.154727 0.238148 -0.255541 -0.105167 -0.092408 -0.130688 0.001625 -0.053729 -0.22463 -0.256224 0.210138 -0.009859 0.001613 0.040917 0.190867 0.061069 0.218534 -0.110552 -0.054654 -0.098631 0.195269 0.016275 -0.114721 0.05808 0.048702 -0.04562 -0.089726 -0.185152 -0.004389 0.200369 -0.052215 0.106528 0.22527 -0.048554 0.034905 -0.180105 -0.016222 0.242298 0.132121 -0.045182 0.034075 0.31834 -0.087824 -0.137971 -0.123076 -0.213943 0.219582 0.117647 0.133823 -0.204674 0.244766 0.094775 0.168843 -0.112854 -0.204911 0.010621 0.072007 -0.016337 0.136215 -0.016823 -0.062649 0.019193 -0.068173 -0.145319 6.17E-4 -0.149099 -0.054137 -0.074507 0.439931 0.234817 0.052547 0.185546 -0.182572 0.193248 -0.15786 -0.103789 -0.036224 0.010056 0.058445 0.129572 0.008199 -0.255939 -0.18044 0.322776 0.021179 0.007584 -0.051543 0.14177 -0.003262 -0.070154 -0.224257 0.104569 0.032488 0.025059 -0.325887 0.029917 -0.310794 -0.164243
energy 0.271562 0.181606 -0.063689 -0.039865 0.211527 -0.08902 -0.041605 -0.002553 0.137985 0.102106 0.108123 0.090368 0.133728 -0.25929 0.051056 0.235525 -0.103198 -0.103951 -0.025428 -0.18844 -0.280564 0.029256 0.060574 0.238035 -0.094574 -0.0067 0.202043 0.132682 0.079415 0.069999 -0.34244 0.442767 0.06547 0.022695 -0.068189 0.09197 0.189874 0.008702 0.080481 0.025315 0.18061 -0.220035 0.194803 0.025302 -0.412047 -0.038592 -0.105883 0.218985 -0.205104 0.151958 -0.26557 0.023142 0.127081 0.080547 0.0826 0.266118 -0.356961 -0.004651 -0.206923 -0.049139 -0.026415 -0.070087 0.165865 0.089256 -0.312335 -0.280404 0.216175 0.036844 0.020257 0.091 -0.122194 -0.205751 -0.116376 0.122828 -0.436874 0.513218 0.195025 0.427615 -0.03828 0.03059 0.023636 -0.106804 -0.037539 -0.178297 0.139694 -0.022106 0.00153 -0.408617 -0.024734 0.058388 0.160002 -0.219315 -0.283399 -0.00514 -0.093727 -0.24009 0.048553 -0.139553 -0.141948 0.05792 -0.209317 0.463971 0.231451 -0.191973 0.26887 0.022144 -0.119248 0.022233 -0.120429 0.120543 -0.00729 -0.053196 0.218245 -0.212236 -0.071156 -0.110838 0.140696 -0.140781 -0.039739 0.243929 0.073069 -0.105295 0.05087 0.358753 0.009166 0.114233 0.093048 -0.04646 -0.138749 -0.084569 0.083806 -0.067285 0.031207 -0.133621 0.182581 0.068065 -0.118168 0.041397 -0.154024 0.310881 -0.006502 0.020618 -0.203102 0.105064 0.034328 0.113896 -0.16441 0.178797 0.046731 0.048107 0.124867 0.34973 0.198057 0.017673 0.084559 0.11098 0.29052 -0.349685 -0.2216 -0.04086 0.031041 -0.102633 0.100672 0.245746 -0.212602 0.030886 -0.192263 0.095973 -0.04573 -0.039525 -0.151958 0.124383 -0.087639 -0.446709 0.3591 -0.305928 0.005126 0.168826 0.083503 -0.433517 0.087796 -0.048788 -0.169057 -0.063603 -0.098841 0.211244 0.148698 -0.216924 0.236738 0.054112 -0.052023 -0.356369 -0.073626 0.24767 0.505344 0.143531 0.092894 -0.079786 -0.31319 -0.369127 0.116961 -0.046817 -0.018331 -0.11265 -0.139091 0.027168 -0.083793 -0.028792 0.142526 -0.034625 -0.078598 0.067839 -0.043111 -0.217772 0.103123 -0.26111 0.095248 0.05655 -0.14338 -0.332978 -0.168228 -0.004434 0.054281 -0.100555 -0.428537 -0.025173 0.011057 0.253272 -0.064821 -0.140694 0.018687 0.085142 0.160224 -0.04321 -0.131516 0.087968 -0.31913 -0.100906 -0.116634 -0.081155 -0.054919 0.29178 -0.202403 -0.17891 0.003778 -0.075453 -0.266965 -0.36785 -0.227991 -0.288157 -0.134824 -0.257508 -0.166734 0.340898 0.167428 -0.179258 0.076044 -0.311617 0.071111 -0.115582 0.305978 -0.384088 -0.004757 0.039923 0.178827 -0.06089 -0.182405 -0.29518 -0.177565 0.041136 0.197525 0.092173 -0.093377 -0.017909 -0.299306 -0.038784 -0.117441 0.260955 -0.008482 0.086236 0.019021 0.306334 -5.87E-4 0.235051 0.261842 0.05714 -0.031258 0.151877 -0.083719 0.283954 -0.06627 -0.058773 -0.442176 0.32378 0.063619 -0.014062 0.112984 0.177695 -0.448829 0.099711
announcement 0.073782 0.248367 -0.201046 0.099035 0.082013 -0.011859 -0.221576 -0.3509 -0.035397 -0.043991 0.175477 -0.065845 0.256748 -0.093874 0.04288 -0.048032 -0.078796 -0.149143 0.059387 0.53334 -0.13411 -0.183796 0.274575 -0.059756 -0.100097 0.008443 -0.296281 0.167732 0.100736 0.109697 0.473854 0.079945 -0.217695 -0.228217 -0.013935 -0.067369 0.088201 -0.393519 0.190059 -0.293891 0.202154 -0.07315 -0.097747 -0.219624 0.087493 0.028552 0.319847 0.124837 0.096111 -0.097263 -0.072642 -0.07291 -0.017351 0.013599 0.170316 0.214717 -0.078003 -0.240087 -0.147068 -0.063121 -0.064571 -0.061932 -0.030508 0.396152 -0.094245 -0.276633 0.139357 -0.014823 -0.165059 -0.077052 0.090274 0.203636 -0.002635 0.288215 -0.037177 -0.004064 0.214956 0.05083 0.054723 -0.117857 0.003064 0.184727 0.153483 0.12564 0.00863 0.017539 0.138682 -0.289291 0.269772 0.263748 -0.044333 -0.177142 -0.389032 0.012431 -0.05368 0.054817 0.040363 -0.075661 -0.367009 -0.208614 -0.090355 0.65358 0.038711 0.153104 0.053633 0.122952 0.010627 0.209868 0.146587 -0.158492 0.153113 0.405254 0.150537 -0.107939 -0.278669 -0.277935 -0.181483 -0.359703 0.294893 -0.047417 -0.246065 -0.266474 -0.023313 0.095295 -0.096798 0.19159 0.033618 0.166418 -0.158326 0.338337 0.180743 -0.044842 0.037243 0.092986 0.059025 0.028171 -0.486114 -0.025352 0.060825 -0.082384 0.214618 -0.114739 0.302792 0.212129 -0.37958 -0.005126 -0.143482 -0.052774 0.081534 -0.157623 0.039295 -0.037492 0.019908 0.097638 -0.256325 0.300867 0.205147 0.006613 0.226484 0.109759 0.376272 0.117863 0.182163 -0.312383 0.123298 -0.195002 0.023787 -0.066524 0.151962 0.189917 -0.314244 -0.059622 -0.135997 -0.36746 0.057381 -0.38003 -0.205258 0.226456 -0.088048 -0.173367 0.077701 -0.143299 -0.02211 0.069928 -0.215478 -0.191503 -0.051296 0.079603 -0.138536 -0.130195 -0.051701 -0.178288 0.105999 0.153373 0.108925 -0.13851 0.13599 0.085517 -0.130082 0.138132 0.056292 0.298716 -0.139581 -0.038408 -0.162702 0.140677 -0.070525 0.061378 -0.018966 -0.012206 -0.089443 0.066367 0.09 -0.151168 0.136181 0.317639 -0.317475 0.044429 0.244449 -0.41287 0.022151 0.246954 -0.073125 -0.154193 -0.062662 0.091494 -0.019604 -0.101426 -0.08158 -0.084495 -0.112554 0.122764 -0.291543 -0.094388 0.17123 0.01248 -0.071719 -0.146201 -0.276756 0.154418 0.186829 0.066154 0.04892 0.063427 0.058132 -0.062902 -0.152354 -0.397073 0.040962 0.23236 -0.137596 0.011603 0.011841 -0.080883 0.371081 -0.219038 -0.270844 -0.17403 0.063052 0.011391 -0.074699 -0.196869 -0.098785 0.008988 -0.46644 0.084786 0.068326 -0.223671 -0.182038 0.184222 -0.123273 0.243634 0.227009 0.215062 -0.07495 0.098699 -0.239873 0.484168 0.213901 0.179029 0.119663 0.161321 0.191224 -0.232537 0.012229 0.068422 -0.251425 -0.120799 -0.095859 0.05111 -0.235796 0.1092 0.115148 0.428669 -0.102282 0.107855 -0.188128 0.212705 -0.249046 -0.138824
mile 0.046002 0.057139 0.126126 -0.051899 0.168399 0.015584 0.024719 0.213797 -0.123131 -0.109914 -0.368814 -0.174992 0.02091 -0.153361 0.117099 0.127134 -0.036382 0.541326 0.061526 -0.032509 0.108448 -0.09379 0.294143 0.14779 0.23403 -0.01105 0.070893 0.057896 -0.099307 0.106977 -0.17674 0.269421 0.073767 0.162234 0.10708 0.249817 0.112154 0.189614 -0.152707 -0.096472 -0.073306 -0.111373 0.262624 -0.210861 -0.656401 -0.109658 0.027011 -0.096937 9.9E-5 0.057735 -0.280797 0.174598 0.068334 0.228329 0.206274 -0.03286 0.11837 -0.293423 0.101152 0.243716 0.078641 0.002795 -0.10995 -0.347194 -0.09884 -0.220584 -0.121397 0.175403 -0.166874 -0.15956 -5.05E-4 -0.138801 -0.199853 -0.162119 -0.266397 0.154831 -0.288173 -0.217776 -0.212388 -0.250042 -0.054167 0.075801 0.238001 -0.402182 -0.048468 0.378298 0.263781 -0.633069 0.315815 0.220034 0.051519 -0.088599 -0.129875 -0.034561 -0.201315 -0.022325 -0.061064 0.356043 -0.094191 0.039743 -0.132002 0.34562 0.149671 0.245688 -0.051677 -0.554094 -0.154132 -0.105342 0.054201 -0.185259 -0.438694 -0.047126 0.143251 -0.22456 -0.222161 -0.076998 -0.381851 0.204956 -0.447095 0.192908 0.230492 -0.053811 -0.076567 -0.283639 -0.023537 -0.287169 0.097732 0.15313 0.17897 0.011318 0.008856 -0.027697 0.02339 -0.084699 -0.27912 0.251055 -0.125806 0.026069 -0.024577 0.232437 0.260498 0.37368 0.071978 0.09617 0.088094 0.307958 -0.212705 0.272293 0.148662 -0.10763 -0.248246 -0.043572 0.087705 -0.083541 0.434242 -6.88E-4 -0.256759 -0.333449 0.083246 0.29828 -0.030417 -0.031193 -0.182697 -0.267016 0.035965 0.191875 -0.007085 -0.009101 0.196616 -0.207813 0.29521 -0.156644 -0.071055 -0.324315 -0.23413 -0.176313 0.132484 -0.18305 0.227094 -0.033599 0.113518 0.072077 -0.044779 -0.091678 -0.05341 0.070159 0.151598 0.273293 -0.38572 0.139641 -0.128338 0.145213 0.061156 -0.006331 0.156114 0.229117 0.014244 5.33E-4 -0.11096 0.069985 0.775702 0.186517 0.24705 0.063998 -0.285216 0.289175 -0.074012 -0.031631 0.121875 -0.157696 -0.092376 -0.407813 -0.264262 0.007831 0.015678 0.24632 -0.154391 -0.160626 -0.070374 0.125419 0.395577 -0.017331 -0.395689 0.10332 -0.145512 -0.040294 -0.024646 -0.205293 -0.123684 -0.038067 0.191814 0.152996 -0.018703 -0.024452 -0.07361 0.189561 -0.033937 -0.017249 -0.056328 0.239161 0.22538 -0.096916 -0.154458 0.131476 -0.210359 0.156639 0.053586 0.133409 0.246021 -0.223617 0.335517 -0.268923 0.103274 -0.066744 0.373488 -0.276817 -0.498477 -0.09519 0.080408 -0.055566 0.345446 -0.328259 0.110618 -0.035924 -0.139736 -0.226419 -0.023057 -0.189479 0.237972 -0.021847 0.277183 -0.078912 0.107427 0.116216 -0.497294 -0.345295 -0.144019 0.023265 0.049891 0.097643 0.183662 0.068152 0.19094 0.140264 -0.092506 0.165567 -0.17642 0.141288 0.228897 -0.056955 -0.011358 -0.054792 -0.073502 -0.048535 -0.404113 -0.439143 -0.043039 0.209667 -0.195362 -0.306381
airport 0.116166 0.235324 -0.031273 0.056898 0.150721 -0.16472 0.039469 0.353205 -0.074951 0.178578 -0.108061 0.227952 0.31569 -0.047842 0.30299 -0.118898 -0.210767 0.048302 0.051853 0.033474 0.113136 0.082993 0.28741 -0.139911 -0.202061 -0.017372 0.179849 -0.042841 0.191629 0.215548 -0.205717 0.147009 -0.166697 0.015172 -0.105379 0.232069 0.24263 0.031309 0.067849 -0.216317 0.36645 -0.210839 0.18441 -0.167648 -0.261471 -0.439129 0.438455 -0.152349 0.253264 0.183318 -0.361293 0.20236 0.169283 0.319053 0.287013 0.248749 -0.207628 -0.389314 -0.0338 -0.168094 -0.079185 -0.086689 -0.064617 -0.298788 -0.414129 -0.310269 -0.041542 0.142023 0.277895 -0.054268 -0.272672 -0.121028 -0.254687 -0.14724 -0.349228 0.035666 -0.05634 -0.011695 0.015832 -0.174528 -0.181674 0.767639 0.341057 -0.189153 0.057584 0.143528 -0.030023 -0.437222 0.096991 -0.079049 -0.082826 -0.268554 -0.448866 -0.297046 -0.080799 -0.171554 0.228227 -0.00211 -0.048172 -0.188243 -0.023527 0.34948 0.087098 0.277605 0.18178 -0.014838 -0.199986 0.318783 -0.173472 0.131111 -0.077807 0.515508 0.027819 0.29098 -0.161577 0.197145 0.020154 -0.256461 0.163687 0.277714 0.089961 -0.043267 -0.033067 -0.010488 0.028914 -0.033414 -0.078431 0.287791 0.006928 -0.29732 -0.334738 0.003905 -0.003986 -0.051361 -0.181631 0.11167 -0.056109 -0.203314 0.163595 -0.023768 0.015559 0.016982 0.208197 -0.121402 -0.024221 0.076932 0.002583 -0.57275 0.509182 -0.152839 0.077162 0.071804 -0.084238 -0.168702 0.065583 -0.139469 -0.182354 -0.042813 0.043172 -0.074313 0.175855 0.336079 0.042257 -0.256295 0.034156 0.110966 0.038468 0.091906 -0.043326 0.024837 0.167879 -0.035082 -0.033474 -0.257525 0.015009 0.103448 -0.326484 0.142505 0.054241 -0.268425 0.055771 0.080486 0.012475 0.285297 -0.028214 -0.078518 -0.236055 -0.063418 -0.25783 -0.112905 -0.206873 -0.010395 0.103514 0.302274 0.152739 0.162275 0.18177 -0.015923 -0.218374 -0.115605 0.164245 0.532117 -0.024704 -0.093281 0.187409 0.292601 -0.082148 0.283665 -0.011417 -0.199032 -0.025215 -0.015204 -0.131591 0.034111 0.155426 0.044639 -0.125095 -0.018336 -0.147739 -0.053955 0.482842 -0.098537 -0.03041 0.055273 0.06064 0.182893 -0.150843 -0.047543 0.446768 0.061042 -0.121049 0.074869 0.169278 -0.326928 0.188648 0.032481 -0.242279 -0.075002 0.027915 -0.005752 0.041602 -0.274917 0.106355 0.26421 0.128758 0.13857 -0.08175 0.152824 -0.074688 0.011185 -0.306093 0.081294 0.267167 0.143062 0.318947 -0.142512 -0.525631 -0.238538 0.079224 0.235705 0.150779 0.021001 -0.304484 -0.068201 -0.164092 0.055533 0.057893 -0.035571 0.047557 -0.042001 0.024795 0.115191 0.085598 0.095232 0.083155 -0.156197 -0.310681 0.121255 0.117835 0.123622 -0.348088 -0.094191 0.265304 -0.066499 0.255266 -0.188373 0.113748 -0.078377 -0.032372 -0.048802 -0.123617 -0.141443 -0.191231 -0.01913 0.04622 -0.368064 -0.098796 0.045385 0.046588 -0.079192
population 0.415636 -0.22787 -0.166688 0.243297 0.21626 -0.091835 0.138842 0.215072 0.142714 -0.073118 -0.060397 0.349569 0.10034 0.09662 0.115619 -0.356778 -0.218833 0.240057 0.004949 -0.214868 0.021877 -0.029562 -0.086522 0.094585 0.094425 -0.170783 -0.183437 -0.223431 0.145481 -0.039279 -0.162122 0.404412 -0.022807 -0.303825 -0.217265 0.075807 0.146262 -0.084619 -0.037126 0.064423 -0.145006 -0.004757 0.076103 -0.002397 0.120165 -0.146542 0.389126 -0.035329 0.302664 -0.084394 0.251264 0.155296 -0.091471 -0.056398 -0.028567 0.265789 -0.040391 -0.260225 -0.055441 -0.217186 -0.118306 -0.042262 0.049277 0.016033 -0.471314 -0.380265 -0.102425 0.086264 0.148438 0.0066 -0.17602 -0.083476 0.035069 0.103088 0.024819 0.028814 -0.331801 0.331586 0.066476 0.154824 -0.24038 0.073719 0.229559 -0.443069 0.165685 -0.42991 -0.113223 -0.201075 0.306417 -0.117854 -0.090934 -0.174574 -0.49332 -0.356972 -0.140964 0.199498 0.128183 -0.068076 0.248966 0.099056 0.136964 0.279132 0.046593 0.003587 0.157183 -0.030514 -0.06034 -0.100729 0.233923 0.061551 -0.065365 -0.15098 0.114834 -0.090369 -0.418121 0.050765 0.13888 0.056802 -0.102368 0.082447 -0.050658 -0.040106 -0.153681 0.210856 0.061548 -0.098683 -0.166804 -0.107291 0.100669 -0.003136 0.016582 0.165809 -0.023474 -0.087613 -0.020094 0.239006 -0.327105 -0.117355 -0.225855 0.251589 -0.011964 -0.032187 0.009442 0.335295 0.347017 -0.060582 -0.11935 0.121562 0.01457 0.086211 -0.115524 -0.169142 0.276692 0.150438 -0.095256 0.328397 -0.370499 -0.149429 0.061516 0.031222 -0.00367 0.070997 0.273015 0.193534 -0.035825 0.023264 -0.266847 0.219724 -0.068441 -0.230322 0.107657 -0.201067 0.05139 -0.571069 -0.075188 -0.034742 -0.109021 -0.224888 0.172589 -0.050173 0.19662 -0.387298 -0.019377 -0.232235 0.001311 0.224216 0.104905 -0.234051 -0.141755 0.020088 -0.057327 0.328539 0.083104 0.276312 0.01644 0.254352 -0.085082 0.07175 0.119998 -0.030535 0.157448 0.392794 0.342378 -0.18202 -0.195252 0.015987 0.271713 0.129172 0.289711 -0.242371 0.216151 -0.206208 -0.13056 -0.196595 0.139807 -0.001525 -0.131528 -0.120605 0.301535 -0.092839 0.209588 -0.149898 0.023792 0.113833 -0.598875 0.156358 -0.079516 0.193903 -0.068656 0.047431 -0.060186 0.15889 0.065221 -0.120775 0.020976 0.037462 0.011349 -0.413598 0.04371 0.143324 -0.069236 -0.040789 -0.195112 -0.157347 0.149886 0.168288 -0.103725 0.014374 0.01286 -0.08065 0.015246 0.182849 -0.082659 -0.198921 0.507263 -0.163065 -0.216075 -0.105294 0.090093 -0.168785 0.179396 -0.06338 -0.194001 0.370145 0.149118 0.048835 -0.151313 -0.087259 -0.00323 -0.074059 -0.071377 -0.031852 -0.188545 0.209889 -0.080623 -0.047711 -0.256105 0.165206 -0.104831 -0.049917 -0.173891 0.160046 0.21409 -0.153486 -0.041046 -0.344765 -0.010227 -0.10832 -0.113201 0.151456 -0.003929 0.04929 -0.32678 0.100162 0.073646 0.010829 -0.389645 0.191826 -0.312405 -0.06612
planning 0.299496 0.149829 -0.145749 -0.103912 0.097638 -0.045541 0.066647 -0.002025 0.067386 -0.07669 -0.272484 -0.002168 0.063757 -0.096269 0.131577 -0.019036 -0.137499 -0.206957 -0.156186 0.381681 -0.161422 0.196062 0.089688 0.150727 -0.070956 0.179172 -0.041063 -0.208833 -0.1168 0.04245 -0.021934 0.076276 -0.394598 0.016484 -0.123376 0.157418 -0.110679 -0.096377 0.078602 -0.117778 0.340898 -0.01892 -0.058538 -0.039763 -0.049516 -0.243147 0.10201 0.007679 0.210724 -0.201726 -0.122813 0.187195 0.012375 -0.147687 0.169513 0.291972 -0.146909 -0.153655 0.056291 -0.047422 -0.375111 -0.109768 0.215353 -0.374788 -0.106001 -0.168985 -0.123769 0.216377 0.026627 0.274623 -0.09881 -0.030225 -0.135576 0.141296 -0.245363 0.133597 0.076397 -0.114442 0.085618 -0.02418 -0.03141 -0.213257 0.267065 -0.155761 -0.080618 0.057653 0.061629 -0.26278 0.298105 -0.211143 0.087258 -0.103291 -0.315208 -0.247431 0.241618 0.085363 -0.209499 0.148134 0.064908 -0.022686 -0.024832 0.215695 0.245898 0.04988 0.017523 -0.167346 0.039877 0.012877 -0.120398 0.161235 -0.01495 0.200504 0.271721 -0.138925 -0.011936 0.016494 0.19433 0.034139 0.012533 -0.126775 -0.121597 -0.109822 0.08577 0.014406 -0.082093 0.062989 0.036918 0.199765 -0.269342 7.1E-5 -0.044781 0.11014 0.173264 -0.024034 0.133169 0.119481 -0.331706 0.133007 -0.107035 -0.117869 0.063352 -0.122523 -0.19756 0.055422 -0.132618 0.030768 -0.188826 0.055887 0.126321 -0.204751 0.21031 0.016826 0.132601 -0.083737 -0.025886 0.375689 -0.005448 -0.078418 -0.004429 -0.099412 0.215066 0.057605 0.022112 -0.062656 0.048091 -0.028882 -0.096372 0.039993 0.148814 -0.024969 0.08661 -0.2093 -0.178885 -0.173257 0.35074 -0.016985 -0.221906 0.114826 0.021852 -0.272695 0.172113 0.183713 0.075772 -0.142163 -0.111491 0.188786 0.173715 0.161408 -0.233699 0.001233 -0.07825 -0.36305 0.06691 -0.032897 0.194407 -0.123557 -0.056379 -0.313283 -0.392085 -0.104026 0.012831 0.008292 -0.143984 -0.123043 -0.14778 -0.089466 -0.125186 0.290839 0.092395 0.012537 0.176521 -0.05283 0.289758 0.05556 0.144031 0.205051 0.174897 0.021305 -0.147572 -0.39428 -0.032551 0.088627 -0.037637 0.242431 -0.151546 0.001259 -0.04952 -0.064648 0.143842 -0.118883 -0.091707 0.029441 0.027285 -0.022402 0.084703 -0.133809 -0.05259 -0.123459 -0.10026 -0.18421 0.150004 -0.095411 -0.056716 -0.161192 0.252975 -0.137413 0.097781 -0.24277 0.136556 0.112887 -0.095859 -0.176489 0.050396 0.205159 0.013859 -0.214836 -0.312855 -0.289892 -0.051289 -0.048683 -0.012404 -0.106229 -0.050923 0.082702 0.018018 0.106636 0.055062 -0.148119 0.014495 0.044138 0.106323 -0.129631 0.061442 0.199845 0.003014 -0.19424 -0.091786 0.195592 -0.049105 -0.119134 -0.071298 0.022675 -0.181854 0.086666 0.090423 -0.058241 -0.166252 0.130946 -0.088996 0.083077 0.17785 0.151229 -0.077174 0.206855 -0.205123 0.141321 -0.199515 -0.132143 -0.094704 0.292279
canyon -0.133779 0.16227 -0.075965 0.21975 -0.041659 0.048679 -0.093035 0.194836 -0.119667 0.156694 -0.422321 -0.042323 0.184296 -0.103685 -0.088536 0.211096 -0.340323 0.212868 0.182116 -0.197481 -0.016694 -0.022645 0.040079 -0.209919 0.107624 0.040791 -0.128991 0.119806 0.116629 0.164228 -0.109053 0.212936 0.112524 -0.223154 0.035176 0.104146 0.054287 0.162866 -0.055059 -0.269357 0.066447 0.014199 0.164213 0.174869 -0.516503 -0.207823 0.216513 0.044497 0.288632 0.05054 -0.071068 0.060676 0.084948 0.023864 0.221343 -0.146258 -0.022505 -0.204652 0.087252 0.147618 0.004049 -0.011366 0.233597 -0.127452 -0.335959 -0.300867 -0.239542 0.182539 0.314976 0.06301 -0.044566 -0.108492 -0.162096 -0.325077 -0.282409 0.12807 -0.070904 0.093944 -0.13027 -0.325988 0.218041 0.1854 0.243935 -0.223864 0.146792 0.160803 0.038936 -0.309207 0.185084 0.196674 -0.115778 -0.226401 -0.244378 0.105953 0.041201 0.086838 -0.026338 0.109026 -0.091263 -0.250878 -0.313586 0.177138 0.154448 0.024186 -0.102952 -0.323311 0.10424 -0.04542 -0.070029 -0.01042 -0.402968 0.161544 0.077838 -0.085007 -0.298817 -0.259403 0.058225 0.096904 0.219087 0.153398 0.21123 -0.287199 -0.219941 0.004662 0.023957 -0.331348 0.132812 0.035188 0.093858 -0.009759 0.102906 -0.096933 0.056019 -0.27969 -0.047178 0.329581 -0.065896 0.027509 -0.153713 0.118068 -0.226187 -0.023399 0.063839 5.0E-6 0.051512 0.073262 0.247862 0.221252 -0.173226 -0.275055 0.091497 -0.05921 0.196006 -0.172438 -0.02241 0.014063 -0.037017 -0.300441 0.029963 0.133438 -0.229309 0.345648 -0.089467 -0.151525 0.233031 0.42344 0.229704 0.351681 0.17913 -0.013211 0.268905 -0.180285 -0.034927 -0.40071 -0.063538 0.027882 -0.07733 0.133516 0.03671 -0.121488 0.194207 -0.259652 -0.093809 0.008629 0.106072 0.229635 0.05041 0.183469 -0.313353 0.168838 0.218873 -0.140646 -0.069759 0.238922 0.028683 0.386449 0.068168 -0.16691 -0.150298 -0.300734 0.238349 0.27555 0.290679 0.07347 -0.095601 0.187113 0.034902 -0.06885 0.010079 -0.137289 0.039207 -0.127152 0.03722 0.050163 0.26749 -0.129456 -0.091646 -0.186033 -0.055961 0.306078 0.218151 -0.051427 -0.125422 0.252129 -0.221724 0.022101 -0.257752 -0.243066 -0.001228 0.040306 -0.08648 -0.136292 0.022428 0.162731 -0.10243 -0.067124 -0.150065 -0.019596 0.086262 0.263531 0.038203 2.94E-4 -0.357759 0.246604 0.160845 -0.058998 -0.035468 0.091989 0.281583 -0.069715 -0.022254 0.065329 0.241579 -0.094892 0.008213 0.024719 -0.464372 0.123407 -0.221912 0.118185 0.245944 -0.069431 -0.17701 0.138994 -0.089271 0.082545 0.153253 -0.266066 0.137457 -0.182024 0.091743 -0.096019 -0.13123 0.036191 -0.161796 -0.327177 -0.169311 0.105594 -0.173801 0.295286 0.085685 0.201972 0.222539 0.188868 -0.192495 -0.106897 -0.022814 -0.05966 0.291505 0.345879 -0.089008 -0.251295 -0.047182 0.130741 -0.010502 -0.11053 -0.165022 -0.056095 -0.188114 -0.214143
delay 0.129435 0.166466 0.070595 -0.359388 0.0375 -0.001178 -0.136065 -0.026099 -0.216729 0.046024 0.07797 0.003574 0.116312 -0.009146 0.140617 0.010396 -0.415334 0.038178 -0.042901 0.182322 -0.046487 -0.138775 -0.00925 0.167545 -0.017645 -0.184528 -0.164833 -0.027002 0.101752 -0.032428 -0.115782 0.083972 -0.091787 0.099349 0.103061 -0.094069 -0.096006 0.001731 0.221132 -0.118391 0.110057 -0.043477 -0.036606 -0.220443 -0.05807 -0.316975 0.085685 -0.086612 0.221261 0.040857 0.129173 -0.047361 0.269787 0.067427 0.301609 0.194311 -0.070397 -0.035011 -0.067905 0.041647 -0.020152 -0.075737 0.298483 0.085911 -0.124553 0.030827 -0.069687 0.390885 -0.143488 0.03109 -0.32922 0.14134 -0.090903 -0.069468 0.308312 -0.058675 0.027644 -0.075207 0.373347 -0.094108 0.260805 0.140671 -0.050458 0.066885 0.103525 -0.085927 0.021868 -0.250424 0.230124 0.156566 -0.029419 -0.11316 -0.345323 -0.206849 -0.178931 0.031715 -0.021666 0.122591 -0.009738 -0.03538 -0.127851 0.371631 -0.098907 0.265145 -0.003281 -0.154427 -0.020144 -0.124582 -0.146972 -0.042484 -0.132014 0.186965 0.154943 -0.127366 -0.222094 0.142487 -0.112482 -0.006167 0.003837 0.038656 0.017453 -0.113536 0.137263 -0.109774 -0.149379 0.095094 -0.198156 -0.05425 0.035916 0.101247 -0.056585 -0.199412 0.279201 -0.02759 -0.016255 0.271765 0.024275 -0.111788 -0.028628 -0.12669 -0.102052 -0.070199 0.013402 -0.028514 -0.17536 0.051442 -0.213834 -0.127327 0.022318 0.106328 0.022538 0.010141 -0.004038 0.054093 -0.159634 0.322023 -0.229307 -0.191303 0.056886 -0.148025 0.199565 0.158142 0.156914 -0.193741 0.335153 -0.012395 -0.147453 0.080305 0.013598 0.269605 0.013399 -0.178096 -0.100339 -0.134608 0.412587 -0.115697 -0.103058 0.422083 -0.053018 -0.195484 -0.134318 -0.064726 0.14432 -0.029665 -0.315418 0.064397 -0.059056 -0.110546 0.265439 -0.105327 -0.096498 0.02245 0.132378 0.133589 0.164777 -0.088784 -0.039077 -0.098485 -0.154656 -0.093927 0.087983 0.183192 -0.213498 -0.25443 -0.249056 0.165289 -0.116244 -0.106228 0.024425 -0.103319 0.204994 0.121361 0.187534 -0.225596 -0.029755 0.291068 -0.163399 0.087475 0.058129 -0.356873 -0.196793 0.418539 0.196977 -0.217554 -0.127924 -0.150086 -0.167256 -0.090484 0.062204 -0.146586 -0.045569 0.2896 -0.031409 0.105427 0.090556 0.053445 -0.106648 -0.311217 -0.131679 -0.218548 0.135797 -0.231914 -0.079497 0.105738 -0.074653 -0.195171 0.385997 -0.208652 -0.077118 0.015169 -0.017503 -0.228865 0.069725 0.193704 0.303361 -0.156965 -0.378278 -0.506311 -0.138589 -0.176962 0.089669 -0.176402 0.145513 -0.095189 -0.03713 -0.010926 0.299684 0.0399 -0.175616 0.091799 -0.038896 0.002049 0.228218 0.125386 -0.083914 0.016097 -0.51528 0.20357 -0.148479 -0.097835 0.258717 0.218733 0.12059 -0.096535 0.146278 -0.005808 -0.285647 -0.109428 0.019287 0.173974 0.180044 0.223065 -0.140234 0.207548 -0.210001 -0.038355 0.135739 0.10898 -0.123475 -0.132311
size 0.213367 0.064476 0.009964 0.143932 -0.046883 -0.050602 0.043533 0.150608 -0.181067 -0.062425 -0.081241 0.043527 0.075985 -0.088167 0.152454 0.251536 0.013012 0.028386 0.037265 0.04277 -0.020473 0.112044 0.378895 0.25961 0.080973 -0.119608 0.01343 -0.052321 0.178196 -0.034819 -0.202988 -0.047765 -0.163698 -0.121902 -0.050103 0.084691 -0.318894 0.068653 0.195559 0.308099 -0.15302 0.05048 -0.259403 -0.113771 -0.074272 0.032832 0.240141 -0.111177 0.410796 -0.153634 -0.036353 -0.15468 0.248912 -0.035515 0.259728 -0.099583 0.203717 -0.178731 0.004151 0.252476 -0.228104 0.171967 -0.042473 -0.020795 -0.361041 -0.300122 0.028791 0.359097 0.232104 -0.25449 -0.026377 -0.170097 -0.052911 0.227534 -0.068412 -0.097067 -0.16893 0.343659 -0.041438 -0.019542 -0.169913 0.135527 -0.062244 -0.327432 0.069986 -0.174359 0.174401 -0.196456 0.311571 -0.213955 -0.066658 0.048703 -0.27986 0.073944 0.121434 0.277208 0.072075 0.063059 -0.07247 5.08E-4 -0.062018 0.445417 0.080014 -0.168231 0.131177 0.059109 0.188747 0.187678 -0.178753 -0.109074 -0.021377 -0.072883 0.058656 -0.156677 -0.519828 -0.104201 -0.015017 0.108012 0.133106 0.319749 -0.208667 -0.197009 -0.016018 0.051073 -0.084434 -0.096554 0.093243 -0.019432 0.126306 0.126243 0.020426 0.067838 -0.028776 0.055331 -0.075657 0.123945 -0.072023 -0.071735 -0.062558 0.275889 -0.093771 -0.11823 -0.029103 0.137259 0.390088 0.016347 -0.317281 0.318231 -0.18521 -0.058158 -0.089619 0.267496 0.172506 -0.004179 -0.040536 0.257214 -0.156078 -0.08458 0.130974 0.152936 0.136129 0.017137 0.273906 -0.005674 0.092101 0.139359 -0.13062 0.445951 0.140655 -0.032639 -0.188493 0.161773 -0.155217 -0.368808 -0.005235 -0.222317 0.011972 0.085005 0.401438 -0.188791 -0.01976 -0.318011 0.162857 -0.220543 -0.020909 0.104113 -0.057064 0.092476 -0.033697 0.093511 -0.096489 -0.087155 0.17469 0.229821 0.046433 0.335765 -0.048017 0.002554 0.206408 0.116416 0.396072 0.265162 -0.058548 -0.125092 -0.106674 0.109001 0.368566 0.166407 0.19669 -0.009822 0.071288 0.159475 -0.162168 0.065895 0.299351 -0.052766 -0.2292 -0.072576 0.141381 -0.171594 0.044322 0.080777 0.105413 0.102358 -0.396528 0.056173 -0.104184 0.159244 -0.048314 -0.012591 -0.023055 0.062443 -0.253699 -0.193108 0.120281 0.25467 0.025363 0.068982 0.151965 -0.004672 0.200167 -0.068566 -0.04977 -0.209269 -0.055118 0.089501 -0.066173 -0.112928 0.282722 -0.114151 0.07778 -0.040209 -0.147504 0.176055 0.43712 -0.011311 -0.18139 -0.061018 0.068422 -0.134549 0.144855 -0.022846 0.047765 0.163381 0.029375 -0.069453 0.095424 0.101198 0.261096 0.034745 0.374723 -0.142364 -0.015128 0.187354 -0.009989 -0.183343 -0.382154 0.072364 -0.123079 -0.13383 0.181008 -7.93E-4 -0.012505 0.163343 0.133581 -0.144286 -0.182316 0.148735 -0.082703 -0.063223 -0.125193 0.071974 -0.306026 0.251113 -0.046605 0.012168 -0.104759 0.153018 -0.048013 -0.165455
peace 0.213575 0.109797 -0.086015 0.057498 -0.2137 -0.066671 0.261804 0.05848 -0.096835 -0.066004 0.089962 0.30384 0.048755 0.178772 0.328999 -0.184393 -0.263582 -0.448554 0.038686 -0.101706 -0.571802 0.096214 0.5088 -0.059494 -0.262039 0.051321 -0.089184 -0.147397 0.330828 0.18337 0.301044 -0.08286 0.302717 -0.114532 0.083202 0.110294 0.250593 0.062851 -0.17726 -0.182727 0.383858 0.287585 0.254013 -0.411378 -0.137649 0.139606 0.275873 -0.136582 -0.070195 -0.235229 0.001854 -0.025338 0.22957 0.244623 -0.235338 -0.206624 -0.253149 -0.025338 -0.033089 0.035849 -0.005496 -0.346641 0.123299 -0.303734 -0.367039 -0.34382 -0.02881 0.016588 0.173223 0.17194 -0.291371 0.445226 0.10037 0.082777 -0.375544 -0.15065 0.014587 0.027656 0.197497 0.082798 0.031326 -0.512963 0.018016 -0.227032 -0.151973 0.118651 -0.358738 -0.184097 0.147691 -0.061331 -0.040489 -0.078097 -0.425998 0.087583 -0.324614 -0.250311 -0.113481 -0.159082 -0.186143 -0.180926 -0.036831 0.016351 -0.277875 -0.12061 0.026647 -0.200938 -0.025318 -0.325226 0.109393 0.161444 0.069172 0.347509 0.575035 -0.286511 -0.276678 -0.264669 0.47256 -0.270667 0.145718 0.138364 0.375083 -0.028283 0.342043 -0.199791 -0.181655 0.198353 0.132346 -0.035036 0.153003 0.278139 0.081251 0.043966 0.283287 0.051784 -0.205795 0.223135 -0.237992 -0.015331 -0.190015 -0.145511 0.351918 -0.161265 0.02799 -6.52E-4 0.143392 0.276536 -0.089947 0.226887 0.124866 0.193419 -0.374241 0.300698 -0.079377 0.21755 -0.103416 0.500396 -0.037972 -0.224101 0.237254 -0.037641 0.063418 0.209742 -0.292686 0.143568 0.173997 -0.322945 0.235855 0.145477 -0.345 -0.084859 0.054595 -0.106461 0.348304 -0.107732 0.282481 -0.336571 0.204144 0.134597 0.219474 -0.075354 0.17796 -0.147948 -0.140272 0.085688 -0.255637 -0.281186 0.38629 -0.044043 0.138662 -0.017189 0.075076 0.090475 -0.553215 0.205341 0.155292 -0.159751 -0.068212 -0.043709 -0.216629 -0.469319 0.041685 0.145518 0.237544 -0.051046 -0.019179 0.31452 0.167066 0.258161 -0.044592 -0.005113 0.507897 -0.095199 0.161689 -0.16378 -0.196741 0.425576 0.024701 0.207064 -0.112233 -0.087464 -0.528475 0.140336 0.224647 -0.254149 -0.314791 0.460719 -0.054804 -0.009158 -0.009804 -0.008299 -4.89E-4 0.519971 0.199462 -0.257913 0.13592 -0.420363 0.01335 -0.109219 -0.229755 0.069245 0.188315 -0.070512 -0.112758 -0.050892 0.343998 -0.030846 -0.215005 0.034079 0.031348 0.339894 -0.121397 -0.061133 0.179239 -0.129067 0.335317 -0.130266 -0.341409 -0.169378 -0.285094 0.056579 -0.015594 0.104473 -0.281814 -0.050921 -0.19738 0.044907 0.329569 -0.271344 -0.064447 -0.065563 -0.187735 0.476683 -0.089168 -0.051557 -0.429814 -0.229998 -0.596054 0.069389 -0.274731 0.028682 -0.361052 0.36775 0.40941 0.15067 -0.174071 -0.234923 -0.191818 0.361419 0.227379 0.153764 0.03729 -0.010223 0.027938 0.163848 -0.320219 -0.332534 -0.138824 0.352649 0.022808 -0.328675
science 0.300998 0.135823 -0.004098 0.019353 -0.084346 -0.127587 -0.095167 -0.139838 -0.219959 0.203911 0.099767 -0.254092 0.153454 -0.245637 0.242521 0.181501 0.448561 0.117259 -0.100579 -0.098419 -0.323288 0.378201 -0.206384 2.68E-4 0.13361 -0.116376 0.098677 0.033005 -0.024595 -0.135759 -0.03616 0.37729 -0.152508 0.006395 -0.016909 0.138146 -0.062034 -0.111295 0.193677 0.067216 0.045641 -0.015598 -0.025943 -0.223858 -0.0538 0.083234 0.382843 -0.259034 0.233748 -0.054069 -0.253887 0.051238 -0.125922 0.262668 -0.031966 0.288024 -0.040684 -0.196739 0.112516 0.204833 -0.078054 -0.230017 -0.091562 -0.049682 -0.129183 0.171464 -0.024264 0.014413 0.281928 0.22476 0.052791 0.111723 0.138322 -0.025948 -0.457253 0.19204 0.111894 0.353836 0.161945 0.045773 0.090589 -0.113486 0.080842 -0.188245 -0.068674 -0.314963 -0.059662 -0.181854 0.289234 -0.018504 -0.170551 0.040917 -0.525239 0.211087 -0.212567 0.189449 0.237886 -0.043922 0.02696 -0.092715 -0.304153 0.013942 -0.06387 -0.082186 0.080231 -0.389697 0.030242 -0.009145 0.057883 0.09641 -0.237486 0.348492 0.434247 -0.047221 -0.216851 0.105434 0.253045 0.234599 -0.078915 0.080542 0.05261 -0.209112 0.077934 0.304605 0.001137 0.037591 -0.117577 -0.194608 -0.070792 0.041519 -0.038986 -0.110878 -0.226356 -0.149462 -0.268967 -0.055938 -0.036161 0.154216 -0.452864 -0.087569 -0.183495 0.060767 -0.12267 0.016339 -0.024297 -0.203741 -0.434468 0.021121 -0.19085 -0.209362 0.112589 0.118067 -0.047917 -0.138416 -0.156736 0.024916 0.165736 -0.291263 -0.038593 -0.049978 -0.225436 0.107727 0.130064 0.138134 0.038941 0.26523 0.136679 -0.00904 -0.178178 -0.042043 -0.033834 -0.287102 0.016563 -0.349107 0.47179 -0.206402 0.025987 0.149318 0.104838 0.01723 0.210661 -0.194733 -0.010098 -0.04073 -0.006456 0.161965 0.273535 -0.096601 0.18147 0.158704 -0.197251 0.090503 0.190862 0.095942 -0.01719 -0.109601 -0.030415 -0.240686 -0.053515 -0.06198 -0.091429 0.07362 -0.032524 0.021607 -0.146345 0.092877 -0.012828 -0.193195 -0.122643 0.020131 0.075487 0.188626 0.212867 -0.174827 -0.020844 -0.109961 -0.026351 0.015074 -0.042693 -0.405151 -0.122387 -0.075173 0.11535 0.139401 -0.08371 0.059873 -0.051252 0.141784 -0.069596 0.270604 0.159613 0.091798 0.118844 0.240457 -0.078005 -0.116262 -0.063103 0.069225 -0.186588 -0.250407 0.125723 0.094347 -0.110579 0.371654 0.106969 0.037685 -0.130504 -0.124933 -0.272493 0.066429 -0.368565 -0.021254 -0.070384 0.017283 0.186954 0.068062 -0.266409 -0.18908 -0.103027 0.285227 0.292979 -0.357925 -0.249053 0.039401 0.252248 -0.095402 0.281475 -0.205762 0.06812 -0.231478 -0.026053 0.161228 -0.157929 0.353555 -0.090448 -0.053725 -0.217402 0.364169 -0.040384 -0.182236 -0.064938 0.087291 0.123111 -0.154012 0.010945 -0.008834 -0.070903 0.279986 -0.103015 0.027522 0.144616 -0.097666 -0.085449 7.43E-4 0.006032 0.078764 -0.08099 0.36018 -0.221931 -0.024544
dawn 0.016213 0.173957 0.047237 0.106434 0.107428 -0.248576 -0.18753 0.106798 -0.169925 0.148353 -0.168934 -0.070636 0.15328 0.037344 -0.14435 -0.099208 -0.134766 0.221151 -0.179 -0.048751 -0.213397 0.148755 0.265472 -0.060722 -0.00775 0.008113 0.248975 0.100654 -0.093243 -0.086213 -0.12253 0.04476 -0.087737 -0.079443 -0.123863 0.294876 0.139214 0.07096 0.089561 -0.146258 0.331219 0.242544 0.118397 -0.186493 -0.296623 -0.44796 0.454055 0.223106 -0.169946 0.177906 -0.333302 0.190063 0.138488 0.039986 -0.152191 0.107127 0.254973 -0.032143 0.105414 -0.005978 0.090009 0.015003 0.214871 -0.073372 0.205445 -0.420296 -0.090829 0.020262 0.240429 -0.061224 -0.129061 0.174243 -0.370397 -0.093796 -0.210317 0.101147 -0.139917 -0.097213 0.010319 -0.083749 -0.164886 0.196996 0.310775 -0.321764 -0.175973 0.205509 0.04708 -0.422524 0.298553 -0.052877 -0.189668 -0.041122 -0.355548 -0.201385 -0.046981 0.018821 -0.098682 -0.057346 -0.237673 -0.187262 -0.011499 0.056252 0.245478 0.422262 0.033559 -0.117106 0.193714 0.271905 -0.103512 0.19709 -0.124912 0.266175 0.201552 0.038453 -0.347071 0.081077 0.138197 0.1063 0.271829 -0.240022 0.109693 -0.064723 0.197074 0.123436 0.126256 -0.044712 0.065974 0.170823 0.019752 0.031121 -0.080475 -0.027229 -0.371677 -0.095526 -0.217783 0.410052 -0.142422 0.083852 0.171128 0.01808 0.092941 -0.276503 0.230224 -0.105134 -0.254263 0.006811 -0.124047 -0.011259 -0.177987 -0.148691 0.096427 0.075719 -0.076602 -0.237758 0.208646 0.040503 -0.164597 -0.214735 0.218308 0.033449 0.102545 0.212511 -0.126316 -0.51867 0.1464 -0.17823 0.090026 0.419577 -3.25E-4 0.195935 0.082247 -0.30824 0.113676 0.053517 -0.301189 -0.185786 0.103224 0.232819 -0.237647 -0.194658 0.086302 -0.010773 -0.060749 0.375263 -0.005442 -0.259204 -0.059331 0.019322 -0.096894 -0.055629 0.119094 -0.428142 -0.279577 -0.063762 -0.238832 -0.045378 0.022567 -0.09657 -0.130656 -0.37077 0.084977 0.179481 0.082755 -0.107008 -0.120724 0.289646 0.002258 0.01509 0.093812 -0.055659 -0.087198 -0.114664 -0.008062 0.148587 -0.019595 0.026895 -0.290563 -0.043771 0.08503 0.105845 -0.035269 -0.043492 -0.029886 0.274256 -0.065507 -0.072309 0.039412 -0.223002 -0.103652 -0.206193 -0.21776 0.056247 0.074109 -0.015666 0.11802 -0.048774 -0.169396 -0.210068 0.060599 0.362262 0.124263 0.027085 -0.239956 0.317243 -0.095555 -0.143713 -0.120876 0.019906 0.018294 -0.145572 -0.069628 -0.155711 0.505291 -0.040687 0.221878 -0.03602 -0.058616 -0.189456 0.285372 0.018566 -0.013993 -0.164673 -0.302162 -0.277275 0.021984 0.094248 0.341059 -0.182642 0.308286 0.159134 -0.390287 0.067585 -0.205399 0.150577 -0.338148 -0.167513 -0.351622 0.041377 0.153092 0.209136 -0.279545 0.143293 0.3151 0.141574 0.110808 -0.194359 -0.099187 -0.129169 0.011941 0.080287 0.11772 0.068639 -0.119668 0.060145 0.222303 -0.085968 -0.311486 0.025652 -0.233387 -0.217077
brother -0.084288 0.295287 0.079667 -0.304615 -0.0418 -0.005612 0.279705 0.001405 -0.279654 0.06399 -0.027086 -0.15594 0.08597 0.218666 0.065715 -0.361857 0.001811 0.010563 -0.02741 0.222124 -0.437509 0.153706 0.151947 0.345706 -0.08946 -0.406594 -0.085691 -0.350136 -0.230146 0.006159 0.164686 0.322915 -0.057376 0.076574 -0.344615 -0.071086 0.11697 0.397325 0.023668 -0.132684 0.110673 -0.030158 0.075125 0.05339 -0.069999 -0.13798 0.051939 0.075618 -0.092281 0.099506 -0.168566 -0.242255 -0.066159 -0.070876 0.163061 0.149788 -0.160972 0.084249 -0.081803 -0.329755 -0.080445 -0.068153 0.149545 -0.394406 -0.145651 -0.237492 0.091447 0.333416 0.409422 -0.006504 -0.003707 0.065761 0.318389 0.079412 -0.03774 0.089977 0.028825 0.092272 0.068852 -0.327223 0.374451 -0.226851 -0.054628 -0.152183 -0.132815 0.272588 -0.09803 -0.291999 0.250111 -0.384679 -0.089811 -0.106179 0.141372 0.084702 -0.1498 -0.003956 0.205903 0.05022 -0.249012 -0.151724 -0.041783 -0.029551 -0.084184 -0.077858 -0.109922 -0.163094 -0.224461 0.104969 -0.153192 0.002384 -0.145883 -0.272412 0.035545 0.005563 -0.396078 -0.144123 0.300085 -0.214923 0.248776 0.008805 0.11034 -0.339825 -0.036636 0.321682 -0.137593 -0.22273 -0.112487 0.252635 0.032114 -0.127918 -0.17473 0.206982 -0.133964 0.267215 0.149509 0.070508 -0.526523 0.101583 -0.241001 0.063783 -0.024408 -0.345073 0.011825 0.297983 -0.113407 0.094997 -0.130301 -0.232411 0.067137 -0.185176 0.134104 0.015887 0.216607 0.184636 -0.077282 0.25599 -0.142283 0.008792 -0.31453 -0.041389 0.103204 -0.032806 -0.019355 -0.023836 0.329826 -0.017216 -0.397197 0.121184 0.245079 -0.157736 0.064603 0.001135 -0.113408 -0.085623 -0.087901 0.07934 0.014514 -0.14151 -0.006399 -0.047499 -0.144612 0.091328 0.054867 -0.292854 -0.083997 -0.363755 -0.188074 -0.11246 0.140362 0.249633 0.350697 0.128843 -0.110654 0.20414 -0.013943 -0.10835 0.272102 0.156599 -0.214145 -0.192845 0.122784 0.259409 -0.374808 -0.23735 -0.174533 -0.103653 0.260442 -0.099325 -0.165572 -0.080095 0.106882 0.143155 0.102195 0.230607 0.02501 -0.078799 0.024336 0.094335 0.089696 -0.114688 0.376145 0.144745 -0.232492 -0.1734 -0.165396 -0.057239 -0.143096 0.051234 0.256973 -0.005151 0.034171 0.155868 -0.336422 0.018687 0.082666 -0.032911 -0.001126 -0.346128 -0.194468 0.213131 0.471273 -0.007277 0.010361 -0.051224 0.220684 -0.178839 0.396567 0.035276 0.085331 -0.005069 -0.123129 -0.048409 0.17368 -0.192643 -0.063197 -0.078021 -0.314547 -0.123861 0.051253 0.231986 -0.039121 0.151955 -0.155333 -0.297374 -0.03119 0.197806 -0.208317 -0.173975 -0.123506 -0.024703 -0.124427 0.156467 0.066983 0.182649 -0.196541 -0.170677 0.095511 0.241732 0.218322 -0.154751 -0.150398 -0.030675 -0.043017 -0.138382 0.128948 -0.034214 -0.011065 -0.207875 0.01048 -0.197635 -0.092546 0.188071 -0.075878 0.080387 -0.140235 -0.278236 -0.042664 -0.002742 -0.280878 0.109594
wine 0.452704 0.394236 -0.322834 0.023278 0.081037 0.067798 0.033038 0.014115 -0.086739 -0.017547 -0.107305 -0.075219 0.001505 -0.253333 0.147482 0.182555 0.251974 -0.085355 0.016996 -0.114443 -0.204832 0.011473 0.11642 0.076649 0.015372 0.134061 -0.198057 -0.112627 0.093636 -0.200704 -0.182299 -0.055057 0.213829 -0.17661 -0.175791 -0.026044 0.048052 0.311364 -0.174641 -0.141206 0.153192 -0.003071 -0.026715 0.203678 -0.08667 0.032751 -0.018185 0.048567 -0.022655 0.101059 -0.231329 0.008682 -0.095278 -0.077531 -0.257895 0.112748 -0.146947 -0.127445 0.015884 0.110558 -0.021348 -0.415786 0.234025 0.011131 -0.198708 -0.49349 -0.146783 -0.115935 0.387447 -0.007726 -0.131903 -0.262029 -0.009129 -0.175967 -0.015689 -0.256448 -0.115894 -0.128594 -0.138456 -0.220619 -0.014924 0.022704 -0.102166 -0.067329 0.233131 -0.183411 0.065186 -0.380313 0.357378 -0.416608 0.007891 -0.006675 -0.656526 0.159741 0.203803 -0.029573 0.316118 -0.209543 -0.060481 -0.088385 -0.151836 0.378722 0.263081 -0.006654 -0.075536 0.249915 0.161574 -0.146559 -0.195055 0.162631 -0.112784 0.518662 0.206506 -0.155612 -0.054714 -0.170492 -0.055922 0.299587 -0.049042 0.279912 -0.140765 0.21668 -0.058546 -0.107424 -0.259838 -0.398155 0.227963 0.006022 0.109806 -0.25656 0.219459 -0.086781 0.194006 -0.198335 0.089426 0.12735 -0.227198 0.15084 0.01546 0.397959 0.221217 -0.030522 0.030593 -0.168101 0.290561 0.260261 -0.195466 0.27701 0.263231 -0.050999 0.089021 -0.150052 -0.155809 -0.239191 -0.080848 0.080992 -0.117825 -0.229754 0.067678 -0.095557 -0.060175 0.091249 -0.024383 0.071584 2.74E-4 0.125023 0.058484 0.119516 0.190145 -0.217304 -0.033275 -0.178561 -0.1992 -0.160447 0.189719 -0.052325 -0.102552 0.063342 -0.140262 0.150689 0.048796 -0.130658 -0.242512 0.222514 0.165418 0.006883 -0.021819 -0.045179 -0.072691 0.24764 0.27709 0.181347 -0.098819 0.312161 -0.163003 0.259538 0.320252 -0.01286 -0.199274 0.017934 0.124273 0.134423 0.081989 -0.094968 -0.120423 0.14389 -0.014945 -0.142688 0.029773 -0.169795 0.104019 -0.122263 0.018477 -0.017232 0.129153 -0.362169 0.043431 -0.11186 0.657024 0.226851 -0.083425 0.02282 0.214818 -0.070186 -0.229709 -0.073858 -0.146854 0.263092 -0.048189 -0.224149 -0.139725 -0.081464 0.165851 -0.229116 0.072961 -0.001496 -0.164432 -0.049876 -0.347511 0.42307 0.332085 0.242662 -0.120518 0.088082 0.08866 0.297809 0.14885 -0.01166 0.129382 -0.057404 -0.297011 0.19585 -0.123702 0.362846 0.319048 -0.241569 -0.147132 -0.36353 0.152948 -0.084935 -0.116874 -0.184861 -0.295712 -0.129487 0.029774 -0.088932 0.001979 0.208389 0.035671 0.06115 0.119059 0.121174 0.015174 -0.233742 -0.223903 -0.235283 -0.135948 0.083897 0.119935 0.096474 0.384543 0.206908 -0.328511 0.147674 0.216879 0.016657 -0.044269 -0.11481 0.077463 -0.343642 -0.004824 -0.147533 -0.323207 0.121176 0.308688 -0.01393 -0.082065 0.083587 -0.033076 -0.025382
object 0.110426 0.156866 0.218457 -0.091049 0.155533 -0.024405 0.050695 0.157 -0.193319 0.138626 -0.097524 -0.01982 0.1139 -0.152279 0.013554 0.208317 -0.109159 0.205284 0.085013 -0.001661 -0.099951 0.050944 0.206329 -0.015262 0.006925 -0.105371 0.025898 0.230758 0.231563 -0.189545 0.049047 0.097307 -0.169277 -0.003293 0.280435 0.0623 0.0181 -0.067814 0.145439 -0.076223 -0.003513 -0.147313 0.110045 -0.261243 0.028093 -0.128763 -0.099121 -0.085573 0.027142 -0.03922 0.138075 0.253506 0.164522 0.014182 0.098176 0.137017 -0.088384 -0.24573 -0.026821 0.143086 -0.068901 -0.067597 -0.006555 0.119871 -0.183193 -0.278648 -0.096739 0.200896 0.278172 0.154827 0.047689 0.170462 -5.36E-4 -0.12543 -0.097881 -0.055685 -0.125891 0.077421 0.052313 -0.253063 0.275265 -0.104383 0.166646 0.006124 -0.033485 -0.015697 0.194063 -0.069501 0.301181 -0.168738 -0.163859 0.080053 -0.040351 0.110642 -0.075451 0.165929 0.026002 -0.16534 -0.089553 0.085849 -0.096105 0.176386 0.102749 -0.068413 0.350588 0.067305 0.062919 0.11743 0.119104 -0.066315 -0.279757 0.002256 0.266703 0.118798 -0.414332 0.046547 -0.072981 0.040787 0.133324 0.035236 -0.037041 -0.155157 0.151836 0.00126 0.072926 -0.202692 -0.049499 -0.008555 -0.100126 -0.180467 0.066262 -0.13332 -0.04391 -0.101303 -0.305867 -0.035864 -0.048056 -0.020415 -0.238776 0.129415 -0.145615 -0.024556 -0.069158 -0.005903 0.29971 0.146568 -0.102391 -0.058349 0.108675 -0.231002 0.228545 0.126608 -0.177196 -0.113392 0.103161 0.038818 -0.004463 0.024458 0.197285 0.128888 0.153852 0.094602 0.145496 -0.223339 -0.244879 0.390262 -0.18399 0.270602 -0.222509 0.186206 -0.045737 -0.016204 -0.116153 -0.306843 0.1766 -0.236415 0.039322 0.145478 0.036274 -0.062355 0.032974 -0.149014 0.079167 0.077331 0.039049 -0.141609 0.277636 -0.131948 -0.023364 0.370848 0.230687 -0.03577 0.025758 0.452989 0.087855 -0.022005 -0.054788 -0.00632 0.169608 -0.008222 0.155397 0.016248 -0.176606 -0.10259 -0.222901 0.003227 -0.016754 -0.050703 -0.014248 0.059037 0.018756 -0.069809 -0.174478 -0.030259 0.319208 0.101216 -0.043214 -0.050262 0.24673 -0.337448 0.149755 0.042145 0.05499 0.126897 -0.093821 -0.0912 -0.149428 -0.435179 0.062247 0.119094 0.167178 0.162089 -0.156385 0.263166 -0.02746 -0.061666 -0.103744 0.053329 -0.089989 -0.101002 0.319038 -0.012326 0.247526 0.014038 0.01268 -0.110906 0.078027 0.107177 0.081225 -0.344823 -0.052689 -0.042317 0.101231 -0.033412 0.118602 0.007539 -0.579899 -0.15787 0.13183 0.003765 0.142028 -0.208233 0.059363 0.183573 -0.058135 0.068609 0.234595 -0.181478 0.040902 -0.210499 -0.048037 0.075207 -0.122947 0.218276 0.072143 -0.004789 -0.375498 0.048999 -0.374377 -0.186802 -0.078078 0.280186 0.100774 0.00981 -0.069809 -0.052016 -0.071943 0.15891 -0.121856 -0.067763 -0.084081 -0.046829 -0.196556 0.228288 0.022551 0.015211 -0.387655 0.019924 -0.119289 -0.081985
attitude 0.238751 0.060176 -0.05394 -0.223553 0.184749 -0.023005 0.002787 -0.04757 -0.046048 0.334561 -0.115136 0.208596 0.103765 0.065672 0.05472 0.123801 -0.122463 -0.191535 0.357535 0.098201 -0.221023 0.277124 0.123068 0.167483 -0.041396 0.046036 -0.0489 0.085837 0.103162 0.057491 0.015069 0.192608 0.037087 0.052327 -0.064588 0.196075 -0.025893 -0.0539 0.207373 -0.307361 0.166326 0.094499 0.114455 -0.185214 -0.037698 -0.20303 0.109503 -0.10109 0.046245 0.184678 0.345233 -0.0792 -0.020265 0.010825 0.055078 0.30003 0.012111 -0.039266 -0.077865 -0.009725 -0.162489 -0.079813 0.098389 0.20386 -0.522444 -0.30439 -0.017007 0.04182 0.109654 -0.110909 0.035198 0.208042 0.150305 0.130914 0.197952 -0.046571 0.122829 0.041731 -0.168814 0.021395 0.072085 -0.013655 0.196462 -0.193861 -0.345388 0.075629 -0.248655 -0.080649 0.069297 -0.262756 0.019579 -0.039343 -0.130446 0.151311 -0.036351 -0.059875 0.001414 0.160398 -0.08482 -0.293977 -0.254755 0.25678 -0.024142 -0.063632 0.184276 0.02678 -0.125258 -0.065761 -0.109874 0.052 -0.146641 0.026618 0.495789 0.11622 -0.535499 -0.335505 0.148855 -0.156732 0.142222 -0.007929 0.093022 0.177805 -0.107972 0.196128 0.008486 -0.094503 -0.034024 -0.036727 -0.008215 0.313733 0.130005 -0.068529 -0.213705 0.099911 -0.145831 0.085622 -0.163241 0.262853 -0.126162 -0.082801 -0.152566 0.244491 -0.261699 -0.203584 0.211439 -0.189365 -0.306293 -0.18655 -0.121235 -0.091143 0.294799 -0.031547 -0.085155 0.070552 -0.324685 -0.013334 -0.062766 -0.030554 0.077716 0.036412 -0.168494 -0.004383 -0.008687 -0.035168 -0.024022 0.101854 0.020566 0.025016 -0.058172 -0.05511 -0.304033 -0.041947 0.088542 -0.583985 0.086178 -0.305959 0.376265 0.269177 0.158422 0.158683 -0.269795 -0.239816 -0.103912 0.065115 -0.250238 0.035072 0.080797 -0.310621 -0.073696 0.075153 0.325688 -0.033259 0.029508 0.145809 0.094791 0.02153 0.151265 0.017064 -0.267994 -0.243821 0.022019 0.16469 0.046851 0.018712 -0.044156 -0.030367 0.093146 -0.053373 0.028256 -0.138667 0.017998 0.06547 0.01554 0.171865 -0.087968 0.176761 0.008211 -0.022944 -0.063583 -0.14535 0.085014 0.160151 -0.06651 -0.288183 -0.31604 0.245506 -0.210223 -0.086517 -0.129606 -0.183454 -0.079858 0.06558 0.047197 -0.034943 0.384487 -0.007217 -0.090477 0.003816 -0.15081 -0.182064 0.022756 0.039419 0.069731 0.005603 -0.014906 0.084298 0.068006 0.073963 -0.11231 -0.106006 -0.012766 -0.055953 -0.098947 0.16115 0.290023 -0.25461 -0.312275 -0.024856 0.321142 0.230243 0.163161 -0.011645 -0.272234 0.212464 -0.174706 -0.19861 0.066831 -0.230367 0.033875 0.121999 -0.095254 -0.036996 -0.040441 0.078732 -0.007037 -0.227236 -0.109682 0.29605 -0.21694 -0.10747 -0.179567 0.269877 -0.054228 0.038315 0.066941 -0.119848 -0.047309 0.011424 0.031379 -0.099768 -0.139929 0.141534 -0.157601 -0.161046 0.033284 0.080225 -0.349262 0.250941 -0.399416 0.041228
treatment 0.350588 -0.109122 -0.081917 -0.219898 0.09245 -0.067929 -0.031127 0.090351 0.011506 0.289579 0.091604 0.189592 0.068114 -0.212876 0.062358 0.113198 -0.14105 -0.207391 0.135589 -0.046763 -0.087106 -0.030438 0.129874 -0.03011 0.150679 -0.054866 -0.248913 0.236608 0.296753 -0.239737 -0.160113 0.173884 -0.044456 -0.050066 -0.243717 0.152941 -0.031264 0.254022 0.091317 -0.051627 -0.081403 -0.051211 -0.149048 -0.13188 0.313005 -0.198607 -0.138092 -0.029108 -0.051366 -0.137628 0.155411 0.044598 0.046291 0.106425 0.404754 0.037713 -0.349657 -0.128887 -0.177165 0.112177 -0.14179 -0.040624 0.075488 -0.124498 -0.393337 0.092711 -0.186487 -0.007549 0.190455 -0.144488 0.085985 0.245185 -0.076351 -0.095209 0.00915 -0.0215 0.244898 0.050747 -0.033088 -0.002917 -0.085217 -0.283108 0.106972 0.017135 -0.187751 -0.014426 -0.255881 -0.344272 0.435983 -0.098384 -0.205542 -0.127393 -0.722197 -0.406867 -0.528708 0.15882 0.049723 0.269483 -0.083208 -0.023158 0.028905 0.316576 0.052157 0.247232 0.140729 -0.198147 -0.277754 -0.071019 -0.118086 0.125624 -0.147432 0.141037 -0.042942 -0.329355 -0.403646 0.017841 -0.393226 -0.031833 0.031709 -0.020311 -0.052881 -0.155225 0.065841 0.231406 -0.00973 -2.64E-4 -0.192065 0.11764 0.217981 -0.043808 0.175043 0.183979 0.115669 0.345961 0.022913 0.083998 -0.206667 0.19543 -0.341023 -0.051212 0.051409 0.072766 0.042943 -0.244501 -0.330638 0.265898 0.020142 0.03328 0.148495 -0.087654 4.84E-4 0.028278 -0.054144 0.211839 -0.076426 0.370725 -0.284252 -0.137127 0.111165 -0.350088 -0.20909 -0.164149 -0.07628 0.232143 -0.086201 -0.045402 -0.146597 0.130193 0.24972 0.035877 -0.153985 -0.336409 -0.213933 -0.241987 0.345483 0.016771 0.131788 0.096416 -0.015799 -0.442984 -0.055226 0.133445 0.14363 -0.151616 0.043067 0.057647 -0.131762 -0.275263 -0.121169 0.240349 0.118482 0.080567 -8.26E-4 0.068027 0.255566 -0.093741 -0.138367 0.064772 0.021983 -0.085394 0.087827 0.074174 -0.263026 0.081115 0.01803 0.176478 -0.01003 -0.014212 0.335967 -0.180533 -0.009753 -0.289832 0.32745 -0.246206 0.20047 0.072894 0.087863 0.063021 0.023655 -0.065108 0.312057 0.085297 0.205983 0.195315 -0.24274 -0.007627 -0.234074 0.186551 0.104051 -0.069823 -0.135228 0.238802 0.231415 0.03363 -0.037007 0.11487 -0.008504 0.065687 0.014376 0.061851 0.106064 -0.065767 -0.193161 -0.028526 -0.125586 -0.203071 0.263404 0.130991 -0.114541 0.029853 0.012949 -0.092378 -0.124213 -0.006332 0.045803 -0.092039 -0.11495 -0.38709 0.026181 0.200356 0.210578 0.079966 -0.268524 -0.08036 0.416951 0.279846 0.037576 0.203259 0.213196 0.025634 0.015577 0.011827 0.005879 0.094565 -0.072701 -0.051581 -0.216 0.214947 0.160971 0.008074 -0.153512 0.182819 -0.056244 0.152283 0.065159 0.004545 -0.116593 -0.097564 -0.242397 -0.128738 -0.221244 -0.074152 0.042801 0.252195 0.034036 -0.016751 -0.149781 0.07223 -0.232906 0.008715
flight -0.046153 0.024262 0.040565 -0.079258 0.12257 -0.122936 -0.313723 0.268448 -0.034387 0.182029 0.175131 0.071469 0.01829 0.212904 0.404515 0.190491 -0.161313 0.011929 0.275308 0.102176 0.147672 0.062347 0.299003 -0.046712 0.013468 0.172857 0.068929 0.012925 -0.04409 0.111763 0.018768 0.179591 -0.4851 -0.132584 -0.129601 0.152718 0.212936 -0.191015 0.37055 -0.166215 0.317739 -0.148681 0.090281 -0.103194 -0.186925 -0.318518 0.455318 -0.274163 -0.121864 0.366684 -0.099046 0.239894 0.055474 0.0945 0.001256 0.30223 -0.659644 -0.268161 0.134034 -0.25995 -0.109179 -0.20886 -0.097773 -0.123175 -0.21984 -0.048907 -0.219134 0.11151 0.103155 0.190074 -0.157612 -0.11285 -0.082225 -0.091589 -0.11665 -0.093595 -0.273317 -0.03446 0.12263 -0.285613 0.162401 0.295994 0.171619 -0.142667 0.104141 0.243304 0.044209 -0.208044 0.133064 -0.175211 0.088075 -0.245485 -0.278679 -0.246028 -0.027953 0.058951 0.372781 0.00929 -0.118848 -0.358708 -0.287511 0.47979 0.169891 0.224875 0.114012 -0.07276 0.010257 0.06691 -0.248627 0.066706 -0.042496 0.402149 0.096555 0.078588 -0.248558 -0.071369 -0.01186 0.256016 -0.054118 0.248375 -0.024222 -0.215797 -0.03608 -0.233053 0.190235 -0.121818 -0.023407 0.153548 0.079925 0.126691 -0.143231 0.108292 0.130652 0.034958 -0.144746 0.267166 -0.053501 -0.193196 -0.120124 0.110648 -0.048932 -0.191272 0.027487 0.013829 -0.109914 -0.024436 -0.064853 -0.467764 0.045333 -0.16847 -0.148629 0.219574 -0.156327 -0.106594 0.182234 0.037574 0.074371 -0.106526 -0.117976 -0.143985 -0.11015 0.267698 -0.076891 -0.25572 0.299997 0.338786 0.061368 0.105857 -0.198744 0.281487 0.1842 -0.128423 0.02096 0.014514 0.108181 0.002115 -0.412334 0.159735 -0.001319 -0.270999 -0.186343 -0.046317 -0.015191 0.081589 -0.001876 -0.048257 -0.296581 -0.085855 -0.17205 -0.06405 -0.282284 0.04184 -0.133321 0.163545 0.030129 0.402912 0.25202 0.287285 -0.14686 -0.064543 0.228084 0.430687 -0.112756 0.032327 0.321414 0.23419 -0.234472 0.651323 -0.020156 -0.166706 0.072288 0.242624 -0.003835 0.022907 0.114356 -0.088854 -0.204879 0.081637 0.142788 0.089181 0.440675 -0.113432 0.092291 -0.040948 0.328778 -0.157233 -0.005703 -0.09438 0.122906 -0.134078 -0.04978 0.188309 0.017419 -0.122892 0.303603 0.01359 -0.320143 0.11881 0.030239 0.108052 0.087903 -0.375532 0.508435 0.397734 0.226802 0.287583 0.057793 0.056895 -0.093612 -0.180427 -0.172164 -0.12553 0.214887 0.189539 0.296733 -0.012936 -0.522384 -0.403781 -0.075155 0.185391 0.258657 -0.186854 -0.144678 -0.136503 0.011514 0.066415 0.306065 -0.145381 0.222167 -0.093641 0.225063 -0.006975 0.122294 0.044448 -0.172256 0.059745 -0.270495 0.280399 0.205614 0.024031 -0.30592 0.172923 0.018213 0.075162 0.048278 -0.334384 -0.430179 -0.201268 -0.18015 -0.041917 0.107581 -0.168755 -0.30646 -0.047507 0.078756 0.047228 0.084103 0.155663 0.065053 -0.08276
forest 0.241754 0.262691 0.076361 0.312477 -0.033834 -0.341534 0.053503 0.053939 -0.094812 -0.439452 -0.164931 0.030536 -0.043926 -0.110142 -0.125046 0.079621 -0.427015 0.330325 -0.184478 0.023375 -0.285258 -0.021496 0.082416 -0.062757 0.133153 -0.067779 -0.103266 0.200291 0.011943 0.101053 -0.119009 0.122823 -0.166255 0.201311 0.08807 -0.097879 0.184957 -0.224738 0.062638 -0.089095 0.043853 0.01462 0.105056 0.218248 -0.082736 -0.086173 0.167115 -0.172603 0.077124 0.185961 -0.233336 0.047038 0.100831 -0.102251 0.389089 -0.108696 0.007796 -0.392126 0.038939 0.077043 -0.093106 0.037814 0.166275 -0.075582 -0.364636 -0.345163 -0.203557 0.240436 0.234373 0.18413 0.019797 -0.063111 -0.113882 -0.302639 -0.164551 0.018217 0.115879 0.370485 0.175711 -0.29279 0.043352 -0.079404 0.051765 -0.437761 0.211229 -0.14864 -0.024946 -0.344049 0.061321 -0.062666 -0.012311 -0.180015 -0.121196 -0.229059 0.1222 -0.001986 -0.156077 -0.10232 0.087972 0.046141 -0.055706 0.200595 0.191653 -0.010035 0.167831 -0.198716 0.197854 -0.137202 0.293562 0.157952 -0.356578 0.078384 -0.004114 -0.218462 -0.37588 -0.156722 0.043566 -0.033764 0.097345 0.229523 0.162013 -0.287932 -0.294171 0.082614 0.027371 -0.383888 -0.091752 -0.121273 -0.059425 0.078021 -0.168559 -0.012441 0.081413 -0.526283 -0.100599 0.60011 0.263426 -0.27435 -0.396976 0.448061 0.01224 -0.136656 -0.266257 -0.067561 0.08968 0.00488 -0.138602 0.416042 -0.271186 0.076227 0.077653 -0.352902 0.080488 0.046142 0.241516 0.096026 -0.189993 -0.330915 0.162352 0.007201 -0.310391 0.388253 -0.111007 0.092371 -0.043508 0.096715 -0.034767 0.420791 0.078235 0.047483 0.055403 -0.211159 0.159922 -0.151831 -0.159028 0.035501 -0.293094 0.044478 0.024271 -0.498567 0.373972 -0.065169 -0.173149 0.11682 -0.133119 0.407587 0.187324 -0.003 -0.243898 0.086546 0.043129 5.17E-4 -0.010504 0.215321 0.17601 0.087248 -0.151684 -0.227555 0.04841 -0.190759 0.273228 0.17419 0.31708 -0.101784 0.063926 0.184641 0.111911 -0.095633 -0.03948 -0.32962 -0.110983 -0.213391 0.078529 0.188539 0.209394 -0.078036 -0.120668 -0.062776 -0.219748 0.109407 0.086709 0.017084 0.004226 0.034952 -0.461083 -0.071446 -0.644236 -0.080609 0.032302 0.157767 -0.089093 -0.014609 0.173382 0.106312 0.030079 -0.084946 -0.091552 -0.226013 0.233756 0.404698 -0.119718 0.167732 -0.212424 -0.152579 0.123641 0.127073 -0.178043 -0.079725 0.097628 0.031216 -0.164032 -0.023118 0.099573 0.034457 0.101136 -0.084351 -0.183151 -0.023539 -0.271084 0.115251 0.349553 -0.184231 -0.241192 0.059164 -0.075858 -0.108438 -0.1377 -0.100811 0.127459 -0.202686 -0.044979 -0.025637 -0.035557 0.191856 -0.158409 -0.421229 -0.280318 -0.056755 -0.206657 0.247836 -0.190854 0.156498 0.300394 0.19111 -0.158234 -0.143056 0.116302 -0.222108 0.058623 0.170115 0.155685 -0.117544 -0.227169 0.086175 0.054826 -0.076445 -0.029948 0.227163 -0.434986 -0.057582
abuse 0.260022 -0.032714 0.237414 -0.543502 0.108328 -0.247777 0.240294 -0.316982 0.172094 -0.066988 0.056257 0.245596 0.195271 0.048395 0.174437 -0.150398 -0.080879 -0.112033 0.099719 -0.22832 0.035881 -0.033955 -0.081627 0.057353 0.097326 -0.30397 0.017857 0.063402 0.200214 -0.126441 -0.072425 0.292462 0.003631 0.258374 0.093343 0.002976 0.169388 0.059953 0.012085 0.072835 0.18105 -0.321027 0.039824 -0.143051 0.137493 -0.287218 2.82E-4 -0.051236 -0.170125 -0.019002 0.076598 -0.140698 0.540363 0.117783 0.25048 0.035326 -0.272802 0.049562 -0.078489 -0.031689 0.1838 -0.142308 0.175758 -0.240404 -0.274291 -0.035322 -0.026134 0.314087 0.337503 -0.095351 0.025752 -0.02634 0.163867 -0.191377 -0.009308 -0.249726 0.150957 -0.052237 -0.010568 -0.066506 0.049167 -0.297583 -0.254903 -0.047822 -0.286223 -0.022687 -0.144635 -0.217619 0.295367 0.061184 -0.164061 -0.165063 -0.645114 -0.102595 -0.093421 0.181914 -0.052993 0.018439 0.18668 0.156585 -0.118081 0.133155 0.136847 -0.071794 0.204216 -0.414706 0.152663 -0.14678 0.142093 0.014822 -0.257228 -0.167807 -0.129932 0.210116 -0.124355 -0.209745 0.106325 0.089724 0.321508 0.031923 0.032667 -0.003736 0.08876 0.249874 -0.145888 0.073561 -0.376761 0.155725 0.143515 0.102769 -0.124503 -0.312141 -0.061298 0.282412 0.144519 -0.007696 -0.435616 -0.115737 -0.222941 -0.047062 -0.02241 0.029983 -0.002267 -0.18906 0.239946 0.113468 0.140072 -0.250721 0.280441 -0.195101 0.151216 0.171662 -0.003667 0.066864 -0.24622 0.25389 -0.517362 -0.48262 0.095014 0.045832 -0.027334 0.134311 -0.180368 -0.251357 0.117772 0.074921 0.0492 0.237523 -0.328321 -0.185879 -0.033109 -0.311561 -0.382581 -0.175036 0.111579 -0.121275 -0.103563 -0.256948 0.216731 -0.258934 0.166522 0.148371 0.076916 -0.053733 -0.010232 0.296695 0.104455 -0.39562 -0.095447 0.490347 0.144523 -0.169199 -0.20838 0.051588 -0.046614 0.035736 0.204012 -0.207118 -0.155082 0.064146 -0.144728 0.512195 -0.360948 0.168844 -0.036524 0.240431 0.041969 -0.046957 -0.219939 -0.071836 -0.094262 -0.23291 0.426645 0.165709 0.122861 0.014597 -0.176493 0.302995 -0.399463 -0.087586 0.533063 0.386793 0.107458 0.019705 -0.244811 0.013018 -0.03664 0.3202 -0.083263 -0.394692 -0.04183 0.153178 0.181005 -0.018171 -0.117983 0.453301 -0.276231 -0.212159 -0.077453 0.20479 0.404165 -0.199132 -0.221327 0.009061 0.021204 -0.562358 0.047122 -0.228088 -0.036581 -0.099728 0.071672 0.184225 -0.116101 -0.1986 -0.009308 -0.162418 -0.194578 -0.412086 0.067051 -0.177203 0.325931 0.14599 0.011272 0.042525 0.20614 -0.065619 0.4038 0.131757 0.0723 -0.363428 -0.386587 -0.152084 0.347491 0.097086 0.259059 -0.064144 -0.348335 0.450626 0.307191 0.077617 -0.511848 -0.029114 0.010672 0.34334 -0.232603 -0.349247 -0.065368 0.057621 -0.172218 -0.243534 -0.134537 0.206212 -0.118004 0.056592 0.132694 -0.202475 -0.483802 0.123349 -0.205399 -0.173732
criterion 0.355116 0.0905 0.054989 -0.234337 -0.026225 -0.176057 -0.085361 -0.167525 -0.267856 0.068016 -0.04198 0.012071 0.063125 -0.146875 0.126231 0.517785 0.116322 -0.152711 0.032758 0.028423 0.005472 -0.011922 0.261724 0.151992 -0.036655 0.01784 -0.04183 0.139764 0.016746 -0.164562 -0.017844 0.156035 -0.087779 -0.17589 -0.071636 0.105612 -0.101759 0.012204 0.095793 -0.20134 0.101146 -0.035797 -0.003321 0.006434 0.090815 -0.149791 0.206041 -0.152275 0.219002 -0.033476 0.316135 0.050838 -0.008484 0.103247 0.204453 -0.002767 -0.068491 -0.098355 -0.039233 0.113915 -0.207402 -0.198898 0.25604 0.212374 -0.149763 -0.110949 0.050865 0.021617 0.085775 0.004036 -0.155511 -0.063722 0.071946 -0.100746 0.040191 -0.010301 -0.19281 -0.105631 -0.028336 -0.20798 0.190151 -0.447625 0.221823 -0.309829 -0.335441 -0.252964 0.052647 -0.238323 0.090523 0.026836 0.031512 0.146187 -0.328077 0.036916 -0.063383 0.313366 -0.038031 0.187819 -0.15116 -0.202436 -0.474682 0.239903 -0.146359 -0.026924 0.206118 -0.127351 -0.248596 0.024712 -0.054382 0.177265 -0.180201 -0.041084 0.04287 -0.055668 -0.273339 0.115411 -0.125363 0.094539 0.037872 0.021035 0.098411 0.085648 0.011737 -0.038399 0.107895 -0.066969 -0.253063 -0.056954 0.067152 0.098973 -0.030979 0.034028 0.146451 -0.141108 -0.195749 0.178995 -0.13515 0.109972 -0.296792 -0.283405 0.043227 -0.011255 0.091368 0.001488 0.170655 0.12774 -0.335277 0.231688 0.005792 -0.185183 0.03304 0.425437 -0.152453 -0.203033 -0.02857 0.098452 -0.019413 -0.010385 0.111942 -0.098505 0.110371 -0.081182 0.184452 0.075054 0.123224 -0.0229 0.014239 -0.212972 0.148621 0.010936 -0.288353 -0.188906 -0.096399 -0.234223 0.374988 -0.137804 -0.046792 0.253695 0.11214 -0.170078 -0.166043 -0.285857 -0.23616 -0.072548 0.086365 0.195389 0.148134 -0.151258 0.118392 0.159911 0.130817 0.10686 0.021428 0.139183 0.117127 0.124095 0.036085 0.096107 -0.129541 -0.043119 0.110676 0.30214 -0.308052 0.016651 -0.375002 0.20232 -0.052881 0.04365 -0.059884 0.160391 0.102183 0.159373 0.086229 -0.084992 -0.123802 0.200661 -0.065771 0.149558 -0.035398 -0.324408 -0.044265 0.040011 0.036328 -0.056536 -0.43065 -0.011966 -0.195846 0.081578 -0.046384 0.028955 0.054711 0.144499 0.126536 0.331863 0.170215 0.04841 -0.002893 0.031915 -0.223911 -0.159051 0.191116 0.02127 0.112537 0.060079 0.078631 -0.222307 0.050849 0.117411 -0.200701 -0.217809 -0.131279 0.120268 0.055186 0.031894 -0.04687 -0.240443 -0.320225 -0.162757 -0.142888 0.091259 0.194682 -0.462784 0.030085 0.053289 0.202373 -0.1646 0.178662 -0.033832 0.16291 0.075668 0.159393 -0.045234 -0.211537 0.301922 0.041064 -0.133212 -0.320202 0.142143 -0.191545 -0.226537 -0.322585 -0.042245 0.066269 0.266509 0.121464 -0.106055 -0.111888 0.133483 -0.17753 0.045126 -0.154784 -0.079525 -0.015121 0.257226 -0.045105 -0.012867 -0.119981 0.211642 -0.111181 -0.009888
sea 0.163491 0.22687 0.005481 0.241998 0.02697 -0.090541 -0.048718 0.148397 -0.068629 0.095225 -0.281345 -0.149872 0.279242 -0.109102 0.190707 0.076615 -0.041295 0.063738 -0.03134 0.071632 -0.089943 0.155535 0.242709 -0.080488 0.083378 -0.051519 0.038778 -0.008564 0.221808 -0.361027 -0.085888 0.145569 0.140694 0.155261 -0.189378 0.04027 0.130115 -0.187089 -0.117724 -0.142375 0.055126 0.078058 0.238259 -0.004625 -0.086543 -0.099164 0.347336 -0.007841 0.152701 0.154023 -0.411762 0.032338 -0.130718 0.002237 0.472245 0.03077 -0.102298 -0.082017 0.146961 0.146381 0.081549 0.520599 0.142993 -0.22514 -0.232744 -0.382497 -0.182087 0.291521 0.249187 0.139643 -0.10726 -0.250185 -0.181032 -0.082096 -0.18917 -0.07243 0.018316 0.028574 0.036233 0.098407 -0.004021 -0.035366 0.206848 -0.067611 0.059965 -0.054143 -0.19775 0.003703 0.107435 -0.229065 -0.14442 -0.032376 -0.130283 -0.040388 -0.178584 -0.202032 -0.037668 -0.31564 0.03812 -0.205374 -0.246499 0.367142 0.062757 0.129876 0.203456 0.017871 -0.08698 0.051471 -0.073115 0.016511 -0.50545 0.215075 0.047417 -0.227735 -0.27032 -0.033759 0.182163 -0.092936 -0.021055 -0.020944 0.297006 -0.084485 -0.260853 0.177882 0.024601 -0.334533 0.030209 -0.126629 0.312019 -0.023927 -0.314728 0.070589 0.359286 -0.293387 -0.00741 0.218858 -0.216502 0.068535 -0.164442 0.422673 -0.223627 -0.036418 -0.198225 -0.092745 0.074489 0.12871 0.010755 0.266029 -0.473725 0.23257 0.146135 0.070667 0.275878 -0.055729 0.185752 -0.015457 -0.10599 -0.369194 -0.003034 0.02146 -0.049359 0.286964 0.007457 0.083279 -0.013292 -0.032437 0.324571 0.355813 -0.230633 0.157819 0.122374 0.006486 0.037791 -0.180113 0.066747 0.07372 -4.34E-4 0.069131 0.227507 -0.333559 0.190722 -0.255622 -0.06502 0.265887 -0.025354 -0.050863 0.01191 -0.010811 -0.36403 0.136185 0.044252 0.034915 -0.003592 0.216501 -0.002771 0.201648 -0.001322 0.117282 -0.150947 -0.265016 -0.065472 0.150599 0.088263 -0.062336 0.207457 0.173743 0.088271 0.133151 0.152107 -0.201081 0.059435 -0.104833 0.012209 0.108728 0.111831 -0.25714 0.137831 -0.130371 -1.76E-4 -0.002227 0.188253 -0.149452 0.056063 0.010233 0.056671 -0.050568 -0.285049 -0.173464 0.093646 0.121208 -0.043905 -0.014922 0.135461 0.032527 0.149133 -0.022437 -0.218284 -0.034104 -0.016658 0.165227 -0.019368 0.002754 -0.084412 0.394541 -0.178579 -0.075197 -0.032804 0.038101 0.078174 -0.046074 -0.066011 -0.187515 0.238038 -0.072048 0.18844 0.019976 -0.507815 -0.197057 0.071641 -0.10617 0.228863 0.048004 0.05951 0.181165 -0.053218 0.123788 -0.066742 -0.294999 0.304639 -0.209346 0.0854 0.13211 0.103794 0.401028 -0.285088 -0.456027 -0.382479 0.163036 -0.092623 -0.049806 -0.055016 0.195389 0.198749 0.253178 -0.127392 -0.144236 0.258936 0.006775 0.326738 0.005383 -2.69E-4 -0.166625 -0.404356 -0.093907 0.22675 -0.127383 -0.254512 0.205652 -0.438047 -0.072066
dollar 0.053508 0.143612 -0.284498 -0.104698 0.228339 0.267953 0.091017 -0.003556 -0.13944 -0.284836 0.076019 0.234035 0.206021 0.136473 -0.034725 -0.039646 0.349642 0.172758 -0.008145 -0.126309 -0.060202 0.035967 -0.093048 0.291034 -0.255602 0.054031 0.091251 -0.17585 0.305845 -0.05173 0.146887 -0.206873 0.038085 -0.140801 -0.102414 -0.216221 0.045905 -0.094914 0.144911 -0.008816 0.019077 -0.100035 0.067681 0.252273 -0.462803 -0.328898 0.059916 -0.246892 -0.549119 0.219258 0.355813 0.284146 0.117133 0.074433 0.341107 -0.043543 -0.347305 -0.20473 0.166127 -0.192133 0.042112 0.032849 0.03826 -0.060294 0.059382 0.0885 -0.051294 0.047873 0.148472 -0.209885 -0.065939 -5.6E-5 -0.337571 0.061093 -0.134685 0.385526 0.020702 0.066992 0.308367 0.108176 0.107114 0.125838 0.225992 -0.190021 0.062079 -0.013331 0.232865 -0.458388 0.488968 0.289141 0.129815 -0.213145 -0.591276 -0.341291 -0.061539 -0.413552 0.031536 -0.17723 -0.334938 -0.015397 -0.222884 0.320107 -0.07984 -0.189832 -0.048134 -0.147337 0.23552 -0.058876 -0.272433 0.005935 -0.538478 0.256311 0.176093 0.349562 0.026619 0.00849 0.287313 -0.27233 -0.133005 0.134359 -0.263943 -0.202537 0.253966 -0.262289 0.101581 0.031932 0.158395 -1.7E-5 0.008392 -0.145504 0.28638 0.093194 0.372367 0.09411 -0.031511 -0.181961 -0.239341 0.366147 -0.491113 0.246998 -0.006387 0.004076 0.057362 0.094068 0.01736 0.195835 -0.075731 -0.187239 0.007221 -0.076911 -0.203469 0.202565 0.475687 0.139865 0.020688 0.037073 -0.287614 -0.143962 0.329718 0.024872 -0.19822 -0.063132 -0.117303 -0.063364 0.305102 -0.244239 -0.061803 0.57104 -0.276725 0.078556 -0.265355 -0.042508 -0.263304 -0.539913 -0.298093 -0.310311 -0.131567 -0.290907 0.483177 -0.187232 0.229526 -0.348006 -0.128062 0.060982 -0.377941 -0.051725 -0.122558 -0.015593 0.344428 0.242765 0.743317 -0.338301 0.328972 0.243116 0.156564 0.284943 0.070834 0.03948 0.167915 -0.57157 -0.013125 0.009692 0.02126 -0.340684 -0.082187 -0.22151 -0.230137 0.190465 0.02486 -0.166697 0.148434 -0.119103 0.00171 -0.376606 -0.199241 -0.294844 -0.039907 -0.158283 0.225047 -0.118526 -0.331787 -0.370572 0.043597 -0.285363 -0.14165 0.022567 -0.053694 -0.20193 -0.011089 -0.067841 0.231365 -0.226581 -0.114137 0.063961 0.171104 0.498393 -0.398317 -0.286636 -0.247884 0.17767 0.051305 0.321981 0.282999 0.035026 -0.104932 0.013856 -0.460261 -0.282311 -3.69E-4 -0.378141 0.361701 0.303499 -0.0433 0.013032 0.092025 -0.398111 -0.237707 -0.32295 0.040124 -0.179369 0.415912 -0.435952 0.006527 0.196694 -0.139917 0.139526 -0.409484 0.173285 -0.424689 -0.078339 0.017115 -0.094769 -0.106727 0.049948 -0.060093 -0.058111 -0.192933 0.090956 0.128889 -0.125255 0.179737 0.139414 0.133137 -0.030797 0.098052 0.105022 -0.179645 0.048364 -0.540814 0.297932 -0.112789 -0.308465 -0.22063 0.447989 -0.221896 -0.160883 -0.564496 0.20434 -0.506865 -0.209874
example 0.011853 0.253089 0.006948 -0.054936 0.040505 -0.179954 -0.424528 -0.043691 0.139176 -0.064384 0.149693 0.166757 0.005267 -0.077765 0.383504 0.132861 -0.127006 0.149976 -0.009772 0.103386 0.127955 0.193225 0.410856 0.143934 -0.009225 -0.131883 -0.452484 -0.007858 0.181098 0.240515 -0.041947 0.155093 -0.18136 -0.089556 -0.075739 0.186986 0.01707 0.137786 0.218973 0.051172 0.332503 0.034292 -0.029792 -0.022899 0.010213 -0.355553 -0.114937 -0.167773 -0.006309 0.173905 0.237559 0.083677 0.122646 -0.039771 -0.062659 0.216425 -0.250296 -0.048508 -0.183211 -0.035137 0.034568 -0.05576 0.327875 0.202986 -0.10437 0.079266 -0.103418 0.111048 -0.038273 -0.255841 -0.022864 -0.005301 0.23929 -0.062043 -0.047012 -0.351769 -0.146278 0.04479 -0.053837 0.215569 -0.12421 -0.100463 0.162545 -0.054666 0.093245 -0.432305 0.021653 -0.354672 0.23835 -0.146572 0.14133 0.153808 -0.174784 0.172661 -0.057418 0.164414 -0.052374 0.178473 -0.058725 -0.026068 -0.478593 0.185065 -0.048881 0.009262 -0.18662 -0.013291 0.029268 0.1693 -0.02649 0.017256 0.053061 0.196828 0.19567 -0.122858 -0.278789 -0.215643 -0.279512 0.134522 -0.263173 0.207097 8.43E-4 -0.013264 0.123816 -0.014235 0.095564 -0.177363 0.095184 0.015417 0.011839 -0.229211 0.039407 0.134574 -0.027613 0.129831 -0.101939 0.24833 -0.075804 -0.134334 -0.431224 -0.229593 -0.106991 -0.190517 -0.11883 -0.002531 -0.032968 -0.15253 -0.361052 0.195613 0.158762 -0.122549 0.27391 0.274598 0.027342 -0.11597 -0.254104 0.003258 -0.056252 0.062095 0.061051 -0.175669 -0.079482 -0.099811 0.086408 0.053475 -0.121217 0.182285 0.003261 -0.089476 0.060101 -0.03273 -0.156938 -0.093003 -0.027242 -0.233254 0.032233 -0.298939 0.195757 0.277835 -0.037891 -0.107701 0.246408 -0.042659 0.120495 0.256364 -0.051624 0.226303 -0.127452 0.191787 -0.088515 0.151959 0.131395 -0.033183 -0.220584 0.286449 0.248664 0.036165 0.144975 0.00888 -0.00222 0.027523 0.353704 0.120037 -0.180202 -0.08319 -0.11697 0.039808 0.080187 0.043645 -0.016137 -0.083354 0.00807 -0.223704 0.072609 0.079834 -0.011381 0.018312 0.048331 0.17113 0.120315 0.050691 0.14053 0.151582 0.022734 -0.137974 -0.137759 -0.123948 -0.052564 0.249608 0.053395 -0.102903 -0.050132 0.029676 -0.073064 0.138007 -0.066448 -0.250352 -0.162662 -0.201122 -0.026357 0.098569 0.229175 0.477273 -0.134684 -0.047429 0.033824 -0.108202 -0.041795 -0.136987 -0.040172 0.027958 -0.1136 0.144087 0.003426 0.222465 0.145391 0.017568 -0.370128 -0.178032 0.090964 0.084927 0.274313 -0.291039 0.011294 0.037839 0.138786 -0.150262 0.051455 -0.040585 0.061377 0.041919 0.103324 0.0926 -0.150471 -0.064505 0.291105 0.11145 -0.116683 0.042568 0.072842 -0.270961 -0.04673 0.204188 0.204823 0.256544 -0.013755 0.180451 -0.007469 0.12407 -0.285505 -0.31951 -0.203901 0.035206 0.047705 0.161648 -0.005464 0.282755 -0.417033 0.281867 -0.223995 -0.030743
journal 0.110443 -0.024707 0.062419 -0.53421 0.055428 0.257314 -0.286468 -0.105048 -0.337635 0.401666 0.387347 -0.663695 0.120706 -0.574311 -0.149884 0.06223 0.3447 0.448533 0.20185 0.158158 0.159082 0.244497 0.059584 -0.161448 0.421531 0.343139 0.219282 0.093651 0.210558 -0.278955 0.280032 0.729543 -0.249763 -0.24996 -0.531806 0.011 0.210856 -0.114052 -0.256319 -0.263099 -0.417202 -0.108763 -0.158376 0.340206 0.12728 -0.459036 0.165909 0.363288 0.236926 -0.145838 0.09274 0.151682 0.308571 0.057913 0.313062 -0.070676 0.516199 -0.386515 0.130501 -0.093755 -0.017511 0.043711 -0.102922 0.336261 -0.622446 -0.302774 -0.030371 -0.470076 0.06593 0.072973 0.043078 -0.248409 0.313793 -0.172061 -0.402904 -0.30812 -0.21349 0.043287 -0.069001 0.300982 0.228323 0.359376 0.178003 -0.192944 -0.291899 -0.246902 -0.106637 -0.216846 0.736818 -0.539086 -0.683029 -0.583994 -0.698369 0.011102 0.114206 -0.065664 -0.089951 0.170104 0.003298 0.055425 -0.527158 0.09179 -0.231036 -0.462322 -0.134846 0.083215 0.095529 -0.129585 0.125368 -0.074384 0.114225 -0.150762 0.699013 -0.129946 -0.257333 0.058196 -0.506881 0.344892 -0.02742 -0.287486 -0.044019 -0.144964 -0.017805 -0.034625 0.222804 0.172357 -0.513074 -0.174916 -0.387459 0.185938 0.117717 0.197311 -0.039959 0.329909 -0.642178 -0.110916 -0.509893 0.03833 -0.39811 -0.320937 -0.235184 0.213761 -0.248331 0.215995 0.230268 -0.262348 -0.184328 0.318371 -0.519854 -0.358344 -0.069855 0.14767 0.222892 -0.108247 -0.136434 0.33507 0.054356 -0.74333 -0.110155 -0.357462 -0.099802 0.062078 -0.087142 0.252382 0.594466 0.180172 -0.1738 0.124411 -0.293348 0.097339 -0.366338 -0.607889 -0.054195 0.126768 -0.118993 -0.437714 -0.092673 0.536297 0.370814 -0.331324 0.669125 -0.433511 -0.179422 -0.329916 0.147354 -0.376823 -0.498166 -0.786168 0.202635 0.003705 0.289307 -0.036544 0.120151 -0.035758 -0.054046 0.31814 -0.109094 0.10724 -0.196593 0.233961 -0.073406 -0.164803 -0.09227 0.042731 0.096688 -0.103137 0.070042 -0.395199 -0.358167 -0.199855 -0.005734 -0.102675 0.542236 -0.336005 -0.15811 0.223223 -0.58917 -0.080682 0.060177 0.12382 -0.192398 -0.154125 0.583675 -0.409823 0.084783 0.249326 -0.055816 0.104648 0.143032 -0.018195 -0.278426 0.43985 -0.337265 0.096646 -0.096335 -0.407449 -0.307438 -0.062697 -0.300859 0.132161 0.100895 0.282863 -0.557966 0.427153 -0.45686 0.095187 0.089396 -0.31342 -0.292099 0.173274 -0.33677 0.049904 0.209178 -0.010541 0.261109 -0.018674 -0.268562 -0.359055 -0.254725 -0.041134 0.188634 -0.032168 -0.415545 0.219251 0.089721 -0.270513 0.20538 0.369461 0.106948 -0.009721 -0.421138 0.291905 -0.061573 -0.222217 -0.171141 -0.340676 0.060964 0.140883 0.10035 -0.11844 -0.180689 -0.131669 0.353176 0.058944 0.28721 0.06246 -0.46452 0.149686 -0.11378 0.129262 0.678917 -0.249584 -0.280433 -0.013058 0.076957 0.265858 0.218452 -0.213421 -0.387092 0.157617
laundering 0.443173 0.203279 0.20621 -0.541872 0.024645 -0.030388 0.281124 -0.104219 0.101655 0.104354 0.063431 0.257636 0.298292 -0.209935 0.289497 -0.386909 0.258705 -0.489908 -0.106003 -0.027678 -0.555217 0.093071 -0.197257 0.436797 0.2113 -0.113811 0.606774 0.077281 0.172714 0.12178 0.084215 -0.141229 -0.064136 -0.022104 -0.313664 0.530923 0.107871 0.493987 -0.036339 0.125484 0.195663 0.109211 0.335893 0.002963 -0.269677 -0.079807 -0.067272 0.044271 0.051197 -0.049592 0.113141 -0.108641 0.300202 0.261417 0.578908 -0.060253 -0.476026 0.050361 0.063603 -0.739853 -0.152033 -0.439968 0.208939 -0.160272 -0.313012 -0.227871 0.084983 0.102708 0.013564 0.168233 -0.089472 0.143364 0.031916 0.240531 0.026003 -0.526756 0.200527 -0.106856 0.488619 0.030592 -0.338556 -0.147629 -0.204848 -0.387744 -0.421086 0.395656 -0.452887 -0.284064 0.722808 0.191748 -0.033612 -0.164384 -0.321502 -0.090129 0.487423 -0.21296 0.279854 -0.037838 -0.047156 0.103325 -0.208634 0.100717 0.056409 -0.542617 0.245936 -0.35193 0.390932 -0.014135 0.171724 -0.367045 -0.817398 0.361792 -0.07927 0.090333 -0.066316 -0.542075 0.091567 -0.054559 0.253361 -0.124097 0.07825 -0.311305 0.174468 0.09836 -0.104241 0.012103 -0.253295 0.14945 -0.221219 -0.41939 0.237024 -0.319883 -0.1303 0.556517 0.067631 -0.484302 -0.336111 -0.227644 -0.214149 -0.033784 0.266007 -0.155523 -0.014863 -0.276031 0.313767 -0.376784 0.143477 0.10286 -0.229746 -0.411066 -0.113134 0.378469 0.366792 0.490808 0.132277 0.223177 -0.216782 0.290868 -0.11974 -0.02192 -0.08363 0.373487 -0.034226 -0.415639 0.037693 -0.080869 -0.068659 0.097103 -0.098272 -0.18599 -0.152952 -0.063187 -0.394322 0.081663 -0.067454 -0.627019 -0.399431 0.349168 0.159927 -0.514112 -0.142264 0.466589 0.294783 -0.051447 -0.221 -0.083484 -0.145649 0.34078 0.217092 -0.078264 -0.164487 -0.362277 -0.082205 0.098442 0.099251 0.378508 0.338619 -0.283356 -0.321014 -0.1775 -0.030494 0.220613 -0.268738 -0.043584 0.033275 0.412167 0.303032 0.408239 -0.235734 -0.159463 0.150504 0.209792 0.160477 -0.036032 0.369581 -0.282942 -0.041394 0.044156 -0.110616 -0.415356 0.475334 0.290264 -0.029401 0.037431 -0.114306 -0.238618 -0.115258 0.14911 0.100948 0.129526 0.009086 0.36209 0.151474 -0.358152 0.046942 0.004079 -0.038488 -0.220105 -0.100067 -0.031256 0.185209 -0.281105 -0.285609 0.110359 0.338151 -0.28441 0.149774 -0.146992 0.110383 -0.093864 -0.108393 0.15564 -0.183246 0.093848 0.088022 -0.147499 -0.301562 -0.522778 -0.158641 -0.400312 0.121167 -0.239394 -0.286696 -0.061692 0.485854 0.251182 -0.265294 0.096076 -0.243025 -0.127579 -0.151857 0.050623 -0.485571 0.117068 -0.021906 0.181406 0.073908 0.212762 -0.329609 0.513245 -0.069363 0.328133 0.146052 0.293593 -0.215113 0.348508 0.061489 -0.061104 -0.392327 -0.606356 0.334743 0.348164 0.23395 0.275494 0.078108 -0.336205 0.176219 -0.132382 -0.636246 0.452134
